booster[0]:
0:[f0<42.4852219] yes=1,no=2,missing=1
	1:[f14<123.123428] yes=3,no=4,missing=3
		3:[f0<26.6200294] yes=7,no=8,missing=7
			7:[f16<59.3608246] yes=15,no=16,missing=15
				15:[f14<112.209595] yes=31,no=32,missing=31
					31:leaf=-0.00961365271
					32:leaf=0.0519346893
				16:[f14<29.8648682] yes=33,no=34,missing=33
					33:leaf=-0.00814499799
					34:leaf=0.0453940704
			8:[f16<63.0905876] yes=17,no=18,missing=17
				17:[f14<33.7111473] yes=35,no=36,missing=35
					35:leaf=-0.0127780428
					36:leaf=0.0659798607
				18:[f14<28.8937569] yes=37,no=38,missing=37
					37:leaf=0.0370091163
					38:leaf=0.128293246
		4:[f14<171.068573] yes=9,no=10,missing=9
			9:[f0<24.4200249] yes=19,no=20,missing=19
				19:[f20<42.5508575] yes=39,no=40,missing=39
					39:leaf=0.103109322
					40:leaf=0.169591367
				20:[f3<124.82338] yes=41,no=42,missing=41
					41:leaf=0.185271367
					42:leaf=0.233766705
			10:[f0<25.1509342] yes=21,no=22,missing=21
				21:[f3<85.144165] yes=43,no=44,missing=43
					43:leaf=0.181626037
					44:leaf=0.220142245
				22:[f3<115.144577] yes=45,no=46,missing=45
					45:leaf=0.23562637
					46:leaf=0.25917393
	2:[f0<59.6219368] yes=5,no=6,missing=5
		5:[f14<115.385712] yes=11,no=12,missing=11
			11:[f7<50.3775864] yes=23,no=24,missing=23
				23:[f14<32.0014153] yes=47,no=48,missing=47
					47:leaf=0.0557788908
					48:leaf=0.14719516
				24:[f8<102.056747] yes=49,no=50,missing=49
					49:leaf=0.165612906
					50:leaf=0.214111
			12:[f14<134.233154] yes=25,no=26,missing=25
				25:[f3<111.083511] yes=51,no=52,missing=51
					51:leaf=0.226653084
					52:leaf=0.263100564
				26:[f24<0.152930766] yes=53,no=54,missing=53
					53:leaf=0.275126189
					54:leaf=0.215151504
		6:[f0<79.8692169] yes=13,no=14,missing=13
			13:[f14<111.497673] yes=27,no=28,missing=27
				27:[f14<32.8424301] yes=55,no=56,missing=55
					55:leaf=0.199083731
					56:leaf=0.255114019
				28:[f14<129.10025] yes=57,no=58,missing=57
					57:leaf=0.272853553
					58:leaf=0.289894879
			14:[f24<0.781947613] yes=29,no=30,missing=29
				29:[f14<49.4782791] yes=59,no=60,missing=59
					59:leaf=0.284778684
					60:leaf=0.294566274
				30:[f1<65.4111786] yes=61,no=62,missing=61
					61:leaf=-0.0290322583
					62:leaf=0.133333325
booster[1]:
0:[f0<42.418911] yes=1,no=2,missing=1
	1:[f14<127.25473] yes=3,no=4,missing=3
		3:[f20<62.5444565] yes=7,no=8,missing=7
			7:[f0<27.5735626] yes=15,no=16,missing=15
				15:[f14<65.5540695] yes=31,no=32,missing=31
					31:leaf=0.196505412
					32:leaf=0.235701799
				16:[f3<83.4827423] yes=33,no=34,missing=33
					33:leaf=0.166894212
					34:leaf=0.115926228
			8:[f14<39.4655533] yes=17,no=18,missing=17
				17:[f1<77.2735748] yes=35,no=36,missing=35
					35:leaf=0.0141509399
					36:leaf=0.143979058
				18:[f0<26.3063622] yes=37,no=38,missing=37
					37:leaf=0.170197874
					38:leaf=0.0910851806
		4:[f0<24.7367516] yes=9,no=10,missing=9
			9:[f14<170.868179] yes=19,no=20,missing=19
				19:[f20<39.6127014] yes=39,no=40,missing=39
					39:leaf=0.129829869
					40:leaf=0.0638422444
				20:[f3<99.6196899] yes=41,no=42,missing=41
					41:leaf=0.0545754619
					42:leaf=0.0151787223
			10:[f14<171.010712] yes=21,no=22,missing=21
				21:[f3<94.5517273] yes=43,no=44,missing=43
					43:leaf=0.0537713841
					44:leaf=0.00861959253
				22:[f3<115.132904] yes=45,no=46,missing=45
					45:leaf=0.00404566759
					46:leaf=-0.0218912456
	2:[f0<59.7432098] yes=5,no=6,missing=5
		5:[f14<116.620377] yes=11,no=12,missing=11
			11:[f14<72.901886] yes=23,no=24,missing=23
				23:[f7<49.772316] yes=47,no=48,missing=47
					47:leaf=0.0605540834
					48:leaf=0.00553520396
				24:[f14<104.988953] yes=49,no=50,missing=49
					49:leaf=0.115382507
					50:leaf=0.044694148
			12:[f14<147.669449] yes=25,no=26,missing=25
				25:[f3<99.1276932] yes=51,no=52,missing=51
					51:leaf=0.00207898533
					52:leaf=-0.0312529691
				26:[f0<49.4461136] yes=53,no=54,missing=53
					53:leaf=-0.0307528172
					54:leaf=-0.044137802
		6:[f0<79.7245178] yes=13,no=14,missing=13
			13:[f14<123.235962] yes=27,no=28,missing=27
				27:[f8<95.4803925] yes=55,no=56,missing=55
					55:leaf=-0.00749517605
					56:leaf=-0.0344542526
				28:[f3<82.5306091] yes=57,no=58,missing=57
					57:leaf=-0.0484114848
					58:leaf=-0.0548796244
			14:[f8<45.6457405] yes=29,no=30,missing=29
				29:[f14<49.2380981] yes=59,no=60,missing=59
					59:leaf=-0.0237952732
					60:leaf=-0.0566892922
				30:[f0<96.6313095] yes=61,no=62,missing=61
					61:leaf=-0.0553342104
					62:leaf=-0.0592953973
booster[2]:
0:[f24<0.589860618] yes=1,no=2,missing=1
	1:[f21<30.7687645] yes=3,no=4,missing=3
		3:[f20<35.2833138] yes=7,no=8,missing=7
			7:[f25<0.164761946] yes=15,no=16,missing=15
				15:[f10<0.0165965706] yes=29,no=30,missing=29
					29:leaf=-0.0290322583
					30:leaf=-0.0595507286
				16:[f0<40.9304886] yes=31,no=32,missing=31
					31:leaf=0.0157894716
					32:leaf=-0.0441176482
			8:[f20<35.2853432] yes=17,no=18,missing=17
				17:leaf=0.0157894716
				18:[f25<0.49988386] yes=33,no=34,missing=33
					33:leaf=-0.0581746958
					34:leaf=0.0157894716
		4:[f25<0.512908459] yes=9,no=10,missing=9
			9:[f18<1.92362463] yes=19,no=20,missing=19
				19:[f24<0.111630425] yes=35,no=36,missing=35
					35:leaf=-0.0515323393
					36:leaf=-0.0368779264
				20:[f19<1.72678506] yes=37,no=38,missing=37
					37:leaf=-0.0539861694
					38:leaf=-0.0573171452
			10:[f19<2.40269709] yes=21,no=22,missing=21
				21:[f26<0.0176229198] yes=39,no=40,missing=39
					39:leaf=0.0336322822
					40:leaf=0.153061211
				22:[f9<5.6440897] yes=41,no=42,missing=41
					41:leaf=-0.0539325848
					42:leaf=0.0631578937
	2:[f19<1.80759001] yes=5,no=6,missing=5
		5:[f24<0.856632829] yes=11,no=12,missing=11
			11:[f8<29.2439041] yes=23,no=24,missing=23
				23:leaf=-0.0348837189
				24:[f25<-0.990257859] yes=43,no=44,missing=43
					43:leaf=0.028767122
					44:leaf=0.187499985
			12:leaf=0.230097085
		6:[f20<60.7715912] yes=13,no=14,missing=13
			13:[f24<0.930664301] yes=25,no=26,missing=25
				25:[f18<2.36281729] yes=45,no=46,missing=45
					45:leaf=-0.0068181837
					46:leaf=-0.0552631579
				26:[f6<52.6063538] yes=47,no=48,missing=47
					47:leaf=0.110526316
					48:leaf=-0.0348837189
			14:[f7<54.85009] yes=27,no=28,missing=27
				27:[f2<13.6641369] yes=49,no=50,missing=49
					49:leaf=0.0157894716
					50:leaf=-0.0461538471
				28:[f16<99.4956665] yes=51,no=52,missing=51
					51:leaf=0.153658524
					52:leaf=-0.0375000015
booster[3]:
0:leaf=-0.0598533526
booster[4]:
0:[f24<0.819912434] yes=1,no=2,missing=1
	1:leaf=-0.0597171858
	2:[f6<169.04776] yes=3,no=4,missing=3
		3:leaf=-0.0566037707
		4:leaf=0.0622641444
booster[5]:
0:[f14<36.5277786] yes=1,no=2,missing=1
	1:[f18<2.06091928] yes=3,no=4,missing=3
		3:[f16<34.5724678] yes=7,no=8,missing=7
			7:[f3<25.4943962] yes=15,no=16,missing=15
				15:[f10<2.00569582] yes=31,no=32,missing=31
					31:leaf=0.179080233
					32:leaf=0.00560747413
				16:[f10<2.06030798] yes=33,no=34,missing=33
					33:leaf=0.0415028036
					34:leaf=-0.0435597189
			8:[f21<31.7052879] yes=17,no=18,missing=17
				17:[f3<24.9775581] yes=35,no=36,missing=35
					35:leaf=-0.00178678043
					36:leaf=-0.0574831367
				18:[f0<61.6447182] yes=37,no=38,missing=37
					37:leaf=0.0809289813
					38:leaf=-0.0419922732
		4:[f0<68.0005951] yes=9,no=10,missing=9
			9:[f16<63.5132256] yes=19,no=20,missing=19
				19:[f10<1.99538803] yes=39,no=40,missing=39
					39:leaf=0.208369285
					40:leaf=0.0556612685
				20:[f20<133.670532] yes=41,no=42,missing=41
					41:leaf=-0.0253639277
					42:leaf=0.164124772
			10:[f0<84.5202255] yes=21,no=22,missing=21
				21:[f16<46.1009445] yes=43,no=44,missing=43
					43:leaf=0.104156472
					44:leaf=-0.00398936449
				22:[f0<112.270752] yes=45,no=46,missing=45
					45:leaf=-0.0313566588
					46:leaf=-0.0566628054
	2:[f14<39.6704941] yes=5,no=6,missing=5
		5:[f16<23.5371017] yes=11,no=12,missing=11
			11:[f10<2.29855585] yes=23,no=24,missing=23
				23:[f3<64.9199371] yes=47,no=48,missing=47
					47:leaf=0.086648494
					48:leaf=-0.0416430607
				24:[f18<2.50843239] yes=49,no=50,missing=49
					49:leaf=-0.0579349883
					50:leaf=0.0269662887
			12:[f18<1.83223844] yes=25,no=26,missing=25
				25:[f3<4.83928967] yes=51,no=52,missing=51
					51:leaf=0.0157894716
					52:leaf=-0.0577760339
				26:[f16<49.299675] yes=53,no=54,missing=53
					53:leaf=0.00748630241
					54:leaf=-0.0495590828
		6:[f14<41.8107758] yes=13,no=14,missing=13
			13:[f16<24.166954] yes=27,no=28,missing=27
				27:[f10<2.12168121] yes=55,no=56,missing=55
					55:leaf=0.011787816
					56:leaf=-0.0457202494
				28:[f13<2.73370075] yes=57,no=58,missing=57
					57:leaf=-0.0577967837
					58:leaf=0.0166666638
			14:[f1<36.661438] yes=29,no=30,missing=29
				29:[f14<45.1659737] yes=59,no=60,missing=59
					59:leaf=-0.0526286662
					60:leaf=-0.0584878623
				30:[f3<0.705789566] yes=61,no=62,missing=61
					61:leaf=0.0069767423
					62:leaf=-0.0596835688
booster[6]:
0:[f0<40.4093933] yes=1,no=2,missing=1
	1:[f14<118.553947] yes=3,no=4,missing=3
		3:[f0<26.6887741] yes=7,no=8,missing=7
			7:[f16<69.496048] yes=15,no=16,missing=15
				15:[f14<33.1309814] yes=31,no=32,missing=31
					31:leaf=-0.0356788896
					32:leaf=0.00271680974
				16:[f14<24.1387939] yes=33,no=34,missing=33
					33:leaf=-0.0135548925
					34:leaf=0.0433449745
			8:[f16<53.5663376] yes=17,no=18,missing=17
				17:[f14<36.3012466] yes=35,no=36,missing=35
					35:leaf=-0.0191916768
					36:leaf=0.0468042679
				18:[f14<29.865448] yes=37,no=38,missing=37
					37:leaf=0.0259959791
					38:leaf=0.100670934
		4:[f14<148.583191] yes=9,no=10,missing=9
			9:[f0<24.0765953] yes=19,no=20,missing=19
				19:[f3<82.4523163] yes=39,no=40,missing=39
					39:leaf=0.061932791
					40:leaf=0.113804042
				20:[f3<101.22271] yes=41,no=42,missing=41
					41:leaf=0.132417694
					42:leaf=0.170768008
			10:[f0<21.2907372] yes=21,no=22,missing=21
				21:[f20<86.0466003] yes=43,no=44,missing=43
					43:leaf=0.143378288
					44:leaf=0.190513834
				22:[f14<230.307983] yes=45,no=46,missing=45
					45:leaf=0.172486886
					46:leaf=0.193666577
	2:[f0<57.5229263] yes=5,no=6,missing=5
		5:[f14<111.568863] yes=11,no=12,missing=11
			11:[f16<49.5575485] yes=23,no=24,missing=23
				23:[f3<54.4374924] yes=47,no=48,missing=47
					47:leaf=0.0694354326
					48:leaf=0.137310162
				24:[f14<27.6028748] yes=49,no=50,missing=49
					49:leaf=0.0822896063
					50:leaf=0.157344043
			12:[f14<147.669449] yes=25,no=26,missing=25
				25:[f3<101.669189] yes=51,no=52,missing=51
					51:leaf=0.172973514
					52:leaf=0.203169852
				26:[f24<0.832134962] yes=53,no=54,missing=53
					53:leaf=0.208676502
					54:leaf=-0.0169711392
		6:[f0<72.9018784] yes=13,no=14,missing=13
			13:[f14<113.472366] yes=27,no=28,missing=27
				27:[f2<13.5786638] yes=55,no=56,missing=55
					55:leaf=0.120723546
					56:leaf=0.18745032
				28:[f24<0.657413006] yes=57,no=58,missing=57
					57:leaf=0.216005236
					58:leaf=0.0240574833
			14:[f24<0.589456499] yes=29,no=30,missing=29
				29:[f0<95.264328] yes=59,no=60,missing=59
					59:leaf=0.215546206
					60:leaf=0.221366286
				30:[f2<28.8268738] yes=61,no=62,missing=61
					61:leaf=0.00919108093
					62:leaf=0.14667134
booster[7]:
0:[f0<46.3348618] yes=1,no=2,missing=1
	1:[f14<132.688553] yes=3,no=4,missing=3
		3:[f20<70.2526855] yes=7,no=8,missing=7
			7:[f0<32.0402718] yes=15,no=16,missing=15
				15:[f14<114.552094] yes=31,no=32,missing=31
					31:leaf=0.173276588
					32:leaf=0.126990199
				16:[f14<114.276276] yes=33,no=34,missing=33
					33:leaf=0.116443276
					34:leaf=0.0525595732
			8:[f14<40.0545044] yes=17,no=18,missing=17
				17:[f1<87.9826965] yes=35,no=36,missing=35
					35:leaf=0.00777774258
					36:leaf=0.129581615
				18:[f0<28.8695259] yes=37,no=38,missing=37
					37:leaf=0.128021643
					38:leaf=0.059217114
		4:[f0<29.8528175] yes=9,no=10,missing=9
			9:[f14<170.868179] yes=19,no=20,missing=19
				19:[f20<43.1667786] yes=39,no=40,missing=39
					39:leaf=0.0965122133
					40:leaf=0.0423082709
				20:[f3<88.0043182] yes=41,no=42,missing=41
					41:leaf=0.0456206016
					42:leaf=0.0119227655
			10:[f14<185.343292] yes=21,no=22,missing=21
				21:[f3<91.3775482] yes=43,no=44,missing=43
					43:leaf=0.023717111
					44:leaf=-0.00960139465
				22:[f24<0.00597044267] yes=45,no=46,missing=45
					45:leaf=-0.0106985159
					46:leaf=-0.0294810664
	2:[f0<64.2866516] yes=5,no=6,missing=5
		5:[f14<120.153961] yes=11,no=12,missing=11
			11:[f8<83.9366302] yes=23,no=24,missing=23
				23:[f3<54.868042] yes=47,no=48,missing=47
					47:leaf=0.104444362
					48:leaf=0.0216370095
				24:[f7<49.0927811] yes=49,no=50,missing=49
					49:leaf=0.041404482
					50:leaf=-0.00310037727
			12:[f14<147.854095] yes=25,no=26,missing=25
				25:[f3<99.4755554] yes=51,no=52,missing=51
					51:leaf=-0.0129936635
					52:leaf=-0.0393525288
				26:[f0<54.0522232] yes=53,no=54,missing=53
					53:leaf=-0.036068961
					54:leaf=-0.047778964
		6:[f0<80.4744568] yes=13,no=14,missing=13
			13:[f14<112.73024] yes=27,no=28,missing=27
				27:[f8<97.6757584] yes=55,no=56,missing=55
					55:leaf=-0.0115613816
					56:leaf=-0.0383143537
				28:[f14<130.226135] yes=57,no=58,missing=57
					57:leaf=-0.0408815853
					58:leaf=-0.0533488095
			14:[f8<45.6411591] yes=29,no=30,missing=29
				29:[f14<49.2380981] yes=59,no=60,missing=59
					59:leaf=-0.0232001375
					60:leaf=-0.0558004566
				30:[f0<96.6304398] yes=61,no=62,missing=61
					61:leaf=-0.0545811169
					62:leaf=-0.0584743135
booster[8]:
0:[f24<0.559038699] yes=1,no=2,missing=1
	1:[f21<30.7687645] yes=3,no=4,missing=3
		3:[f20<35.2833138] yes=7,no=8,missing=7
			7:[f25<0.164761946] yes=15,no=16,missing=15
				15:[f10<0.0165965706] yes=29,no=30,missing=29
					29:leaf=-0.0278748255
					30:leaf=-0.058769118
				16:[f24<0.0374929383] yes=31,no=32,missing=31
					31:leaf=-0.0434388667
					32:leaf=0.0174574107
			8:[f20<35.2853432] yes=17,no=18,missing=17
				17:leaf=0.015979588
				18:[f25<0.49988386] yes=33,no=34,missing=33
					33:leaf=-0.0573313236
					34:leaf=0.0158542451
		4:[f25<0.512908459] yes=9,no=10,missing=9
			9:[f18<1.92362463] yes=19,no=20,missing=19
				19:[f26<0.0550404787] yes=35,no=36,missing=35
					35:leaf=-0.0507115722
					36:leaf=-0.0377868451
				20:[f19<1.72678506] yes=37,no=38,missing=37
					37:leaf=-0.0529631376
					38:leaf=-0.056420166
			10:[f19<2.40269709] yes=21,no=22,missing=21
				21:[f12<0.727664828] yes=39,no=40,missing=39
					39:leaf=-0.0418420956
					40:leaf=0.0892781541
				22:[f9<5.6440897] yes=41,no=42,missing=41
					41:leaf=-0.0529800914
					42:leaf=0.0608806573
	2:[f19<1.80759001] yes=5,no=6,missing=5
		5:[f20<39.621254] yes=11,no=12,missing=11
			11:leaf=0.000251756835
			12:[f11<1.94199157] yes=23,no=24,missing=23
				23:leaf=0.0545477942
				24:[f16<99.1350784] yes=43,no=44,missing=43
					43:leaf=0.190822586
					44:leaf=0.0138586331
		6:[f7<54.9213715] yes=13,no=14,missing=13
			13:[f12<1.0617516] yes=25,no=26,missing=25
				25:[f15<87.3731003] yes=45,no=46,missing=45
					45:leaf=-0.0405407436
					46:leaf=0.091869466
				26:leaf=-0.0548755191
			14:[f7<64.5954742] yes=27,no=28,missing=27
				27:leaf=0.172478333
				28:[f24<0.981996834] yes=47,no=48,missing=47
					47:leaf=-0.0122852651
					48:leaf=0.103067517
booster[9]:
0:leaf=-0.0590794496
booster[10]:
0:[f24<0.819912434] yes=1,no=2,missing=1
	1:leaf=-0.058937259
	2:[f6<169.04776] yes=3,no=4,missing=3
		3:leaf=-0.0557111092
		4:leaf=0.0599372685
booster[11]:
0:[f14<36.5277786] yes=1,no=2,missing=1
	1:[f18<1.87950039] yes=3,no=4,missing=3
		3:[f16<34.5724678] yes=7,no=8,missing=7
			7:[f3<24.5604515] yes=15,no=16,missing=15
				15:[f10<2.03309822] yes=31,no=32,missing=31
					31:leaf=0.154777035
					32:leaf=0.00572815724
				16:[f10<1.66690254] yes=33,no=34,missing=33
					33:leaf=0.0532313362
					34:leaf=-0.0310213268
			8:[f21<32.4968109] yes=17,no=18,missing=17
				17:[f3<24.9775581] yes=35,no=36,missing=35
					35:leaf=1.63015775e-05
					36:leaf=-0.0568027198
				18:[f0<60.8829994] yes=37,no=38,missing=37
					37:leaf=0.0647396594
					38:leaf=-0.045084361
		4:[f0<71.3647156] yes=9,no=10,missing=9
			9:[f16<64.5146332] yes=19,no=20,missing=19
				19:[f10<1.84914589] yes=39,no=40,missing=39
					39:leaf=0.171861783
					40:leaf=0.0599366687
				20:[f20<133.99527] yes=41,no=42,missing=41
					41:leaf=-0.0286378264
					42:leaf=0.134280488
			10:[f0<96.2591705] yes=21,no=22,missing=21
				21:[f16<48.2155075] yes=43,no=44,missing=43
					43:leaf=0.0653776452
					44:leaf=-0.0218321513
				22:[f0<112.727798] yes=45,no=46,missing=45
					45:leaf=-0.0365667157
					46:leaf=-0.0559837222
	2:[f14<39.6704941] yes=5,no=6,missing=5
		5:[f16<23.5371017] yes=11,no=12,missing=11
			11:[f3<21.5565338] yes=23,no=24,missing=23
				23:[f10<2.34483099] yes=47,no=48,missing=47
					47:leaf=0.125447497
					48:leaf=-0.0486327708
				24:[f18<2.47010159] yes=49,no=50,missing=49
					49:leaf=-0.0274904855
					50:leaf=0.0884985998
			12:[f18<1.83223844] yes=25,no=26,missing=25
				25:[f21<135.55307] yes=51,no=52,missing=51
					51:leaf=-0.0571249016
					52:leaf=-0.00958316494
				26:[f16<56.8083725] yes=53,no=54,missing=53
					53:leaf=0.00102776557
					54:leaf=-0.0513608158
		6:[f14<41.8097954] yes=13,no=14,missing=13
			13:[f16<24.166954] yes=27,no=28,missing=27
				27:[f10<2.12168121] yes=55,no=56,missing=55
					55:leaf=0.0117921541
					56:leaf=-0.0445734747
				28:[f13<2.73370075] yes=57,no=58,missing=57
					57:leaf=-0.0569631457
					58:leaf=0.016713731
			14:[f2<19.0470428] yes=29,no=30,missing=29
				29:[f3<5.53973198] yes=59,no=60,missing=59
					59:leaf=-0.029924361
					60:leaf=-0.0575749241
				30:[f26<0.515202999] yes=61,no=62,missing=61
					61:leaf=-0.0589371808
					62:leaf=-0.0314926319
booster[12]:
0:[f0<38.1970825] yes=1,no=2,missing=1
	1:[f14<117.498291] yes=3,no=4,missing=3
		3:[f7<41.528862] yes=7,no=8,missing=7
			7:[f3<86.9415436] yes=15,no=16,missing=15
				15:[f14<29.9529743] yes=31,no=32,missing=31
					31:leaf=-0.0323581658
					32:leaf=0.0037374259
				16:[f14<32.545639] yes=33,no=34,missing=33
					33:leaf=-0.00376107055
					34:leaf=0.0498766229
			8:[f14<70.7443771] yes=17,no=18,missing=17
				17:[f14<32.5920029] yes=35,no=36,missing=35
					35:leaf=0.0204303917
					36:leaf=0.102371097
				18:[f14<106.037247] yes=37,no=38,missing=37
					37:leaf=0.0197685398
					38:leaf=0.0662312731
		4:[f14<145.640778] yes=9,no=10,missing=9
			9:[f0<23.336031] yes=19,no=20,missing=19
				19:[f20<59.5504227] yes=39,no=40,missing=39
					39:leaf=0.0574717
					40:leaf=0.11065755
				20:[f20<99.3013306] yes=41,no=42,missing=41
					41:leaf=0.109101012
					42:leaf=0.158027977
			10:[f0<19.9434776] yes=21,no=22,missing=21
				21:[f14<212.966553] yes=43,no=44,missing=43
					43:leaf=0.108361028
					44:leaf=0.138634935
				22:[f24<0.116097227] yes=45,no=46,missing=45
					45:leaf=0.149970517
					46:leaf=0.096341297
	2:[f0<54.2574539] yes=5,no=6,missing=5
		5:[f14<113.875183] yes=11,no=12,missing=11
			11:[f7<45.6262207] yes=23,no=24,missing=23
				23:[f14<34.9017792] yes=47,no=48,missing=47
					47:leaf=0.0213183798
					48:leaf=0.0852875486
				24:[f14<72.9903641] yes=49,no=50,missing=49
					49:leaf=0.134359419
					50:leaf=0.0907994583
			12:[f14<152.046478] yes=25,no=26,missing=25
				25:[f3<98.442543] yes=51,no=52,missing=51
					51:leaf=0.141670182
					52:leaf=0.16590625
				26:[f24<0.0552077666] yes=53,no=54,missing=53
					53:leaf=0.169661626
					54:leaf=0.156020507
		6:[f0<72.1788025] yes=13,no=14,missing=13
			13:[f14<32.8424301] yes=27,no=28,missing=27
				27:[f18<1.88331842] yes=55,no=56,missing=55
					55:leaf=0.143382773
					56:leaf=0.0741234496
				28:[f14<119.948181] yes=57,no=58,missing=57
					57:leaf=0.155354857
					58:leaf=0.175499007
			14:[f24<0.117511965] yes=29,no=30,missing=29
				29:[f14<109.578705] yes=59,no=60,missing=59
					59:leaf=0.175755695
					60:leaf=0.180070996
				30:[f24<0.962798595] yes=61,no=62,missing=61
					61:leaf=0.165660322
					62:leaf=-0.0244324412
booster[13]:
0:[f0<46.60252] yes=1,no=2,missing=1
	1:[f14<133.039658] yes=3,no=4,missing=3
		3:[f20<85.2341766] yes=7,no=8,missing=7
			7:[f0<34.127636] yes=15,no=16,missing=15
				15:[f14<69.3591003] yes=31,no=32,missing=31
					31:leaf=0.122472301
					32:leaf=0.149676263
				16:[f8<87.8706818] yes=33,no=34,missing=33
					33:leaf=0.10181582
					34:leaf=0.0610195063
			8:[f14<65.1618347] yes=17,no=18,missing=17
				17:[f1<65.1184235] yes=35,no=36,missing=35
					35:leaf=0.00668661809
					36:leaf=0.0588978194
				18:[f24<0.0347613543] yes=37,no=38,missing=37
					37:leaf=0.0501806438
					38:leaf=0.116870813
		4:[f0<29.8528175] yes=9,no=10,missing=9
			9:[f14<209.253906] yes=19,no=20,missing=19
				19:[f3<95.0612335] yes=39,no=40,missing=39
					39:leaf=0.0774221569
					40:leaf=0.0342104286
				20:[f20<93.5964279] yes=41,no=42,missing=41
					41:leaf=0.0255833957
					42:leaf=-0.0138080036
			10:[f14<185.343292] yes=21,no=22,missing=21
				21:[f3<91.3775482] yes=43,no=44,missing=43
					43:leaf=0.0222048536
					44:leaf=-0.00935036689
				22:[f24<0.00597044267] yes=45,no=46,missing=45
					45:leaf=-0.0101253428
					46:leaf=-0.0283684619
	2:[f0<64.2866516] yes=5,no=6,missing=5
		5:[f14<121.222496] yes=11,no=12,missing=11
			11:[f0<54.2960968] yes=23,no=24,missing=23
				23:[f3<54.3360977] yes=47,no=48,missing=47
					47:leaf=0.0731171817
					48:leaf=0.0294370931
				24:[f8<83.9414673] yes=49,no=50,missing=49
					49:leaf=0.0263119489
					50:leaf=-0.00844526943
			12:[f14<147.854095] yes=25,no=26,missing=25
				25:[f3<82.3191376] yes=51,no=52,missing=51
					51:leaf=-0.0113989273
					52:leaf=-0.0360519849
				26:[f0<54.0522232] yes=53,no=54,missing=53
					53:leaf=-0.0345600173
					54:leaf=-0.0466161184
		6:[f0<80.4744568] yes=13,no=14,missing=13
			13:[f14<112.73024] yes=27,no=28,missing=27
				27:[f8<97.6757584] yes=55,no=56,missing=55
					55:leaf=-0.0104450146
					56:leaf=-0.0370334312
				28:[f14<130.226135] yes=57,no=58,missing=57
					57:leaf=-0.0395316184
					58:leaf=-0.0523694232
			14:[f8<45.6411591] yes=29,no=30,missing=29
				29:[f14<49.2380981] yes=59,no=60,missing=59
					59:leaf=-0.0215888917
					60:leaf=-0.0549105667
				30:[f0<96.6304398] yes=61,no=62,missing=61
					61:leaf=-0.0536486395
					62:leaf=-0.0577091984
booster[14]:
0:[f24<0.559038699] yes=1,no=2,missing=1
	1:[f21<30.7687645] yes=3,no=4,missing=3
		3:[f20<35.2833138] yes=7,no=8,missing=7
			7:[f25<0.164761946] yes=15,no=16,missing=15
				15:[f0<51.3801498] yes=29,no=30,missing=29
					29:leaf=-0.0584151857
					30:leaf=-0.057667762
				16:[f25<0.190992132] yes=31,no=32,missing=31
					31:leaf=0.0188501887
					32:leaf=-0.0427266285
			8:[f0<55.233223] yes=17,no=18,missing=17
				17:[f24<0.527284265] yes=33,no=34,missing=33
					33:leaf=-0.0574905276
					34:leaf=0.0206084158
				18:[f24<0.148356184] yes=35,no=36,missing=35
					35:leaf=-0.0560227446
					36:leaf=-0.047908511
		4:[f25<0.512908459] yes=9,no=10,missing=9
			9:[f18<1.92362463] yes=19,no=20,missing=19
				19:[f26<0.0550404787] yes=37,no=38,missing=37
					37:leaf=-0.0496450365
					38:leaf=-0.0363934748
				20:[f19<1.72678506] yes=39,no=40,missing=39
					39:leaf=-0.0519747138
					40:leaf=-0.055573035
			10:[f26<0.0176229198] yes=21,no=22,missing=21
				21:[f9<3.12338924] yes=41,no=42,missing=41
					41:leaf=-0.0362979993
					42:leaf=0.0408096276
				22:[f1<66.6291275] yes=43,no=44,missing=43
					43:leaf=-0.0368865319
					44:leaf=0.168467402
	2:[f19<1.80759001] yes=5,no=6,missing=5
		5:[f20<39.621254] yes=11,no=12,missing=11
			11:leaf=0.000498835172
			12:[f15<-50.8911667] yes=23,no=24,missing=23
				23:leaf=0.0173882935
				24:[f20<108.799255] yes=45,no=46,missing=45
					45:leaf=0.159940228
					46:leaf=0.0496064983
		6:[f7<54.9213715] yes=13,no=14,missing=13
			13:[f12<1.0617516] yes=25,no=26,missing=25
				25:[f15<87.3731003] yes=47,no=48,missing=47
					47:leaf=-0.0396656618
					48:leaf=0.0869041309
				26:leaf=-0.0541268401
			14:[f7<64.5954742] yes=27,no=28,missing=27
				27:leaf=0.152909607
				28:[f20<60.7715912] yes=49,no=50,missing=49
					49:leaf=-0.0321824551
					50:leaf=0.0396116115
booster[15]:
0:leaf=-0.0583683141
booster[16]:
0:[f24<0.819912434] yes=1,no=2,missing=1
	1:[f20<1327.98804] yes=3,no=4,missing=3
		3:leaf=-0.0582207851
		4:[f14<111.674561] yes=7,no=8,missing=7
			7:leaf=0.0123645812
			8:leaf=-0.0482364558
	2:[f6<169.04776] yes=5,no=6,missing=5
		5:leaf=-0.0549859069
		6:leaf=0.0567859113
booster[17]:
0:[f14<36.7870407] yes=1,no=2,missing=1
	1:[f18<1.87950039] yes=3,no=4,missing=3
		3:[f16<39.086647] yes=7,no=8,missing=7
			7:[f3<28.4397888] yes=15,no=16,missing=15
				15:[f10<2.03440523] yes=31,no=32,missing=31
					31:leaf=0.125689894
					32:leaf=-0.0100154979
				16:[f17<1.5] yes=33,no=34,missing=33
					33:leaf=-0.0271450318
					34:leaf=0.0876072645
			8:[f21<32.4968109] yes=17,no=18,missing=17
				17:[f16<42.2343292] yes=35,no=36,missing=35
					35:leaf=-0.0270704571
					36:leaf=-0.0571793281
				18:[f0<60.8829994] yes=37,no=38,missing=37
					37:leaf=0.0544019639
					38:leaf=-0.044477284
		4:[f0<71.3647156] yes=9,no=10,missing=9
			9:[f1<50.0864716] yes=19,no=20,missing=19
				19:[f20<58.1478767] yes=39,no=40,missing=39
					39:leaf=0.0763118267
					40:leaf=0.156760484
				20:[f20<137.673187] yes=41,no=42,missing=41
					41:leaf=-0.03539785
					42:leaf=0.105460189
			10:[f0<96.2591705] yes=21,no=22,missing=21
				21:[f16<46.3659363] yes=43,no=44,missing=43
					43:leaf=0.0655009598
					44:leaf=-0.0196326952
				22:[f0<112.727798] yes=45,no=46,missing=45
					45:leaf=-0.0352950208
					46:leaf=-0.0551517718
	2:[f14<40.0557976] yes=5,no=6,missing=5
		5:[f16<23.7080421] yes=11,no=12,missing=11
			11:[f10<2.34358454] yes=23,no=24,missing=23
				23:[f1<29.1424484] yes=47,no=48,missing=47
					47:leaf=0.0932666287
					48:leaf=-0.00170470483
				24:[f5<0.0112916715] yes=49,no=50,missing=49
					49:leaf=-0.049413316
					50:leaf=0.0604339205
			12:[f18<1.83223844] yes=25,no=26,missing=25
				25:[f27<0.0773351714] yes=51,no=52,missing=51
					51:leaf=-0.0570088327
					52:leaf=0.020143209
				26:[f0<60.7633209] yes=53,no=54,missing=53
					53:leaf=-0.0134237334
					54:leaf=-0.0546495393
		6:[f14<41.8097954] yes=13,no=14,missing=13
			13:[f16<28.081749] yes=27,no=28,missing=27
				27:[f13<2.36237383] yes=55,no=56,missing=55
					55:leaf=-0.0324619524
					56:leaf=0.0430134758
				28:[f13<2.73062086] yes=57,no=58,missing=57
					57:leaf=-0.0567782223
					58:leaf=-0.00340053369
			14:[f2<19.0516663] yes=29,no=30,missing=29
				29:[f3<5.53973198] yes=59,no=60,missing=59
					59:leaf=-0.0286469199
					60:leaf=-0.0568083636
				30:[f25<0.603384972] yes=61,no=62,missing=61
					61:leaf=-0.058221519
					62:leaf=-0.0409076475
booster[18]:
0:[f0<37.7827377] yes=1,no=2,missing=1
	1:[f14<114.552094] yes=3,no=4,missing=3
		3:[f0<22.9294624] yes=7,no=8,missing=7
			7:[f16<59.387558] yes=15,no=16,missing=15
				15:[f14<36.8948975] yes=31,no=32,missing=31
					31:leaf=-0.0380198024
					32:leaf=-0.00635008747
				16:[f14<29.8324089] yes=33,no=34,missing=33
					33:leaf=-0.0121677108
					34:leaf=0.0295122173
			8:[f16<54.0664215] yes=17,no=18,missing=17
				17:[f3<68.3152008] yes=35,no=36,missing=35
					35:leaf=0.0111490609
					36:leaf=0.0581986904
				18:[f14<28.3197422] yes=37,no=38,missing=37
					37:leaf=0.0148113417
					38:leaf=0.069738701
		4:[f14<147.624435] yes=9,no=10,missing=9
			9:[f0<19.8519249] yes=19,no=20,missing=19
				19:[f3<100.570526] yes=39,no=40,missing=39
					39:leaf=0.0420019962
					40:leaf=0.0842955932
				20:[f20<68.4200821] yes=41,no=42,missing=41
					41:leaf=0.0878933892
					42:leaf=0.129040107
			10:[f3<68.5616455] yes=21,no=22,missing=21
				21:[f14<247.28241] yes=43,no=44,missing=43
					43:leaf=0.0986569002
					44:leaf=0.124943271
				22:[f24<0.0737414956] yes=45,no=46,missing=45
					45:leaf=0.130560264
					46:leaf=0.0995685235
	2:[f0<53.623558] yes=5,no=6,missing=5
		5:[f14<108.902336] yes=11,no=12,missing=11
			11:[f16<49.5575485] yes=23,no=24,missing=23
				23:[f14<36.6110382] yes=47,no=48,missing=47
					47:leaf=-0.000375644508
					48:leaf=0.0709372535
				24:[f14<20.8285027] yes=49,no=50,missing=49
					49:leaf=0.0342849195
					50:leaf=0.106541835
			12:[f14<131.300644] yes=25,no=26,missing=25
				25:[f3<71.3569794] yes=51,no=52,missing=51
					51:leaf=0.106503904
					52:leaf=0.132928267
				26:[f3<138.189362] yes=53,no=54,missing=53
					53:leaf=0.137941137
					54:leaf=0.148286507
		6:[f0<70.3545837] yes=13,no=14,missing=13
			13:[f14<109.275528] yes=27,no=28,missing=27
				27:[f14<29.1364899] yes=55,no=56,missing=55
					55:leaf=0.0883607939
					56:leaf=0.128590256
				28:[f14<129.087433] yes=57,no=58,missing=57
					57:leaf=0.138713375
					58:leaf=0.149136662
			14:[f14<39.7196274] yes=29,no=30,missing=29
				29:[f8<45.9513626] yes=59,no=60,missing=59
					59:leaf=0.120898843
					60:leaf=0.147520185
				30:[f24<0.127863705] yes=61,no=62,missing=61
					61:leaf=0.151171729
					62:leaf=0.140439197
booster[19]:
0:[f0<47.792469] yes=1,no=2,missing=1
	1:[f14<123.123337] yes=3,no=4,missing=3
		3:[f24<0.00559932366] yes=7,no=8,missing=7
			7:[f0<30.213604] yes=15,no=16,missing=15
				15:[f14<69.3591003] yes=31,no=32,missing=31
					31:leaf=0.118077509
					32:leaf=0.137109205
				16:[f8<79.9595795] yes=33,no=34,missing=33
					33:leaf=0.104500294
					34:leaf=0.0675172135
			8:[f24<0.0303110294] yes=17,no=18,missing=17
				17:[f14<70.4950104] yes=35,no=36,missing=35
					35:leaf=-0.00119312864
					36:leaf=0.0451464951
				18:[f14<64.5031052] yes=37,no=38,missing=37
					37:leaf=0.0722898841
					38:leaf=0.122491717
		4:[f0<29.6864243] yes=9,no=10,missing=9
			9:[f14<148.583191] yes=19,no=20,missing=19
				19:[f3<94.7451324] yes=39,no=40,missing=39
					39:leaf=0.0942970365
					40:leaf=0.0491060689
				20:[f20<81.7717667] yes=41,no=42,missing=41
					41:leaf=0.0386404656
					42:leaf=-0.00492642401
			10:[f14<175.312744] yes=21,no=22,missing=21
				21:[f3<120.174576] yes=43,no=44,missing=43
					43:leaf=0.0230120402
					44:leaf=-0.0116856778
				22:[f24<0.00597044267] yes=45,no=46,missing=45
					45:leaf=-0.00811891723
					46:leaf=-0.0264715254
	2:[f0<64.2866516] yes=5,no=6,missing=5
		5:[f14<121.222496] yes=11,no=12,missing=11
			11:[f8<83.9366302] yes=23,no=24,missing=23
				23:[f3<55.4353867] yes=47,no=48,missing=47
					47:leaf=0.0842233971
					48:leaf=0.015279891
				24:[f14<69.935112] yes=49,no=50,missing=49
					49:leaf=-0.0107277678
					50:leaf=0.0248988029
			12:[f14<147.854095] yes=25,no=26,missing=25
				25:[f3<82.3191376] yes=51,no=52,missing=51
					51:leaf=-0.0117454119
					52:leaf=-0.037918251
				26:[f0<54.0522232] yes=53,no=54,missing=53
					53:leaf=-0.0344198048
					54:leaf=-0.0454325341
		6:[f0<80.4744568] yes=13,no=14,missing=13
			13:[f14<125.79287] yes=27,no=28,missing=27
				27:[f8<97.6757584] yes=55,no=56,missing=55
					55:leaf=-0.0120639317
					56:leaf=-0.0363841653
				28:[f1<645.533691] yes=57,no=58,missing=57
					57:leaf=-0.0511650927
					58:leaf=0.00515872752
			14:[f8<45.6411591] yes=29,no=30,missing=29
				29:[f14<49.2380981] yes=59,no=60,missing=59
					59:leaf=-0.0199888106
					60:leaf=-0.0540503822
				30:[f0<96.6304398] yes=61,no=62,missing=61
					61:leaf=-0.0527271107
					62:leaf=-0.0569944866
booster[20]:
0:[f24<0.559038699] yes=1,no=2,missing=1
	1:[f21<30.7687645] yes=3,no=4,missing=3
		3:[f20<31.1849842] yes=7,no=8,missing=7
			7:[f10<0.0165965706] yes=15,no=16,missing=15
				15:[f1<132.995483] yes=29,no=30,missing=29
					29:leaf=-0.0416550748
					30:leaf=0.0126557499
				16:[f0<64.8476868] yes=31,no=32,missing=31
					31:leaf=-0.0577537231
					32:leaf=-0.0569329821
			8:[f0<51.7282906] yes=17,no=18,missing=17
				17:[f24<0.529209375] yes=33,no=34,missing=33
					33:leaf=-0.0569163375
					34:leaf=0.0202789549
				18:[f24<0.0438368171] yes=35,no=36,missing=35
					35:leaf=-0.0559627116
					36:leaf=-0.0534061156
		4:[f25<0.512908459] yes=9,no=10,missing=9
			9:[f18<1.92362463] yes=19,no=20,missing=19
				19:[f27<0.0778460205] yes=37,no=38,missing=37
					37:leaf=-0.0477804467
					38:leaf=-0.019287549
				20:[f19<1.72678506] yes=39,no=40,missing=39
					39:leaf=-0.0510048345
					40:leaf=-0.0547700003
			10:[f19<2.40269709] yes=21,no=22,missing=21
				21:[f12<0.727664828] yes=41,no=42,missing=41
					41:leaf=-0.0407543816
					42:leaf=0.0805088207
				22:[f9<5.6440897] yes=43,no=44,missing=43
					43:leaf=-0.0518651679
					44:leaf=0.0572050177
	2:[f19<1.80759001] yes=5,no=6,missing=5
		5:[f24<0.856632829] yes=11,no=12,missing=11
			11:[f1<112.262817] yes=23,no=24,missing=23
				23:[f3<60.054184] yes=45,no=46,missing=45
					45:leaf=0.128768161
					46:leaf=-0.0192172378
				24:leaf=0.140554711
			12:leaf=0.153478488
		6:[f7<54.9213715] yes=13,no=14,missing=13
			13:[f12<1.0617516] yes=25,no=26,missing=25
				25:[f15<87.3731003] yes=47,no=48,missing=47
					47:leaf=-0.0388258994
					48:leaf=0.0823225677
				26:leaf=-0.0533690564
			14:[f7<64.5954742] yes=27,no=28,missing=27
				27:leaf=0.138211265
				28:[f24<0.981996834] yes=49,no=50,missing=49
					49:leaf=-0.0113350712
					50:leaf=0.0945947021
booster[21]:
0:leaf=-0.0577099808
booster[22]:
0:[f24<0.819912434] yes=1,no=2,missing=1
	1:[f20<1327.98804] yes=3,no=4,missing=3
		3:leaf=-0.0575547926
		4:[f22<48.7305222] yes=7,no=8,missing=7
			7:leaf=-0.0474523418
			8:leaf=0.0143173784
	2:[f6<169.04776] yes=5,no=6,missing=5
		5:leaf=-0.0541942008
		6:leaf=0.0542942248
booster[23]:
0:[f14<36.7870407] yes=1,no=2,missing=1
	1:[f18<1.78543234] yes=3,no=4,missing=3
		3:[f16<39.1348572] yes=7,no=8,missing=7
			7:[f3<29.1158257] yes=15,no=16,missing=15
				15:[f10<2.03440523] yes=31,no=32,missing=31
					31:leaf=0.110467948
					32:leaf=-0.0129192322
				16:[f17<1.5] yes=33,no=34,missing=33
					33:leaf=-0.0290361326
					34:leaf=0.0640002638
			8:[f25<0.00756043196] yes=17,no=18,missing=17
				17:[f16<42.2679749] yes=35,no=36,missing=35
					35:leaf=-0.0262063742
					36:leaf=-0.0561078861
				18:[f0<60.8829994] yes=37,no=38,missing=37
					37:leaf=0.0519178398
					38:leaf=-0.0430727527
		4:[f0<68.2899475] yes=9,no=10,missing=9
			9:[f1<40.7137833] yes=19,no=20,missing=19
				19:[f10<1.92901421] yes=39,no=40,missing=39
					39:leaf=0.135735959
					40:leaf=0.0424197428
				20:[f20<89.239975] yes=41,no=42,missing=41
					41:leaf=-0.0341112874
					42:leaf=0.090354912
			10:[f0<96.2591705] yes=21,no=22,missing=21
				21:[f10<1.32482028] yes=43,no=44,missing=43
					43:leaf=0.0402565859
					44:leaf=-0.0276252329
				22:[f0<112.727798] yes=45,no=46,missing=45
					45:leaf=-0.0330027528
					46:leaf=-0.0544527471
	2:[f14<40.0557976] yes=5,no=6,missing=5
		5:[f16<23.7080421] yes=11,no=12,missing=11
			11:[f10<2.34358454] yes=23,no=24,missing=23
				23:[f1<29.1424484] yes=47,no=48,missing=47
					47:leaf=0.0847983882
					48:leaf=-0.000992759597
				24:[f5<0.0112916715] yes=49,no=50,missing=49
					49:leaf=-0.0484182313
					50:leaf=0.0581114776
			12:[f20<39.1905899] yes=25,no=26,missing=25
				25:[f25<0.0814808309] yes=51,no=52,missing=51
					51:leaf=-0.0568943806
					52:leaf=-0.000324535824
				26:[f0<50.9154282] yes=53,no=54,missing=53
					53:leaf=-0.00656823535
					54:leaf=-0.0507374592
		6:[f14<41.8107758] yes=13,no=14,missing=13
			13:[f16<28.081749] yes=27,no=28,missing=27
				27:[f13<2.36237383] yes=55,no=56,missing=55
					55:leaf=-0.0311966967
					56:leaf=0.0409589671
				28:[f13<2.73062086] yes=57,no=58,missing=57
					57:leaf=-0.0560549386
					58:leaf=-0.00249598012
			14:[f1<36.3404999] yes=29,no=30,missing=29
				29:[f14<45.3611145] yes=59,no=60,missing=59
					59:leaf=-0.0494031459
					60:leaf=-0.0562260561
				30:[f3<0.705789566] yes=61,no=62,missing=61
					61:leaf=0.012242157
					62:leaf=-0.0575079583
booster[24]:
0:[f0<39.2904587] yes=1,no=2,missing=1
	1:[f14<114.552094] yes=3,no=4,missing=3
		3:[f0<23.9245777] yes=7,no=8,missing=7
			7:[f16<59.3592911] yes=15,no=16,missing=15
				15:[f14<36.8948975] yes=31,no=32,missing=31
					31:leaf=-0.0364149176
					32:leaf=-0.00494826864
				16:[f14<29.8324089] yes=33,no=34,missing=33
					33:leaf=-0.00947580207
					34:leaf=0.0288383365
			8:[f16<52.9395294] yes=17,no=18,missing=17
				17:[f3<58.8941193] yes=35,no=36,missing=35
					35:leaf=0.0105231171
					36:leaf=0.0510974638
				18:[f14<23.8357811] yes=37,no=38,missing=37
					37:leaf=0.00521025155
					38:leaf=0.065079771
		4:[f14<145.640778] yes=9,no=10,missing=9
			9:[f0<19.8519249] yes=19,no=20,missing=19
				19:[f20<130.506729] yes=39,no=40,missing=39
					39:leaf=0.0434739962
					40:leaf=0.11152146
				20:[f3<78.9981232] yes=41,no=42,missing=41
					41:leaf=0.074351944
					42:leaf=0.101173356
			10:[f0<16.1987648] yes=21,no=22,missing=21
				21:[f20<86.0466003] yes=43,no=44,missing=43
					43:leaf=0.0836228356
					44:leaf=0.117853582
				22:[f14<232.63356] yes=45,no=46,missing=45
					45:leaf=0.103251092
					46:leaf=0.118017673
	2:[f0<55.6218338] yes=5,no=6,missing=5
		5:[f14<108.901329] yes=11,no=12,missing=11
			11:[f8<90.7567368] yes=23,no=24,missing=23
				23:[f3<64.6194458] yes=47,no=48,missing=47
					47:leaf=0.0392785855
					48:leaf=0.0885905698
				24:[f14<75.2931519] yes=49,no=50,missing=49
					49:leaf=0.109823644
					50:leaf=0.0675011948
			12:[f14<131.300644] yes=25,no=26,missing=25
				25:[f24<-0.997082829] yes=51,no=52,missing=51
					51:leaf=0.098106347
					52:leaf=0.12026681
				26:[f24<0.127975062] yes=53,no=54,missing=53
					53:leaf=0.124422207
					54:leaf=0.100065269
		6:[f0<72.9018784] yes=13,no=14,missing=13
			13:[f14<109.275528] yes=27,no=28,missing=27
				27:[f16<53.3705521] yes=55,no=56,missing=55
					55:leaf=0.0981024131
					56:leaf=0.120597877
				28:[f24<0.657413006] yes=57,no=58,missing=57
					57:leaf=0.128872052
					58:leaf=-0.0113826608
			14:[f25<0.0462280996] yes=29,no=30,missing=29
				29:[f7<40.0318832] yes=59,no=60,missing=59
					59:leaf=0.128086254
					60:leaf=0.132338509
				30:[f14<35.8732758] yes=61,no=62,missing=61
					61:leaf=0.102530144
					62:leaf=0.126524225
booster[25]:
0:[f0<49.4588852] yes=1,no=2,missing=1
	1:[f14<120.744263] yes=3,no=4,missing=3
		3:[f0<35.4969635] yes=7,no=8,missing=7
			7:[f20<108.495697] yes=15,no=16,missing=15
				15:[f14<69.3870087] yes=31,no=32,missing=31
					31:leaf=0.090526633
					32:leaf=0.116614096
				16:[f14<65.1610336] yes=33,no=34,missing=33
					33:leaf=0.0166224129
					34:leaf=0.0766047537
			8:[f20<82.1581879] yes=17,no=18,missing=17
				17:[f14<71.4645844] yes=35,no=36,missing=35
					35:leaf=0.051140435
					36:leaf=0.0862424448
				18:[f14<66.7509918] yes=37,no=38,missing=37
					37:leaf=-0.00443106005
					38:leaf=0.0350589082
		4:[f0<29.6864243] yes=9,no=10,missing=9
			9:[f14<170.868179] yes=19,no=20,missing=19
				19:[f20<50.3766937] yes=39,no=40,missing=39
					39:leaf=0.073634997
					40:leaf=0.0322845206
				20:[f3<88.0043182] yes=41,no=42,missing=41
					41:leaf=0.0370845795
					42:leaf=0.00920928549
			10:[f14<152.983368] yes=21,no=22,missing=21
				21:[f3<118.872368] yes=43,no=44,missing=43
					43:leaf=0.0285879727
					44:leaf=-0.00862371922
				22:[f0<40.6640625] yes=45,no=46,missing=45
					45:leaf=-0.00340340892
					46:leaf=-0.0246670172
	2:[f0<69.6412582] yes=5,no=6,missing=5
		5:[f14<124.194794] yes=11,no=12,missing=11
			11:[f8<95.4675674] yes=23,no=24,missing=23
				23:[f3<55.5265884] yes=47,no=48,missing=47
					47:leaf=0.0666997358
					48:leaf=0.00205465103
				24:[f14<69.9912491] yes=49,no=50,missing=49
					49:leaf=-0.0216201022
					50:leaf=0.0100683086
			12:[f0<58.3465729] yes=25,no=26,missing=25
				25:[f14<147.854095] yes=51,no=52,missing=51
					51:leaf=-0.02063502
					52:leaf=-0.0380229279
				26:[f3<17.9018784] yes=53,no=54,missing=53
					53:leaf=-0.0228719078
					54:leaf=-0.0468572751
		6:[f0<82.5117798] yes=13,no=14,missing=13
			13:[f14<109.700684] yes=27,no=28,missing=27
				27:[f8<77.4165344] yes=55,no=56,missing=55
					55:leaf=-0.00933729112
					56:leaf=-0.0388786495
				28:[f3<804.554871] yes=57,no=58,missing=57
					57:leaf=-0.0497579686
					58:leaf=0.050894022
			14:[f8<38.3822289] yes=29,no=30,missing=29
				29:[f14<49.2380981] yes=59,no=60,missing=59
					59:leaf=-0.0162959527
					60:leaf=-0.0534641631
				30:[f0<105.986076] yes=61,no=62,missing=61
					61:leaf=-0.0528153293
					62:leaf=-0.0565770268
booster[26]:
0:[f24<0.529454947] yes=1,no=2,missing=1
	1:[f21<30.7687645] yes=3,no=4,missing=3
		3:[f20<31.1849842] yes=7,no=8,missing=7
			7:[f0<64.8476868] yes=15,no=16,missing=15
				15:[f10<0.0165965706] yes=29,no=30,missing=29
					29:leaf=-0.00804637
					30:leaf=-0.0571556687
				16:[f0<64.8551407] yes=31,no=32,missing=31
					31:leaf=0.0169205684
					32:leaf=-0.0562669337
			8:[f0<51.7282906] yes=17,no=18,missing=17
				17:[f25<0.328803539] yes=33,no=34,missing=33
					33:leaf=-0.0563144945
					34:leaf=0.0149428537
				18:[f24<0.0438368171] yes=35,no=36,missing=35
					35:leaf=-0.0552331321
					36:leaf=-0.0525501855
		4:[f25<0.512908459] yes=9,no=10,missing=9
			9:[f18<1.92362463] yes=19,no=20,missing=19
				19:[f26<0.0550404787] yes=37,no=38,missing=37
					37:leaf=-0.0475847423
					38:leaf=-0.0332731828
				20:[f19<1.72678506] yes=39,no=40,missing=39
					39:leaf=-0.050049521
					40:leaf=-0.0539970286
			10:[f19<2.40269709] yes=21,no=22,missing=21
				21:[f23<40.3032875] yes=41,no=42,missing=41
					41:leaf=0.0389788263
					42:leaf=0.155771479
				22:[f9<5.6440897] yes=43,no=44,missing=43
					43:leaf=-0.0510351248
					44:leaf=0.0551770739
	2:[f19<1.80759001] yes=5,no=6,missing=5
		5:[f24<0.856632829] yes=11,no=12,missing=11
			11:[f12<1.23111629] yes=23,no=24,missing=23
				23:[f11<3.68723106] yes=45,no=46,missing=45
					45:leaf=-0.0366545804
					46:leaf=0.0174858402
				24:[f18<2.18765044] yes=47,no=48,missing=47
					47:leaf=0.120629251
					48:leaf=0.0202256087
			12:leaf=0.138858601
		6:[f25<-0.993200481] yes=13,no=14,missing=13
			13:[f24<0.97386986] yes=25,no=26,missing=25
				25:[f4<0.00693568215] yes=49,no=50,missing=49
					49:leaf=-0.0364382602
					50:leaf=0.0640802532
				26:[f4<-0.000327866263] yes=51,no=52,missing=51
					51:leaf=0.132808402
					52:leaf=-0.000812787388
			14:[f12<1.0617516] yes=27,no=28,missing=27
				27:[f10<2.12575722] yes=53,no=54,missing=53
					53:leaf=0.171954364
					54:leaf=0.0123861609
				28:[f3<88.343689] yes=55,no=56,missing=55
					55:leaf=0.0480251312
					56:leaf=-0.0429949425
booster[27]:
0:leaf=-0.0570989661
booster[28]:
0:[f24<0.819912434] yes=1,no=2,missing=1
	1:[f0<55.4785385] yes=3,no=4,missing=3
		3:leaf=-0.0572127402
		4:[f0<55.4799957] yes=7,no=8,missing=7
			7:leaf=0.0169189572
			8:[f20<1327.98804] yes=9,no=10,missing=9
				9:leaf=-0.0566837452
				10:[f20<1393.95117] yes=11,no=12,missing=11
					11:leaf=0.0162884481
					12:leaf=-0.0466744937
	2:[f6<169.04776] yes=5,no=6,missing=5
		5:leaf=-0.0533679985
		6:leaf=0.0535923429
booster[29]:
0:[f14<36.7870407] yes=1,no=2,missing=1
	1:[f18<1.78543234] yes=3,no=4,missing=3
		3:[f16<40.6748123] yes=7,no=8,missing=7
			7:[f3<29.1040573] yes=15,no=16,missing=15
				15:[f10<2.03440523] yes=31,no=32,missing=31
					31:leaf=0.0972836316
					32:leaf=-0.015692614
				16:[f17<1.5] yes=33,no=34,missing=33
					33:leaf=-0.030228937
					34:leaf=0.0651891753
			8:[f22<30.60215] yes=17,no=18,missing=17
				17:[f25<0.010432153] yes=35,no=36,missing=35
					35:leaf=-0.0552605465
					36:leaf=-0.0159530155
				18:[f0<61.3231316] yes=37,no=38,missing=37
					37:leaf=0.0762818679
					38:leaf=-0.038042143
		4:[f0<71.7698441] yes=9,no=10,missing=9
			9:[f16<84.9078979] yes=19,no=20,missing=19
				19:[f10<1.57945359] yes=39,no=40,missing=39
					39:leaf=0.117121689
					40:leaf=0.0447626933
				20:[f20<167.083862] yes=41,no=42,missing=41
					41:leaf=-0.0464289039
					42:leaf=0.0845673308
			10:[f0<97.1677704] yes=21,no=22,missing=21
				21:[f16<45.7729034] yes=43,no=44,missing=43
					43:leaf=0.068729803
					44:leaf=-0.0195545293
				22:[f0<112.727798] yes=45,no=46,missing=45
					45:leaf=-0.0319824889
					46:leaf=-0.0536615923
	2:[f14<40.0557976] yes=5,no=6,missing=5
		5:[f16<23.7080421] yes=11,no=12,missing=11
			11:[f10<2.34358454] yes=23,no=24,missing=23
				23:[f0<57.6834412] yes=47,no=48,missing=47
					47:leaf=0.0650818571
					48:leaf=-0.0319890976
				24:[f5<0.0112916715] yes=49,no=50,missing=49
					49:leaf=-0.0474561267
					50:leaf=0.0557568558
			12:[f18<1.83223844] yes=25,no=26,missing=25
				25:[f20<170.351852] yes=51,no=52,missing=51
					51:leaf=-0.0564395599
					52:leaf=-0.0312232561
				26:[f16<42.9223175] yes=53,no=54,missing=53
					53:leaf=0.0126222223
					54:leaf=-0.0440085493
		6:[f14<41.8097954] yes=13,no=14,missing=13
			13:[f16<28.081749] yes=27,no=28,missing=27
				27:[f10<2.04766989] yes=55,no=56,missing=55
					55:leaf=0.0077066794
					56:leaf=-0.045207683
				28:[f13<2.73062086] yes=57,no=58,missing=57
					57:leaf=-0.0553713106
					58:leaf=-0.00154267868
			14:[f2<19.0463371] yes=29,no=30,missing=29
				29:[f3<5.53973198] yes=59,no=60,missing=59
					59:leaf=-0.0252963845
					60:leaf=-0.0553937033
				30:[f25<0.603384972] yes=61,no=62,missing=61
					61:leaf=-0.0569284968
					62:leaf=-0.037646275
booster[30]:
0:[f0<35.4997253] yes=1,no=2,missing=1
	1:[f14<114.552094] yes=3,no=4,missing=3
		3:[f7<40.6862297] yes=7,no=8,missing=7
			7:[f3<86.9415436] yes=15,no=16,missing=15
				15:[f14<29.9529743] yes=31,no=32,missing=31
					31:leaf=-0.0314041488
					32:leaf=0.00092139357
				16:[f14<32.5449905] yes=33,no=34,missing=33
					33:leaf=-0.00753823016
					34:leaf=0.0356591046
			8:[f14<70.7401428] yes=17,no=18,missing=17
				17:[f14<29.869339] yes=35,no=36,missing=35
					35:leaf=0.00929397251
					36:leaf=0.0750990212
				18:[f20<32.8146591] yes=37,no=38,missing=37
					37:leaf=0.00926018879
					38:leaf=0.0409523435
		4:[f14<153.048325] yes=9,no=10,missing=9
			9:[f0<18.2371902] yes=19,no=20,missing=19
				19:[f3<100.570526] yes=39,no=40,missing=39
					39:leaf=0.0338305905
					40:leaf=0.0684651509
				20:[f20<70.5515442] yes=41,no=42,missing=41
					41:leaf=0.0679295436
					42:leaf=0.101408459
			10:[f24<-0.997631133] yes=21,no=22,missing=21
				21:[f14<182.238617] yes=43,no=44,missing=43
					43:leaf=0.0715054497
					44:leaf=0.0907896161
				22:[f24<0.0403106101] yes=45,no=46,missing=45
					45:leaf=0.120404355
					46:leaf=0.080234237
	2:[f0<54.2574539] yes=5,no=6,missing=5
		5:[f14<109.020248] yes=11,no=12,missing=11
			11:[f7<50.3621368] yes=23,no=24,missing=23
				23:[f3<85.2299042] yes=47,no=48,missing=47
					47:leaf=0.0342765562
					48:leaf=0.0741913244
				24:[f14<75.2950287] yes=49,no=50,missing=49
					49:leaf=0.0951951966
					50:leaf=0.0532993637
			12:[f14<131.300644] yes=25,no=26,missing=25
				25:[f3<71.3569794] yes=51,no=52,missing=51
					51:leaf=0.082825467
					52:leaf=0.101793602
				26:[f3<138.192413] yes=53,no=54,missing=53
					53:leaf=0.106178045
					54:leaf=0.115634993
		6:[f0<73.6792755] yes=13,no=14,missing=13
			13:[f14<109.275528] yes=27,no=28,missing=27
				27:[f2<14.4263687] yes=55,no=56,missing=55
					55:leaf=0.0680135116
					56:leaf=0.100767754
				28:[f24<0.11761491] yes=57,no=58,missing=57
					57:leaf=0.114927009
					58:leaf=0.097395502
			14:[f22<30.0023766] yes=29,no=30,missing=29
				29:[f0<94.5458069] yes=59,no=60,missing=59
					59:leaf=0.114675038
					60:leaf=0.118247844
				30:[f14<31.503315] yes=61,no=62,missing=61
					61:leaf=0.0912079737
					62:leaf=0.112885468
booster[31]:
0:[f0<50.975563] yes=1,no=2,missing=1
	1:[f14<141.419983] yes=3,no=4,missing=3
		3:[f0<30.2254715] yes=7,no=8,missing=7
			7:[f20<37.8687057] yes=15,no=16,missing=15
				15:[f14<112.792709] yes=31,no=32,missing=31
					31:leaf=0.101840094
					32:leaf=0.0771291181
				16:[f1<35.8432541] yes=33,no=34,missing=33
					33:leaf=0.0226896331
					34:leaf=0.0768393204
			8:[f20<89.5532684] yes=17,no=18,missing=17
				17:[f7<44.6178665] yes=35,no=36,missing=35
					35:leaf=0.0777064189
					36:leaf=0.0473922491
				18:[f24<0.0469563901] yes=37,no=38,missing=37
					37:leaf=-0.00475567067
					38:leaf=0.0392388888
		4:[f0<28.0349941] yes=9,no=10,missing=9
			9:[f14<230.642334] yes=19,no=20,missing=19
				19:[f20<119.394196] yes=39,no=40,missing=39
					39:leaf=0.0489986911
					40:leaf=-0.00548929954
				20:[f20<82.5619965] yes=41,no=42,missing=41
					41:leaf=0.0203237869
					42:leaf=-0.0127601372
			10:[f0<40.5940552] yes=21,no=22,missing=21
				21:[f3<115.339317] yes=43,no=44,missing=43
					43:leaf=0.0106373057
					44:leaf=-0.0157384295
				22:[f2<339.678741] yes=45,no=46,missing=45
					45:leaf=-0.0231429879
					46:leaf=0.0740417019
	2:[f0<69.6412582] yes=5,no=6,missing=5
		5:[f14<125.274445] yes=11,no=12,missing=11
			11:[f3<87.8773041] yes=23,no=24,missing=23
				23:[f8<93.0252838] yes=47,no=48,missing=47
					47:leaf=0.0433128737
					48:leaf=-0.00465703337
				24:[f0<55.443573] yes=49,no=50,missing=49
					49:leaf=0.0122012617
					50:leaf=-0.0212983713
			12:[f3<82.5238953] yes=25,no=26,missing=25
				25:[f6<54.3889008] yes=51,no=52,missing=51
					51:leaf=-0.0147530762
					52:leaf=-0.0382690877
				26:[f24<0.0869075134] yes=53,no=54,missing=53
					53:leaf=-0.0465130806
					54:leaf=-0.0285624452
		6:[f0<82.5117798] yes=13,no=14,missing=13
			13:[f14<109.700684] yes=27,no=28,missing=27
				27:[f8<58.7559586] yes=55,no=56,missing=55
					55:leaf=-0.00337048108
					56:leaf=-0.0357873291
				28:[f3<17.8384476] yes=57,no=58,missing=57
					57:leaf=-0.0242980253
					58:leaf=-0.0493027084
			14:[f8<38.3822289] yes=29,no=30,missing=29
				29:[f14<49.2380981] yes=59,no=60,missing=59
					59:leaf=-0.0146693513
					60:leaf=-0.0526562743
				30:[f0<105.988174] yes=61,no=62,missing=61
					61:leaf=-0.0519736595
					62:leaf=-0.0559538715
booster[32]:
0:[f21<30.1750813] yes=1,no=2,missing=1
	1:[f24<0.857730389] yes=3,no=4,missing=3
		3:[f20<31.184742] yes=7,no=8,missing=7
			7:[f0<64.8476868] yes=15,no=16,missing=15
				15:[f10<0.0165965706] yes=29,no=30,missing=29
					29:leaf=-0.0072096712
					30:leaf=-0.0566104427
				16:[f0<64.8551407] yes=31,no=32,missing=31
					31:leaf=0.0171700232
					32:leaf=-0.0556275137
			8:[f24<0.502614498] yes=17,no=18,missing=17
				17:[f0<51.7282906] yes=33,no=34,missing=33
					33:leaf=-0.0557602718
					34:leaf=-0.0537052266
				18:[f5<0.00433359854] yes=35,no=36,missing=35
					35:leaf=-0.0401383042
					36:leaf=0.0534052029
		4:[f10<2.02408028] yes=9,no=10,missing=9
			9:[f2<77.5451355] yes=19,no=20,missing=19
				19:[f16<32.9414444] yes=37,no=38,missing=37
					37:leaf=0.012704581
					38:leaf=0.115829661
				20:leaf=-0.0294535346
			10:[f0<68.4921265] yes=21,no=22,missing=21
				21:leaf=-0.0382346548
				22:leaf=0.0168709718
	2:[f24<0.557812452] yes=5,no=6,missing=5
		5:[f25<0.65057385] yes=11,no=12,missing=11
			11:[f18<1.92362463] yes=23,no=24,missing=23
				23:[f24<0.111598596] yes=39,no=40,missing=39
					39:leaf=-0.0462778322
					40:leaf=-0.0286161285
				24:[f19<1.72678506] yes=41,no=42,missing=41
					41:leaf=-0.0492030531
					42:leaf=-0.0532896295
			12:[f19<1.99231434] yes=25,no=26,missing=25
				25:[f21<36.7555008] yes=43,no=44,missing=43
					43:leaf=-0.0316021666
					44:leaf=0.119114555
				26:[f1<45.9724655] yes=45,no=46,missing=45
					45:leaf=0.0689218342
					46:leaf=-0.0359635763
		6:[f19<3.51056242] yes=13,no=14,missing=13
			13:[f16<100.452385] yes=27,no=28,missing=27
				27:[f0<26.2828789] yes=47,no=48,missing=47
					47:leaf=-0.032292176
					48:leaf=0.115179971
				28:[f11<2.7554636] yes=49,no=50,missing=49
					49:leaf=0.0593038276
					50:leaf=-0.0408512056
			14:leaf=-0.0426558778
booster[33]:
0:leaf=-0.0565318428
booster[34]:
0:[f24<0.819912434] yes=1,no=2,missing=1
	1:[f0<55.4785385] yes=3,no=4,missing=3
		3:leaf=-0.0566718653
		4:[f0<55.4799957] yes=7,no=8,missing=7
			7:leaf=0.0168787092
			8:[f20<1327.98804] yes=9,no=10,missing=9
				9:leaf=-0.05607244
				10:[f12<2.01297164] yes=11,no=12,missing=11
					11:leaf=-0.0458708219
					12:leaf=0.0178621579
	2:[f6<169.04776] yes=5,no=6,missing=5
		5:leaf=-0.05265541
		6:leaf=0.0527668893
booster[35]:
0:[f14<36.7870407] yes=1,no=2,missing=1
	1:[f18<1.7057209] yes=3,no=4,missing=3
		3:[f16<39.1348572] yes=7,no=8,missing=7
			7:[f3<24.991375] yes=15,no=16,missing=15
				15:[f10<2.10484314] yes=31,no=32,missing=31
					31:leaf=0.0999573916
					32:leaf=-0.00843751431
				16:[f10<1.67857397] yes=33,no=34,missing=33
					33:leaf=0.0234835092
					34:leaf=-0.0408248417
			8:[f21<32.4968109] yes=17,no=18,missing=17
				17:[f16<44.3530083] yes=35,no=36,missing=35
					35:leaf=-0.0322877318
					36:leaf=-0.0558515601
				18:[f10<1.64888358] yes=37,no=38,missing=37
					37:leaf=0.0462258197
					38:leaf=-0.0400275439
		4:[f0<68.2899475] yes=9,no=10,missing=9
			9:[f16<84.9078979] yes=19,no=20,missing=19
				19:[f20<58.1478767] yes=39,no=40,missing=39
					39:leaf=0.0464470834
					40:leaf=0.110793523
				20:[f20<167.083862] yes=41,no=42,missing=41
					41:leaf=-0.0457025282
					42:leaf=0.0769710988
			10:[f0<96.2591705] yes=21,no=22,missing=21
				21:[f10<1.32482028] yes=43,no=44,missing=43
					43:leaf=0.0389674529
					44:leaf=-0.0261998959
				22:[f0<112.727798] yes=45,no=46,missing=45
					45:leaf=-0.0308567043
					46:leaf=-0.0527949929
	2:[f14<40.0557976] yes=5,no=6,missing=5
		5:[f16<23.7080421] yes=11,no=12,missing=11
			11:[f3<24.7422867] yes=23,no=24,missing=23
				23:[f1<33.2573166] yes=47,no=48,missing=47
					47:leaf=0.087078236
					48:leaf=-0.04218705
				24:[f18<2.48692942] yes=49,no=50,missing=49
					49:leaf=-0.03358455
					50:leaf=0.0617454834
			12:[f20<39.1905899] yes=25,no=26,missing=25
				25:[f10<0.217084914] yes=51,no=52,missing=51
					51:leaf=-0.0191012081
					52:leaf=-0.0558874272
				26:[f0<60.7633209] yes=53,no=54,missing=53
					53:leaf=-0.00855713338
					54:leaf=-0.051775258
		6:[f14<41.8097954] yes=13,no=14,missing=13
			13:[f16<4.50713825] yes=27,no=28,missing=27
				27:[f3<23.3936653] yes=55,no=56,missing=55
					55:leaf=0.146776438
					56:leaf=-0.0528510325
				28:[f16<31.32938] yes=57,no=58,missing=57
					57:leaf=-0.0288456213
					58:leaf=-0.054687947
			14:[f2<19.0463371] yes=29,no=30,missing=29
				29:[f3<5.53973198] yes=59,no=60,missing=59
					59:leaf=-0.024104869
					60:leaf=-0.0547455326
				30:[f25<0.603384972] yes=61,no=62,missing=61
					61:leaf=-0.0563482009
					62:leaf=-0.0362309776
booster[36]:
0:[f0<42.418911] yes=1,no=2,missing=1
	1:[f14<112.612129] yes=3,no=4,missing=3
		3:[f0<27.5743484] yes=7,no=8,missing=7
			7:[f16<58.7436829] yes=15,no=16,missing=15
				15:[f14<36.8948975] yes=31,no=32,missing=31
					31:leaf=-0.0322874077
					32:leaf=-0.000860802305
				16:[f14<72.2865906] yes=33,no=34,missing=33
					33:leaf=0.0339921489
					34:leaf=0.00340468041
			8:[f16<52.9395294] yes=17,no=18,missing=17
				17:[f3<59.5348053] yes=35,no=36,missing=35
					35:leaf=0.0130815059
					36:leaf=0.050850071
				18:[f14<27.2582283] yes=37,no=38,missing=37
					37:leaf=0.0144241592
					38:leaf=0.0637240931
		4:[f14<141.419983] yes=9,no=10,missing=9
			9:[f0<20.9087067] yes=19,no=20,missing=19
				19:[f20<73.4753418] yes=39,no=40,missing=39
					39:leaf=0.0313143879
					40:leaf=0.0742763802
				20:[f3<58.2208252] yes=41,no=42,missing=41
					41:leaf=0.0566811338
					42:leaf=0.0808105916
			10:[f0<27.9846039] yes=21,no=22,missing=21
				21:[f3<99.6937027] yes=43,no=44,missing=43
					43:leaf=0.0700069219
					44:leaf=0.0875898823
				22:[f24<0.00606382452] yes=45,no=46,missing=45
					45:leaf=0.0882705003
					46:leaf=0.0994268656
	2:[f0<62.2898941] yes=5,no=6,missing=5
		5:[f14<116.620377] yes=11,no=12,missing=11
			11:[f14<31.990509] yes=23,no=24,missing=23
				23:[f18<2.22996497] yes=47,no=48,missing=47
					47:leaf=0.0641380548
					48:leaf=0.0108042974
				24:[f14<72.901886] yes=49,no=50,missing=49
					49:leaf=0.0892963037
					50:leaf=0.0622520521
			12:[f14<157.750732] yes=25,no=26,missing=25
				25:[f3<35.0996552] yes=51,no=52,missing=51
					51:leaf=0.0836628899
					52:leaf=0.0971895978
				26:[f24<0.0553148687] yes=53,no=54,missing=53
					53:leaf=0.103738919
					54:leaf=0.0953181311
		6:[f0<85.578064] yes=13,no=14,missing=13
			13:[f2<15.2358608] yes=27,no=28,missing=27
				27:[f14<38.0624542] yes=55,no=56,missing=55
					55:leaf=0.0473483019
					56:leaf=0.0909590349
				28:[f14<109.818153] yes=57,no=58,missing=57
					57:leaf=0.0975061432
					58:leaf=0.105233245
			14:[f24<0.781947613] yes=29,no=30,missing=29
				29:[f22<30.0023766] yes=59,no=60,missing=59
					59:leaf=0.106772676
					60:leaf=0.101896025
				30:[f3<115.856758] yes=61,no=62,missing=61
					61:leaf=-0.0437569283
					62:leaf=0.0632058382
booster[37]:
0:[f0<53.6179276] yes=1,no=2,missing=1
	1:[f14<118.553947] yes=3,no=4,missing=3
		3:[f0<35.4969635] yes=7,no=8,missing=7
			7:[f14<69.3866272] yes=15,no=16,missing=15
				15:[f18<1.72485828] yes=31,no=32,missing=31
					31:leaf=0.0796623603
					32:leaf=0.0409370922
				16:[f14<105.956604] yes=33,no=34,missing=33
					33:leaf=0.099643819
					34:leaf=0.0734555721
			8:[f14<71.4645844] yes=17,no=18,missing=17
				17:[f7<45.9585266] yes=35,no=36,missing=35
					35:leaf=0.0482427441
					36:leaf=0.0134553267
				18:[f14<106.857094] yes=37,no=38,missing=37
					37:leaf=0.0793894455
					38:leaf=0.0314422287
		4:[f0<34.0749664] yes=9,no=10,missing=9
			9:[f14<184.05835] yes=19,no=20,missing=19
				19:[f20<78.2481384] yes=39,no=40,missing=39
					39:leaf=0.0550820194
					40:leaf=0.0112497089
				20:[f24<0.081812039] yes=41,no=42,missing=41
					41:leaf=0.0122320335
					42:leaf=0.0607736483
			10:[f14<168.409378] yes=21,no=22,missing=21
				21:[f3<120.174576] yes=43,no=44,missing=43
					43:leaf=0.0111640757
					44:leaf=-0.0189860146
				22:[f0<42.4020729] yes=45,no=46,missing=45
					45:leaf=-0.00896070059
					46:leaf=-0.0284396093
	2:[f0<72.9007874] yes=5,no=6,missing=5
		5:[f14<126.300079] yes=11,no=12,missing=11
			11:[f3<95.7355957] yes=23,no=24,missing=23
				23:[f8<97.4657288] yes=47,no=48,missing=47
					47:leaf=0.0307403784
					48:leaf=-0.0120539488
				24:[f8<254.116516] yes=49,no=50,missing=49
					49:leaf=-0.0221047699
					50:leaf=0.118869327
			12:[f3<81.250946] yes=25,no=26,missing=25
				25:[f6<66.0511475] yes=51,no=52,missing=51
					51:leaf=-0.0185017828
					52:leaf=-0.0408712029
				26:[f16<708.782288] yes=53,no=54,missing=53
					53:leaf=-0.0463238843
					54:leaf=0.125189975
		6:[f0<87.1225128] yes=13,no=14,missing=13
			13:[f14<109.699738] yes=27,no=28,missing=27
				27:[f8<45.9761467] yes=55,no=56,missing=55
					55:leaf=-0.00177912193
					56:leaf=-0.0382605605
				28:[f4<-0.0639936775] yes=57,no=58,missing=57
					57:leaf=0.0704556778
					58:leaf=-0.0502007604
			14:[f8<38.3822289] yes=29,no=30,missing=29
				29:[f14<48.736496] yes=59,no=60,missing=59
					59:leaf=-0.0141712567
					60:leaf=-0.0527215712
				30:[f0<105.988174] yes=61,no=62,missing=61
					61:leaf=-0.0519861579
					62:leaf=-0.0553641804
booster[38]:
0:[f21<30.1750813] yes=1,no=2,missing=1
	1:[f24<0.857730389] yes=3,no=4,missing=3
		3:[f20<31.1846848] yes=7,no=8,missing=7
			7:[f0<64.8476868] yes=15,no=16,missing=15
				15:[f10<0.0165965706] yes=31,no=32,missing=31
					31:leaf=-0.00648963824
					32:leaf=-0.0561010204
				16:[f0<64.8551407] yes=33,no=34,missing=33
					33:leaf=0.0173104312
					34:leaf=-0.0550227761
			8:[f24<0.502614498] yes=17,no=18,missing=17
				17:[f0<51.7282906] yes=35,no=36,missing=35
					35:leaf=-0.0552107207
					36:leaf=-0.0529857241
				18:[f10<2.64747548] yes=37,no=38,missing=37
					37:leaf=-0.0354672931
					38:leaf=0.0723088905
		4:[f10<2.02408028] yes=9,no=10,missing=9
			9:[f20<57.2842445] yes=19,no=20,missing=19
				19:[f2<23.9841652] yes=39,no=40,missing=39
					39:leaf=0.102388702
					40:leaf=-0.0204507429
				20:leaf=0.117729202
			10:[f0<68.4921265] yes=21,no=22,missing=21
				21:leaf=-0.0374969356
				22:leaf=0.0165987387
	2:[f24<0.537422955] yes=5,no=6,missing=5
		5:[f25<0.512908459] yes=11,no=12,missing=11
			11:[f18<1.92362463] yes=23,no=24,missing=23
				23:[f22<33.1392746] yes=41,no=42,missing=41
					41:leaf=-0.0473795049
					42:leaf=-0.0372778438
				24:[f19<1.72678506] yes=43,no=44,missing=43
					43:leaf=-0.0483004339
					44:leaf=-0.0525860004
			12:[f18<1.4049902] yes=25,no=26,missing=25
				25:[f26<-0.989220381] yes=45,no=46,missing=45
					45:leaf=0.015389082
					46:leaf=0.135796443
				26:[f9<3.14544034] yes=47,no=48,missing=47
					47:leaf=-0.0365259647
					48:leaf=0.0504727475
		6:[f16<91.8247833] yes=13,no=14,missing=13
			13:[f0<54.8790588] yes=27,no=28,missing=27
				27:[f3<44.0620575] yes=49,no=50,missing=49
					49:leaf=0.0605493598
					50:leaf=-0.0430390351
				28:[f25<-0.993769109] yes=51,no=52,missing=51
					51:leaf=0.0327502228
					52:leaf=0.128941506
			14:[f10<1.56761408] yes=29,no=30,missing=29
				29:leaf=-0.0457405262
				30:leaf=0.0602035336
booster[39]:
0:leaf=-0.0560048893
booster[40]:
0:[f24<0.819912434] yes=1,no=2,missing=1
	1:[f0<55.4784431] yes=3,no=4,missing=3
		3:leaf=-0.0561695471
		4:[f0<55.4795914] yes=7,no=8,missing=7
			7:leaf=0.0176768228
			8:[f20<1327.98804] yes=9,no=10,missing=9
				9:leaf=-0.0555000007
				10:[f19<1.19847989] yes=11,no=12,missing=11
					11:leaf=0.0194720421
					12:leaf=-0.0450815409
	2:[f6<169.04776] yes=5,no=6,missing=5
		5:leaf=-0.0518910587
		6:leaf=0.0521032177
booster[41]:
0:[f14<36.7870407] yes=1,no=2,missing=1
	1:[f18<1.7057209] yes=3,no=4,missing=3
		3:[f16<40.6748123] yes=7,no=8,missing=7
			7:[f3<29.1040573] yes=15,no=16,missing=15
				15:[f10<2.03440523] yes=31,no=32,missing=31
					31:leaf=0.0824514255
					32:leaf=-0.0138763953
				16:[f10<1.67893076] yes=33,no=34,missing=33
					33:leaf=0.0111014377
					34:leaf=-0.0435711853
			8:[f22<30.60215] yes=17,no=18,missing=17
				17:[f25<0.010432153] yes=35,no=36,missing=35
					35:leaf=-0.0541292913
					36:leaf=-0.0170947742
				18:[f0<61.3231316] yes=37,no=38,missing=37
					37:leaf=0.0652467236
					38:leaf=-0.0404559821
		4:[f0<80.8429718] yes=9,no=10,missing=9
			9:[f16<53.8323517] yes=19,no=20,missing=19
				19:[f10<1.88615227] yes=39,no=40,missing=39
					39:leaf=0.106750898
					40:leaf=0.0334310606
				20:[f20<88.6228485] yes=41,no=42,missing=41
					41:leaf=-0.0318445861
					42:leaf=0.0724486485
			10:[f0<112.727798] yes=21,no=22,missing=21
				21:[f21<32.8273354] yes=43,no=44,missing=43
					43:leaf=-0.0342942141
					44:leaf=0.0184465125
				22:[f5<0.0208553895] yes=45,no=46,missing=45
					45:leaf=-0.0524562411
					46:leaf=0.0362185128
	2:[f14<40.8795624] yes=5,no=6,missing=5
		5:[f16<23.7080421] yes=11,no=12,missing=11
			11:[f3<23.9202118] yes=23,no=24,missing=23
				23:[f1<28.790411] yes=47,no=48,missing=47
					47:leaf=0.0991291627
					48:leaf=0.0071117864
				24:[f18<2.47010159] yes=49,no=50,missing=49
					49:leaf=-0.0358858444
					50:leaf=0.0577282421
			12:[f18<1.83223844] yes=25,no=26,missing=25
				25:[f22<129.74588] yes=51,no=52,missing=51
					51:leaf=-0.0546720698
					52:leaf=0.0198442843
				26:[f16<42.9223175] yes=53,no=54,missing=53
					53:leaf=0.00837416388
					54:leaf=-0.0437068269
		6:[f14<45.3614502] yes=13,no=14,missing=13
			13:[f16<26.6881371] yes=27,no=28,missing=27
				27:[f18<2.70831013] yes=55,no=56,missing=55
					55:leaf=-0.0442958288
					56:leaf=-0.00812594034
				28:[f26<0.262058973] yes=57,no=58,missing=57
					57:leaf=-0.0545729659
					58:leaf=0.0214268025
			14:[f3<0.705789566] yes=29,no=30,missing=29
				29:leaf=0.00999387819
				30:[f25<0.603537202] yes=59,no=60,missing=59
					59:leaf=-0.0556996427
					60:leaf=-0.0281606819
booster[42]:
0:[f0<42.418911] yes=1,no=2,missing=1
	1:[f14<112.612129] yes=3,no=4,missing=3
		3:[f7<40.6763344] yes=7,no=8,missing=7
			7:[f3<86.7518005] yes=15,no=16,missing=15
				15:[f14<29.8689003] yes=31,no=32,missing=31
					31:leaf=-0.0286494102
					32:leaf=0.00360544585
				16:[f14<32.545639] yes=33,no=34,missing=33
					33:leaf=-0.00467227725
					34:leaf=0.0360815302
			8:[f14<70.7443771] yes=17,no=18,missing=17
				17:[f14<32.5785751] yes=35,no=36,missing=35
					35:leaf=0.0170990732
					36:leaf=0.0725463703
				18:[f20<63.8222542] yes=37,no=38,missing=37
					37:leaf=0.0164177548
					38:leaf=0.0542403534
		4:[f14<153.048325] yes=9,no=10,missing=9
			9:[f0<20.9807396] yes=19,no=20,missing=19
				19:[f3<67.7006531] yes=39,no=40,missing=39
					39:leaf=0.0254896525
					40:leaf=0.0510766618
				20:[f24<0.123138264] yes=41,no=42,missing=41
					41:leaf=0.0684288368
					42:leaf=0.00663611386
			10:[f0<22.4231644] yes=21,no=22,missing=21
				21:[f20<64.3741608] yes=43,no=44,missing=43
					43:leaf=0.0639190227
					44:leaf=0.0848894939
				22:[f24<0.116049722] yes=45,no=46,missing=45
					45:leaf=0.0839314908
					46:leaf=0.0537843779
	2:[f0<62.6851311] yes=5,no=6,missing=5
		5:[f14<108.658188] yes=11,no=12,missing=11
			11:[f7<50.4150085] yes=23,no=24,missing=23
				23:[f3<85.1049194] yes=47,no=48,missing=47
					47:leaf=0.0367899202
					48:leaf=0.0710909963
				24:[f14<74.6585922] yes=49,no=50,missing=49
					49:leaf=0.0831109658
					50:leaf=0.0559970513
			12:[f14<126.369141] yes=25,no=26,missing=25
				25:[f3<111.004623] yes=51,no=52,missing=51
					51:leaf=0.0746131465
					52:leaf=0.0931611285
				26:[f0<49.4461136] yes=53,no=54,missing=53
					53:leaf=0.0885798261
					54:leaf=0.0946212336
		6:[f0<82.5309525] yes=13,no=14,missing=13
			13:[f2<15.2348394] yes=27,no=28,missing=27
				27:[f14<38.0477524] yes=55,no=56,missing=55
					55:leaf=0.0391362272
					56:leaf=0.0815812573
				28:[f14<111.497673] yes=57,no=58,missing=57
					57:leaf=0.0888847932
					58:leaf=0.0961689577
			14:[f24<0.781947613] yes=29,no=30,missing=29
				29:[f26<0.613814116] yes=59,no=60,missing=59
					59:leaf=0.0973590091
					60:leaf=-0.0379232466
				30:[f3<115.856758] yes=61,no=62,missing=61
					61:leaf=-0.0423854776
					62:leaf=0.0586649179
booster[43]:
0:[f0<53.623558] yes=1,no=2,missing=1
	1:[f14<123.438477] yes=3,no=4,missing=3
		3:[f0<26.6671677] yes=7,no=8,missing=7
			7:[f20<135.68103] yes=15,no=16,missing=15
				15:[f1<30.2895088] yes=31,no=32,missing=31
					31:leaf=0.0500488654
					32:leaf=0.081834875
				16:[f1<85.0861282] yes=33,no=34,missing=33
					33:leaf=0.00173111074
					34:leaf=0.0568325706
			8:[f20<110.027069] yes=17,no=18,missing=17
				17:[f14<71.464386] yes=35,no=36,missing=35
					35:leaf=0.0423086993
					36:leaf=0.0667886361
				18:[f24<0.0463005081] yes=37,no=38,missing=37
					37:leaf=-0.0100072352
					38:leaf=0.0287726354
		4:[f0<30.6826744] yes=9,no=10,missing=9
			9:[f14<208.808716] yes=19,no=20,missing=19
				19:[f3<95.1175308] yes=39,no=40,missing=39
					39:leaf=0.0529170595
					40:leaf=0.0236961748
				20:[f20<113.82399] yes=41,no=42,missing=41
					41:leaf=0.0189881306
					42:leaf=-0.0163135063
			10:[f0<42.4280853] yes=21,no=22,missing=21
				21:[f3<115.260567] yes=43,no=44,missing=43
					43:leaf=0.0131871002
					44:leaf=-0.0164663177
				22:[f14<162.799316] yes=45,no=46,missing=45
					45:leaf=-0.00740009919
					46:leaf=-0.0266721398
	2:[f0<72.9007874] yes=5,no=6,missing=5
		5:[f14<126.300079] yes=11,no=12,missing=11
			11:[f3<95.7355957] yes=23,no=24,missing=23
				23:[f8<105.959946] yes=47,no=48,missing=47
					47:leaf=0.0272888839
					48:leaf=-0.0138011603
				24:[f8<254.116516] yes=49,no=50,missing=49
					49:leaf=-0.0208632629
					50:leaf=0.106399752
			12:[f3<81.250946] yes=25,no=26,missing=25
				25:[f6<79.1770172] yes=51,no=52,missing=51
					51:leaf=-0.0195052866
					52:leaf=-0.0403150246
				26:[f16<708.782288] yes=53,no=54,missing=53
					53:leaf=-0.0452396832
					54:leaf=0.116904713
		6:[f0<87.1225128] yes=13,no=14,missing=13
			13:[f14<109.699738] yes=27,no=28,missing=27
				27:[f8<45.9761467] yes=55,no=56,missing=55
					55:leaf=-0.000493494503
					56:leaf=-0.0369192325
				28:[f4<-0.0639936775] yes=57,no=58,missing=57
					57:leaf=0.0683070049
					58:leaf=-0.0493123047
			14:[f8<38.3822289] yes=29,no=30,missing=29
				29:[f14<45.5516205] yes=59,no=60,missing=59
					59:leaf=-0.00906190928
					60:leaf=-0.051419314
				30:[f0<105.986076] yes=61,no=62,missing=61
					61:leaf=-0.0512087047
					62:leaf=-0.0548092239
booster[44]:
0:[f21<30.1750813] yes=1,no=2,missing=1
	1:[f24<0.857730389] yes=3,no=4,missing=3
		3:[f20<35.6751328] yes=7,no=8,missing=7
			7:[f0<52.3882599] yes=15,no=16,missing=15
				15:[f24<0.574936211] yes=31,no=32,missing=31
					31:leaf=-0.0556638613
					32:leaf=-0.000971026835
				16:[f0<52.3980408] yes=33,no=34,missing=33
					33:leaf=0.0100086983
					34:leaf=-0.0544916764
			8:[f0<55.233223] yes=17,no=18,missing=17
				17:[f20<35.6803246] yes=35,no=36,missing=35
					35:leaf=0.016710965
					36:leaf=-0.0545316152
				18:[f24<0.148356184] yes=37,no=38,missing=37
					37:leaf=-0.0523074456
					38:leaf=-0.0407481194
		4:[f10<2.02408028] yes=9,no=10,missing=9
			9:[f16<92.4750824] yes=19,no=20,missing=19
				19:[f16<32.9414444] yes=39,no=40,missing=39
					39:leaf=0.00631340453
					40:leaf=0.110375367
				20:leaf=-0.00275451038
			10:[f9<3.75496483] yes=21,no=22,missing=21
				21:leaf=0.0160015393
				22:leaf=-0.0373667106
	2:[f24<0.537422955] yes=5,no=6,missing=5
		5:[f25<0.512908459] yes=11,no=12,missing=11
			11:[f18<1.92362463] yes=23,no=24,missing=23
				23:[f27<0.0778460205] yes=41,no=42,missing=41
					41:leaf=-0.0435668007
					42:leaf=-0.0100510037
				24:[f19<1.72678506] yes=43,no=44,missing=43
					43:leaf=-0.0473598056
					44:leaf=-0.0518857241
			12:[f18<1.4049902] yes=25,no=26,missing=25
				25:[f26<-0.989220381] yes=45,no=46,missing=45
					45:leaf=0.0157446563
					46:leaf=0.126427785
				26:[f9<3.14544034] yes=47,no=48,missing=47
					47:leaf=-0.0351194553
					48:leaf=0.0487368964
		6:[f18<1.94923401] yes=13,no=14,missing=13
			13:[f0<54.8790588] yes=27,no=28,missing=27
				27:leaf=0.00655982876
				28:[f16<85.2942429] yes=49,no=50,missing=49
					49:leaf=0.119336225
					50:leaf=0.0135710454
			14:[f13<2.38455725] yes=29,no=30,missing=29
				29:[f24<0.757828474] yes=51,no=52,missing=51
					51:leaf=-0.0476651639
					52:leaf=0.0341148451
				30:leaf=0.105945542
booster[45]:
0:[f4<0.0792326331] yes=1,no=2,missing=1
	1:leaf=-0.0555172861
	2:[f15<123.249786] yes=3,no=4,missing=3
		3:leaf=-0.0471666418
		4:leaf=0.0183333438
booster[46]:
0:[f24<0.819912434] yes=1,no=2,missing=1
	1:[f0<55.4785385] yes=3,no=4,missing=3
		3:leaf=-0.0557021573
		4:[f0<55.4799957] yes=7,no=8,missing=7
			7:leaf=0.0175737366
			8:[f20<1327.98804] yes=11,no=12,missing=11
				11:[f24<0.074729763] yes=13,no=14,missing=13
					13:leaf=-0.0550750494
					14:leaf=-0.0538095795
				12:[f5<-0.00195979583] yes=15,no=16,missing=15
					15:leaf=0.0210305192
					16:leaf=-0.0442783199
	2:[f6<169.04776] yes=5,no=6,missing=5
		5:leaf=-0.0512321405
		6:[f24<0.935450554] yes=9,no=10,missing=9
			9:leaf=0.113971524
			10:leaf=-0.0336053669
booster[47]:
0:[f14<36.7870407] yes=1,no=2,missing=1
	1:[f18<1.7057209] yes=3,no=4,missing=3
		3:[f16<40.6748123] yes=7,no=8,missing=7
			7:[f3<29.1040573] yes=15,no=16,missing=15
				15:[f3<17.7278709] yes=31,no=32,missing=31
					31:leaf=0.0987624452
					32:leaf=0.0397753492
				16:[f17<1.5] yes=33,no=34,missing=33
					33:leaf=-0.0270915069
					34:leaf=0.0595252179
			8:[f22<30.60215] yes=17,no=18,missing=17
				17:[f25<0.010432153] yes=35,no=36,missing=35
					35:leaf=-0.0535300784
					36:leaf=-0.0158490613
				18:[f0<61.3231316] yes=37,no=38,missing=37
					37:leaf=0.0603451915
					38:leaf=-0.0391473845
		4:[f0<80.8429718] yes=9,no=10,missing=9
			9:[f16<80.9023438] yes=19,no=20,missing=19
				19:[f10<1.88615179] yes=39,no=40,missing=39
					39:leaf=0.0855767429
					40:leaf=0.010732512
				20:[f20<167.083862] yes=41,no=42,missing=41
					41:leaf=-0.0420425199
					42:leaf=0.0678576753
			10:[f0<112.727798] yes=21,no=22,missing=21
				21:[f21<32.8273354] yes=43,no=44,missing=43
					43:leaf=-0.0326866359
					44:leaf=0.0190889556
				22:[f5<0.0208553895] yes=45,no=46,missing=45
					45:leaf=-0.0517055951
					46:leaf=0.0359381735
	2:[f14<40.8795624] yes=5,no=6,missing=5
		5:[f16<23.7080421] yes=11,no=12,missing=11
			11:[f10<2.34358454] yes=23,no=24,missing=23
				23:[f3<52.9763412] yes=47,no=48,missing=47
					47:leaf=0.0560669601
					48:leaf=-0.0246373247
				24:[f18<2.50843239] yes=49,no=50,missing=49
					49:leaf=-0.0526984893
					50:leaf=0.00321769086
			12:[f20<62.540596] yes=25,no=26,missing=25
				25:[f16<33.0448074] yes=51,no=52,missing=51
					51:leaf=-0.0336446539
					52:leaf=-0.0544995479
				26:[f0<59.3392029] yes=53,no=54,missing=53
					53:leaf=0.000662922801
					54:leaf=-0.0486716814
		6:[f14<45.3611145] yes=13,no=14,missing=13
			13:[f16<26.6881371] yes=27,no=28,missing=27
				27:[f18<2.70831013] yes=55,no=56,missing=55
					55:leaf=-0.0432743654
					56:leaf=-0.00722695375
				28:[f26<0.262058973] yes=57,no=58,missing=57
					57:leaf=-0.0539989844
					58:leaf=0.0213584695
			14:[f25<0.603537202] yes=29,no=30,missing=29
				29:[f3<0.705789566] yes=59,no=60,missing=59
					59:leaf=0.0103453975
					60:leaf=-0.0551877916
				30:[f6<41.087944] yes=61,no=62,missing=61
					61:leaf=0.0335619785
					62:leaf=-0.0496441238
booster[48]:
0:[f0<45.2338104] yes=1,no=2,missing=1
	1:[f14<112.364532] yes=3,no=4,missing=3
		3:[f7<44.8718262] yes=7,no=8,missing=7
			7:[f3<89.8347473] yes=15,no=16,missing=15
				15:[f8<59.9284286] yes=31,no=32,missing=31
					31:leaf=-0.00533553073
					32:leaf=0.019497443
				16:[f14<32.545639] yes=33,no=34,missing=33
					33:leaf=-0.00110423181
					34:leaf=0.0380805805
			8:[f14<75.4859543] yes=17,no=18,missing=17
				17:[f14<28.1093464] yes=35,no=36,missing=35
					35:leaf=0.0136543876
					36:leaf=0.0664725602
				18:[f14<105.300201] yes=37,no=38,missing=37
					37:leaf=0.0114704929
					38:leaf=0.0455914848
		4:[f14<184.839081] yes=9,no=10,missing=9
			9:[f0<21.0233803] yes=19,no=20,missing=19
				19:[f3<63.9474487] yes=39,no=40,missing=39
					39:leaf=0.027246451
					40:leaf=0.0510799289
				20:[f24<-0.997229695] yes=41,no=42,missing=41
					41:leaf=0.0576173365
					42:leaf=0.0758003667
			10:[f0<30.0103607] yes=21,no=22,missing=21
				21:[f24<0.122650385] yes=43,no=44,missing=43
					43:leaf=0.0700341761
					44:leaf=0.0263276845
				22:[f5<-0.0024471241] yes=45,no=46,missing=45
					45:leaf=0.073150374
					46:leaf=0.0837363824
	2:[f0<64.2866516] yes=5,no=6,missing=5
		5:[f14<109.524384] yes=11,no=12,missing=11
			11:[f24<0.0671469867] yes=23,no=24,missing=23
				23:[f8<83.9366302] yes=47,no=48,missing=47
					47:leaf=0.0544927679
					48:leaf=0.075105451
				24:[f14<33.4376221] yes=49,no=50,missing=49
					49:leaf=-0.00446407218
					50:leaf=0.0388328955
			12:[f14<126.396759] yes=25,no=26,missing=25
				25:[f24<0.0809804052] yes=51,no=52,missing=51
					51:leaf=0.078043744
					52:leaf=0.046459388
				26:[f24<0.152930766] yes=53,no=54,missing=53
					53:leaf=0.0863651335
					54:leaf=0.0647658482
		6:[f0<82.5297546] yes=13,no=14,missing=13
			13:[f2<15.2348394] yes=27,no=28,missing=27
				27:[f14<37.3073578] yes=55,no=56,missing=55
					55:leaf=0.0347172581
					56:leaf=0.0742768273
				28:[f14<130.226135] yes=57,no=58,missing=57
					57:leaf=0.0829539821
					58:leaf=0.0897906274
			14:[f24<0.117511965] yes=29,no=30,missing=29
				29:[f26<0.613814116] yes=59,no=60,missing=59
					59:leaf=0.0904525965
					60:leaf=-0.0383243933
				30:[f24<0.781947613] yes=61,no=62,missing=61
					61:leaf=0.0828071162
					62:leaf=0.00963376276
booster[49]:
0:[f0<55.015976] yes=1,no=2,missing=1
	1:[f14<118.553947] yes=3,no=4,missing=3
		3:[f0<38.1970901] yes=7,no=8,missing=7
			7:[f14<69.3866272] yes=15,no=16,missing=15
				15:[f18<1.72485828] yes=31,no=32,missing=31
					31:leaf=0.0641409084
					32:leaf=0.0326134935
				16:[f14<105.961151] yes=33,no=34,missing=33
					33:leaf=0.0826299414
					34:leaf=0.0588412248
			8:[f14<72.9178772] yes=17,no=18,missing=17
				17:[f7<45.9585266] yes=35,no=36,missing=35
					35:leaf=0.0390110314
					36:leaf=0.00741564855
				18:[f14<105.225403] yes=37,no=38,missing=37
					37:leaf=0.0670807809
					38:leaf=0.0245206412
		4:[f0<34.1685715] yes=9,no=10,missing=9
			9:[f14<197.092987] yes=19,no=20,missing=19
				19:[f20<58.2469597] yes=39,no=40,missing=39
					39:leaf=0.0467332974
					40:leaf=0.0148880854
				20:[f0<15.9756279] yes=41,no=42,missing=41
					41:leaf=0.0312675834
					42:leaf=0.00500458945
			10:[f3<140.339417] yes=21,no=22,missing=21
				21:[f0<42.4167633] yes=43,no=44,missing=43
					43:leaf=0.00950236898
					44:leaf=-0.0129949823
				22:[f16<127.26326] yes=45,no=46,missing=45
					45:leaf=-0.0388267413
					46:leaf=-0.0156900343
	2:[f0<73.0614166] yes=5,no=6,missing=5
		5:[f14<125.247253] yes=11,no=12,missing=11
			11:[f3<83.4315796] yes=23,no=24,missing=23
				23:[f8<101.386887] yes=47,no=48,missing=47
					47:leaf=0.0297850277
					48:leaf=-0.013935565
				24:[f4<-0.00323465024] yes=49,no=50,missing=49
					49:leaf=0.00932399277
					50:leaf=-0.0227806102
			12:[f3<71.5722351] yes=25,no=26,missing=25
				25:[f6<63.4580536] yes=51,no=52,missing=51
					51:leaf=-0.011887325
					52:leaf=-0.0383923724
				26:[f16<708.782288] yes=53,no=54,missing=53
					53:leaf=-0.0439498872
					54:leaf=0.109738864
		6:[f0<89.0090332] yes=13,no=14,missing=13
			13:[f14<109.699738] yes=27,no=28,missing=27
				27:[f8<45.9761467] yes=55,no=56,missing=55
					55:leaf=-0.000162059572
					56:leaf=-0.036476884
				28:[f2<637.784424] yes=57,no=58,missing=57
					57:leaf=-0.0487398468
					58:leaf=0.0684253648
			14:[f8<38.3822289] yes=29,no=30,missing=29
				29:[f14<48.0027618] yes=59,no=60,missing=59
					59:leaf=-0.0112813385
					60:leaf=-0.0516310818
				30:[f0<105.986076] yes=61,no=62,missing=61
					61:leaf=-0.0505938418
					62:leaf=-0.054286506
booster[50]:
0:[f21<30.1750813] yes=1,no=2,missing=1
	1:[f24<0.857730389] yes=3,no=4,missing=3
		3:[f20<35.6751328] yes=7,no=8,missing=7
			7:[f0<52.3882599] yes=15,no=16,missing=15
				15:[f10<0.0165965706] yes=31,no=32,missing=31
					31:leaf=0.000510923273
					32:leaf=-0.0552322939
				16:[f0<52.3980408] yes=33,no=34,missing=33
					33:leaf=0.0106167244
					34:leaf=-0.0539565571
			8:[f0<55.233223] yes=17,no=18,missing=17
				17:[f13<0.029050041] yes=35,no=36,missing=35
					35:leaf=0.0186201613
					36:leaf=-0.0540285818
				18:[f24<0.148356184] yes=37,no=38,missing=37
					37:leaf=-0.0516233519
					38:leaf=-0.0394827649
		4:[f10<2.02408028] yes=9,no=10,missing=9
			9:[f20<57.2842445] yes=19,no=20,missing=19
				19:[f2<23.9841652] yes=39,no=40,missing=39
					39:leaf=0.0920495614
					40:leaf=-0.0206107255
				20:leaf=0.102257907
			10:[f9<3.75496483] yes=21,no=22,missing=21
				21:leaf=0.016173102
				22:leaf=-0.036732439
	2:[f24<0.537422955] yes=5,no=6,missing=5
		5:[f25<0.512908459] yes=11,no=12,missing=11
			11:[f18<1.92362463] yes=23,no=24,missing=23
				23:[f26<0.0550404787] yes=41,no=42,missing=41
					41:leaf=-0.0434730202
					42:leaf=-0.0263497215
				24:[f19<1.72678506] yes=43,no=44,missing=43
					43:leaf=-0.0464126319
					44:leaf=-0.0512000918
			12:[f18<1.4049902] yes=25,no=26,missing=25
				25:[f26<-0.989220381] yes=45,no=46,missing=45
					45:leaf=0.0160894301
					46:leaf=0.118667148
				26:[f9<3.14544034] yes=47,no=48,missing=47
					47:leaf=-0.0336929895
					48:leaf=0.0472027324
		6:[f16<100.452385] yes=13,no=14,missing=13
			13:[f0<54.8790588] yes=27,no=28,missing=27
				27:[f3<44.0620575] yes=49,no=50,missing=49
					49:leaf=0.0583565645
					50:leaf=-0.0424662195
				28:[f25<-0.993769109] yes=51,no=52,missing=51
					51:leaf=0.0266082417
					52:leaf=0.109733537
			14:[f11<1.18951547] yes=29,no=30,missing=29
				29:leaf=0.0601810813
				30:leaf=-0.0446615107
booster[51]:
0:[f4<0.0792326331] yes=1,no=2,missing=1
	1:leaf=-0.0550641119
	2:[f18<2.23169231] yes=3,no=4,missing=3
		3:leaf=-0.0464915894
		4:leaf=0.0194639154
booster[52]:
0:[f24<0.819912434] yes=1,no=2,missing=1
	1:[f0<63.0443497] yes=3,no=4,missing=3
		3:leaf=-0.0552281737
		4:[f0<63.0474854] yes=7,no=8,missing=7
			7:leaf=0.0215103086
			8:[f20<1327.98804] yes=11,no=12,missing=11
				11:[f12<3.0884974] yes=13,no=14,missing=13
					13:leaf=-0.054419823
					14:leaf=-0.0336262397
				12:[f1<180.531021] yes=15,no=16,missing=15
					15:leaf=0.0214734618
					16:leaf=-0.0433505066
	2:[f6<169.04776] yes=5,no=6,missing=5
		5:leaf=-0.050603237
		6:[f24<0.935450554] yes=9,no=10,missing=9
			9:leaf=0.10725186
			10:leaf=-0.032807935
booster[53]:
0:[f14<36.7870407] yes=1,no=2,missing=1
	1:[f20<36.8415985] yes=3,no=4,missing=3
		3:[f16<41.8829422] yes=7,no=8,missing=7
			7:[f3<33.1716232] yes=15,no=16,missing=15
				15:[f10<2.09892225] yes=31,no=32,missing=31
					31:leaf=0.0722073689
					32:leaf=-0.0266141687
				16:[f16<26.3928986] yes=33,no=34,missing=33
					33:leaf=0.0304496586
					34:leaf=-0.0345482156
			8:[f16<47.2493248] yes=17,no=18,missing=17
				17:[f3<21.5103607] yes=35,no=36,missing=35
					35:leaf=0.0352121666
					36:leaf=-0.0440289751
				18:[f12<0.0958892927] yes=37,no=38,missing=37
					37:leaf=0.0367586836
					38:leaf=-0.0547657683
		4:[f0<82.7568207] yes=9,no=10,missing=9
			9:[f16<71.2677078] yes=19,no=20,missing=19
				19:[f10<1.99539292] yes=39,no=40,missing=39
					39:leaf=0.0877457634
					40:leaf=0.00566656562
				20:[f20<157.766556] yes=41,no=42,missing=41
					41:leaf=-0.0333299264
					42:leaf=0.062034633
			10:[f0<112.727798] yes=21,no=22,missing=21
				21:[f16<46.0697556] yes=43,no=44,missing=43
					43:leaf=0.0347525142
					44:leaf=-0.0271843262
				22:[f5<0.0208553895] yes=45,no=46,missing=45
					45:leaf=-0.0517874137
					46:leaf=0.0289401989
	2:[f14<40.8795624] yes=5,no=6,missing=5
		5:[f16<23.7080421] yes=11,no=12,missing=11
			11:[f10<2.34358454] yes=23,no=24,missing=23
				23:[f1<33.2524567] yes=47,no=48,missing=47
					47:leaf=0.0499378145
					48:leaf=-0.0368132852
				24:[f18<2.50843239] yes=49,no=50,missing=49
					49:leaf=-0.0520389751
					50:leaf=0.00381562044
			12:[f20<62.540596] yes=25,no=26,missing=25
				25:[f16<33.0448074] yes=51,no=52,missing=51
					51:leaf=-0.032490287
					52:leaf=-0.0539507978
				26:[f16<56.4142532] yes=53,no=54,missing=53
					53:leaf=0.00922762975
					54:leaf=-0.0445607714
		6:[f14<45.3612061] yes=13,no=14,missing=13
			13:[f16<26.6881371] yes=27,no=28,missing=27
				27:[f18<2.70831013] yes=55,no=56,missing=55
					55:leaf=-0.042314183
					56:leaf=-0.00620947266
				28:[f1<25.2453995] yes=57,no=58,missing=57
					57:leaf=0.0199972969
					58:leaf=-0.0534488037
			14:[f25<0.603537202] yes=29,no=30,missing=29
				29:[f3<0.705789566] yes=59,no=60,missing=59
					59:leaf=0.0106479246
					60:leaf=-0.0547106564
				30:[f6<41.087944] yes=61,no=62,missing=61
					61:leaf=0.0333897658
					62:leaf=-0.0488645174
booster[54]:
0:[f0<46.60252] yes=1,no=2,missing=1
	1:[f14<114.186752] yes=3,no=4,missing=3
		3:[f0<23.9245777] yes=7,no=8,missing=7
			7:[f16<59.3092499] yes=15,no=16,missing=15
				15:[f3<62.6093063] yes=31,no=32,missing=31
					31:leaf=-0.0143246716
					32:leaf=0.0114545738
				16:[f14<74.5173111] yes=33,no=34,missing=33
					33:leaf=0.027642116
					34:leaf=-0.000579982006
			8:[f2<16.2214451] yes=17,no=18,missing=17
				17:[f14<31.8871059] yes=35,no=36,missing=35
					35:leaf=-0.0240222421
					36:leaf=0.0146003608
				18:[f14<72.7287903] yes=37,no=38,missing=37
					37:leaf=0.0511586964
					38:leaf=0.0228732843
		4:[f0<29.6864243] yes=9,no=10,missing=9
			9:[f14<145.641083] yes=19,no=20,missing=19
				19:[f20<93.8375854] yes=39,no=40,missing=39
					39:leaf=0.0329500251
					40:leaf=0.0712294206
				20:[f24<0.0739090368] yes=41,no=42,missing=41
					41:leaf=0.0614311695
					42:leaf=0.0350050181
			10:[f14<185.343292] yes=21,no=22,missing=21
				21:[f7<35.2288742] yes=43,no=44,missing=43
					43:leaf=0.0503892675
					44:leaf=0.0680097342
				22:[f24<0.00597044267] yes=45,no=46,missing=45
					45:leaf=0.072169818
					46:leaf=0.0799165666
	2:[f0<64.2866516] yes=5,no=6,missing=5
		5:[f14<109.524384] yes=11,no=12,missing=11
			11:[f14<25.0972881] yes=23,no=24,missing=23
				23:[f10<2.00455403] yes=47,no=48,missing=47
					47:leaf=0.0137940422
					48:leaf=0.0676870123
				24:[f14<72.7679749] yes=49,no=50,missing=49
					49:leaf=0.0692061707
					50:leaf=0.0460273176
			12:[f14<135.297546] yes=25,no=26,missing=25
				25:[f5<0.0214159898] yes=51,no=52,missing=51
					51:leaf=0.0728682801
					52:leaf=-0.00702015171
				26:[f24<0.149500713] yes=53,no=54,missing=53
					53:leaf=0.0810992569
					54:leaf=0.0590476207
		6:[f0<82.5297546] yes=13,no=14,missing=13
			13:[f2<15.2348394] yes=27,no=28,missing=27
				27:[f1<52.4809456] yes=55,no=56,missing=55
					55:leaf=0.0406771861
					56:leaf=0.0743914992
				28:[f14<111.497673] yes=57,no=58,missing=57
					57:leaf=0.0760426745
					58:leaf=0.0832119957
			14:[f22<30.0023766] yes=29,no=30,missing=29
				29:[f24<0.0856211632] yes=59,no=60,missing=59
					59:leaf=0.0850743875
					60:leaf=0.0801561773
				30:[f26<0.613814116] yes=61,no=62,missing=61
					61:leaf=0.0799308568
					62:leaf=-0.0387652889
booster[55]:
0:[f0<55.015976] yes=1,no=2,missing=1
	1:[f14<141.943832] yes=3,no=4,missing=3
		3:[f0<30.4569874] yes=7,no=8,missing=7
			7:[f24<0.00552971102] yes=15,no=16,missing=15
				15:[f0<19.09235] yes=31,no=32,missing=31
					31:leaf=0.074240692
					32:leaf=0.0602244437
				16:[f24<0.0305432715] yes=33,no=34,missing=33
					33:leaf=0.00442223763
					34:leaf=0.0624974146
			8:[f20<63.8233566] yes=17,no=18,missing=17
				17:[f7<35.5239716] yes=35,no=36,missing=35
					35:leaf=0.0591596961
					36:leaf=0.0343095809
				18:[f24<0.0333002508] yes=37,no=38,missing=37
					37:leaf=-0.00773977861
					38:leaf=0.0289977435
		4:[f0<35.4522171] yes=9,no=10,missing=9
			9:[f20<86.0691528] yes=19,no=20,missing=19
				19:[f24<0.0689934194] yes=39,no=40,missing=39
					39:leaf=0.0222493317
					40:leaf=0.0723898336
				20:[f24<0.038262058] yes=41,no=42,missing=41
					41:leaf=-0.0226788223
					42:leaf=0.0119337412
			10:[f3<140.339417] yes=21,no=22,missing=21
				21:[f0<42.4397278] yes=43,no=44,missing=43
					43:leaf=0.00254739262
					44:leaf=-0.0182415228
				22:[f16<127.26326] yes=45,no=46,missing=45
					45:leaf=-0.0391347967
					46:leaf=-0.0183010101
	2:[f0<73.0614166] yes=5,no=6,missing=5
		5:[f14<125.247253] yes=11,no=12,missing=11
			11:[f3<68.7733536] yes=23,no=24,missing=23
				23:[f8<101.257126] yes=47,no=48,missing=47
					47:leaf=0.0364419296
					48:leaf=-0.0153552806
				24:[f24<0.115697131] yes=49,no=50,missing=49
					49:leaf=-0.0164618697
					50:leaf=0.042420432
			12:[f3<71.5722351] yes=25,no=26,missing=25
				25:[f6<63.4580536] yes=51,no=52,missing=51
					51:leaf=-0.0101522878
					52:leaf=-0.0370135531
				26:[f16<708.782288] yes=53,no=54,missing=53
					53:leaf=-0.0428168997
					54:leaf=0.103424788
		6:[f0<89.0090332] yes=13,no=14,missing=13
			13:[f14<109.699738] yes=27,no=28,missing=27
				27:[f8<45.9761467] yes=55,no=56,missing=55
					55:leaf=0.00125420012
					56:leaf=-0.0350671336
				28:[f4<-0.0639936775] yes=57,no=58,missing=57
					57:leaf=0.0704733506
					58:leaf=-0.0478638709
			14:[f8<38.3822289] yes=29,no=30,missing=29
				29:[f14<48.0027618] yes=59,no=60,missing=59
					59:leaf=-0.00942353439
					60:leaf=-0.0509416349
				30:[f0<105.986076] yes=61,no=62,missing=61
					61:leaf=-0.0498402677
					62:leaf=-0.0537933372
booster[56]:
0:[f21<30.1750813] yes=1,no=2,missing=1
	1:[f24<0.857730389] yes=3,no=4,missing=3
		3:[f20<35.6751328] yes=7,no=8,missing=7
			7:[f0<64.8476868] yes=15,no=16,missing=15
				15:[f24<0.574936211] yes=31,no=32,missing=31
					31:leaf=-0.0547148548
					32:leaf=-0.00257838587
				16:[f0<64.8561401] yes=33,no=34,missing=33
					33:leaf=0.0167527255
					34:leaf=-0.0532860234
			8:[f0<55.233223] yes=17,no=18,missing=17
				17:[f13<0.029050041] yes=35,no=36,missing=35
					35:leaf=0.0188058838
					36:leaf=-0.053555157
				18:[f24<0.148356184] yes=37,no=38,missing=37
					37:leaf=-0.0509517565
					38:leaf=-0.0382701196
		4:[f10<2.02408028] yes=9,no=10,missing=9
			9:[f16<92.4750824] yes=19,no=20,missing=19
				19:[f15<22.9934406] yes=39,no=40,missing=39
					39:leaf=0.025569547
					40:leaf=0.110013686
				20:leaf=-0.00367877865
			10:[f15<40.3126984] yes=21,no=22,missing=21
				21:leaf=0.0167479366
				22:leaf=-0.0363628529
	2:[f24<0.537422955] yes=5,no=6,missing=5
		5:[f25<0.512908459] yes=11,no=12,missing=11
			11:[f18<1.92362463] yes=23,no=24,missing=23
				23:[f24<0.111598596] yes=41,no=42,missing=41
					41:leaf=-0.0420605615
					42:leaf=-0.0212823674
				24:[f19<1.72678506] yes=43,no=44,missing=43
					43:leaf=-0.0454582684
					44:leaf=-0.0505317822
			12:[f19<1.76569164] yes=25,no=26,missing=25
				25:[f3<121.806953] yes=45,no=46,missing=45
					45:leaf=0.115496747
					46:leaf=0.0160106923
				26:[f24<0.0443367884] yes=47,no=48,missing=47
					47:leaf=0.0339100547
					48:leaf=-0.0500212908
		6:[f18<1.94923401] yes=13,no=14,missing=13
			13:[f10<2.327492] yes=27,no=28,missing=27
				27:[f6<40.6091309] yes=49,no=50,missing=49
					49:leaf=0.0434962623
					50:leaf=0.11245992
				28:leaf=0.00350472378
			14:[f13<2.38455725] yes=29,no=30,missing=29
				29:[f3<94.6346893] yes=51,no=52,missing=51
					51:leaf=0.0289650019
					52:leaf=-0.0483385324
				30:leaf=0.0950729176
booster[57]:
0:[f4<0.0792326331] yes=1,no=2,missing=1
	1:leaf=-0.0546433814
	2:[f2<63.5118027] yes=3,no=4,missing=3
		3:leaf=-0.0458593182
		4:leaf=0.0210071262
booster[58]:
0:[f0<55.4785385] yes=1,no=2,missing=1
	1:leaf=-0.0548711419
	2:[f24<0.817740083] yes=3,no=4,missing=3
		3:[f0<55.4799957] yes=5,no=6,missing=5
			5:leaf=0.0201558191
			6:[f20<1327.98804] yes=9,no=10,missing=9
				9:[f24<0.074729763] yes=13,no=14,missing=13
					13:leaf=-0.0541144684
					14:leaf=-0.0526794679
				10:[f18<1.20151854] yes=15,no=16,missing=15
					15:leaf=0.018582074
					16:leaf=-0.0422516763
		4:[f6<169.04776] yes=7,no=8,missing=7
			7:leaf=-0.047101222
			8:[f24<0.935450554] yes=11,no=12,missing=11
				11:leaf=0.100767985
				12:leaf=-0.0320070647
booster[59]:
0:[f14<36.7870407] yes=1,no=2,missing=1
	1:[f18<1.7057209] yes=3,no=4,missing=3
		3:[f16<42.2712631] yes=7,no=8,missing=7
			7:[f3<24.7843609] yes=15,no=16,missing=15
				15:[f10<2.20102692] yes=31,no=32,missing=31
					31:leaf=0.0731714889
					32:leaf=-0.0241697356
				16:[f10<1.67857397] yes=33,no=34,missing=33
					33:leaf=0.0172565896
					34:leaf=-0.040512275
			8:[f20<108.187538] yes=17,no=18,missing=17
				17:[f26<0.0242924783] yes=35,no=36,missing=35
					35:leaf=-0.0529977567
					36:leaf=0.000717553252
				18:[f10<1.84460878] yes=37,no=38,missing=37
					37:leaf=0.0510281436
					38:leaf=-0.0426745005
		4:[f15<109.640366] yes=9,no=10,missing=9
			9:[f10<1.57945359] yes=19,no=20,missing=19
				19:[f20<45.6149254] yes=39,no=40,missing=39
					39:leaf=0.0295903217
					40:leaf=0.0812709332
				20:[f16<44.3622055] yes=41,no=42,missing=41
					41:leaf=0.0552244745
					42:leaf=-0.0164918378
			10:[f20<230.387726] yes=21,no=22,missing=21
				21:[f16<86.3914337] yes=43,no=44,missing=43
					43:leaf=-0.00849018898
					44:leaf=-0.052349031
				22:[f15<186.757919] yes=45,no=46,missing=45
					45:leaf=0.0714527071
					46:leaf=-0.0473706983
	2:[f14<40.8795624] yes=5,no=6,missing=5
		5:[f16<23.7080421] yes=11,no=12,missing=11
			11:[f3<23.9202118] yes=23,no=24,missing=23
				23:[f1<28.790411] yes=47,no=48,missing=47
					47:leaf=0.0838232785
					48:leaf=0.00598387513
				24:[f18<2.47010159] yes=49,no=50,missing=49
					49:leaf=-0.0341749117
					50:leaf=0.0524957478
			12:[f18<1.83223844] yes=25,no=26,missing=25
				25:[f20<170.351852] yes=51,no=52,missing=51
					51:leaf=-0.0538972914
					52:leaf=-0.0296119843
				26:[f16<42.9223175] yes=53,no=54,missing=53
					53:leaf=0.0139214573
					54:leaf=-0.0405214839
		6:[f14<45.3611145] yes=13,no=14,missing=13
			13:[f1<28.9717979] yes=27,no=28,missing=27
				27:[f8<6.95367432] yes=55,no=56,missing=55
					55:leaf=0.0386280231
					56:leaf=-0.0344494507
				28:[f5<0.0335235111] yes=57,no=58,missing=57
					57:leaf=-0.0520326272
					58:leaf=0.013457112
			14:[f25<0.603537202] yes=29,no=30,missing=29
				29:[f3<0.705789566] yes=59,no=60,missing=59
					59:leaf=0.0108608976
					60:leaf=-0.0542635322
				30:[f6<41.087944] yes=61,no=62,missing=61
					61:leaf=0.0331416391
					62:leaf=-0.0481104627
