booster[0]:
0:[f0<42.2430878] yes=1,no=2,missing=1
	1:[f14<121.452621] yes=3,no=4,missing=3
		3:[f0<27.5386868] yes=7,no=8,missing=7
			7:[f16<59.6434402] yes=15,no=16,missing=15
				15:[f14<33.4315338] yes=31,no=32,missing=31
					31:leaf=-0.038462352
					32:leaf=0.00273630116
				16:[f14<29.9524689] yes=33,no=34,missing=33
					33:leaf=-0.0063344622
					34:leaf=0.048694808
			8:[f16<61.9178581] yes=17,no=18,missing=17
				17:[f14<36.6283188] yes=35,no=36,missing=35
					35:leaf=-0.0044087437
					36:leaf=0.0698883832
				18:[f14<28.8774338] yes=37,no=38,missing=37
					37:leaf=0.0433026738
					38:leaf=0.132560387
		4:[f14<150.452164] yes=9,no=10,missing=9
			9:[f0<25.9170151] yes=19,no=20,missing=19
				19:[f20<50.6801643] yes=39,no=40,missing=39
					39:leaf=0.0957906917
					40:leaf=0.178444251
				20:[f3<100.531967] yes=41,no=42,missing=41
					41:leaf=0.17507495
					42:leaf=0.223522782
			10:[f0<23.52701] yes=21,no=22,missing=21
				21:[f24<0.00475755427] yes=43,no=44,missing=43
					43:leaf=0.176072672
					44:leaf=0.218257934
				22:[f0<29.6088772] yes=45,no=46,missing=45
					45:leaf=0.220940709
					46:leaf=0.249421522
	2:[f0<59.6052399] yes=5,no=6,missing=5
		5:[f14<115.760651] yes=11,no=12,missing=11
			11:[f16<51.7179718] yes=23,no=24,missing=23
				23:[f14<36.5680618] yes=47,no=48,missing=47
					47:leaf=0.0440704599
					48:leaf=0.149502143
				24:[f14<30.7427864] yes=49,no=50,missing=49
					49:leaf=0.129603431
					50:leaf=0.209231779
			12:[f14<147.919556] yes=25,no=26,missing=25
				25:[f3<99.7951431] yes=51,no=52,missing=51
					51:leaf=0.235648379
					52:leaf=0.270172209
				26:[f0<50.2888451] yes=53,no=54,missing=53
					53:leaf=0.269015819
					54:leaf=0.282359242
		6:[f0<79.0642548] yes=13,no=14,missing=13
			13:[f14<113.075302] yes=27,no=28,missing=27
				27:[f14<33.1520157] yes=55,no=56,missing=55
					55:leaf=0.201187164
					56:leaf=0.254966557
				28:[f14<133.204193] yes=57,no=58,missing=57
					57:leaf=0.275382578
					58:leaf=0.290617555
			14:[f14<50.0135422] yes=29,no=30,missing=29
				29:[f8<46.3852921] yes=59,no=60,missing=59
					59:leaf=0.258670568
					60:leaf=0.290129036
				30:[f4<0.0870831162] yes=61,no=62,missing=61
					61:leaf=0.294869423
					62:leaf=0.0631578937
booster[1]:
0:[f0<42.128067] yes=1,no=2,missing=1
	1:[f14<129.640533] yes=3,no=4,missing=3
		3:[f20<61.8429184] yes=7,no=8,missing=7
			7:[f0<26.6551018] yes=15,no=16,missing=15
				15:[f14<65.9503326] yes=31,no=32,missing=31
					31:leaf=0.197348103
					32:leaf=0.23600319
				16:[f14<115.871475] yes=33,no=34,missing=33
					33:leaf=0.158939049
					34:leaf=0.0821043402
			8:[f14<38.9882431] yes=17,no=18,missing=17
				17:[f1<69.8836975] yes=35,no=36,missing=35
					35:leaf=0.00199341471
					36:leaf=0.113649227
				18:[f0<25.8500137] yes=37,no=38,missing=37
					37:leaf=0.156652823
					38:leaf=0.0846032128
		4:[f0<24.7053204] yes=9,no=10,missing=9
			9:[f14<181.504578] yes=19,no=20,missing=19
				19:[f20<45.5756989] yes=39,no=40,missing=39
					39:leaf=0.112792552
					40:leaf=0.0398728885
				20:[f20<115.382324] yes=41,no=42,missing=41
					41:leaf=0.041401457
					42:leaf=-0.0142735783
			10:[f14<160.340775] yes=21,no=22,missing=21
				21:[f20<79.6764221] yes=43,no=44,missing=43
					43:leaf=0.0480786599
					44:leaf=-0.0134539753
				22:[f20<54.4085655] yes=45,no=46,missing=45
					45:leaf=0.00208498142
					46:leaf=-0.0259802248
	2:[f0<59.6083145] yes=5,no=6,missing=5
		5:[f14<116.607491] yes=11,no=12,missing=11
			11:[f3<73.1710663] yes=23,no=24,missing=23
				23:[f8<93.5115356] yes=47,no=48,missing=47
					47:leaf=0.111185491
					48:leaf=0.0287976004
				24:[f14<72.7405701] yes=49,no=50,missing=49
					49:leaf=0.00416742777
					50:leaf=0.0518927686
			12:[f14<147.883347] yes=25,no=26,missing=25
				25:[f3<100.231415] yes=51,no=52,missing=51
					51:leaf=0.000591013813
					52:leaf=-0.0325227976
				26:[f0<50.2888451] yes=53,no=54,missing=53
					53:leaf=-0.0310389344
					54:leaf=-0.0448742025
		6:[f0<74.7945557] yes=13,no=14,missing=13
			13:[f14<124.245514] yes=27,no=28,missing=27
				27:[f3<69.5339737] yes=55,no=56,missing=55
					55:leaf=-0.00230549765
					56:leaf=-0.0305357017
				28:[f14<156.201294] yes=57,no=58,missing=57
					57:leaf=-0.046121642
					58:leaf=-0.0538165867
			14:[f0<88.70961] yes=29,no=30,missing=29
				29:[f14<109.811386] yes=59,no=60,missing=59
					59:leaf=-0.0421684496
					60:leaf=-0.0564247146
				30:[f8<38.4917908] yes=61,no=62,missing=61
					61:leaf=-0.0538601577
					62:leaf=-0.0590713918
booster[2]:
0:[f20<37.7490234] yes=1,no=2,missing=1
	1:[f0<58.6844101] yes=3,no=4,missing=3
		3:[f10<0.0165965706] yes=7,no=8,missing=7
			7:[f0<28.4650993] yes=15,no=16,missing=15
				15:leaf=0.0157894716
				16:leaf=-0.0348837189
			8:[f21<36.4599037] yes=17,no=18,missing=17
				17:[f25<0.167537987] yes=27,no=28,missing=27
					27:leaf=-0.0596015416
					28:leaf=-0.0380281694
				18:[f0<34.6914711] yes=29,no=30,missing=29
					29:leaf=-0.0396226421
					30:leaf=0.0157894716
		4:[f0<58.6878281] yes=9,no=10,missing=9
			9:leaf=0.0157894716
			10:[f7<0.0150679648] yes=19,no=20,missing=19
				19:leaf=-0.00566037884
				20:[f24<0.365017474] yes=31,no=32,missing=31
					31:leaf=-0.0586866327
					32:leaf=-0.0358208977
	2:[f21<30.0948753] yes=5,no=6,missing=5
		5:[f11<6.28290653] yes=11,no=12,missing=11
			11:[f20<37.7521744] yes=21,no=22,missing=21
				21:leaf=0.0157894716
				22:[f24<0.142450631] yes=33,no=34,missing=33
					33:leaf=-0.0581292026
					34:leaf=-0.0552811138
			12:leaf=0.0157894716
		6:[f1<202.001495] yes=13,no=14,missing=13
			13:[f0<57.1828804] yes=23,no=24,missing=23
				23:[f12<3.07205558] yes=35,no=36,missing=35
					35:leaf=-0.0572759807
					36:leaf=-0.00361445965
				24:[f20<147.253799] yes=37,no=38,missing=37
					37:leaf=-0.0532185324
					38:leaf=-0.0563205257
			14:[f5<-0.0339780003] yes=25,no=26,missing=25
				25:[f2<51.2530403] yes=39,no=40,missing=39
					39:leaf=0.0631578937
					40:leaf=-0.0315789469
				26:[f10<0.0896440744] yes=41,no=42,missing=41
					41:leaf=-0.0333333351
					42:leaf=-0.0588285737
booster[3]:
0:[f25<0.700535893] yes=1,no=2,missing=1
	1:leaf=-0.0598698333
	2:leaf=-1.6763807e-09
booster[4]:
0:leaf=-0.0596111119
booster[5]:
0:[f14<36.1943665] yes=1,no=2,missing=1
	1:[f18<2.0999217] yes=3,no=4,missing=3
		3:[f16<32.3735428] yes=7,no=8,missing=7
			7:[f3<25.5834541] yes=15,no=16,missing=15
				15:[f10<2.00021744] yes=31,no=32,missing=31
					31:leaf=0.193952024
					32:leaf=-2.54347388e-09
				16:[f10<2.10101128] yes=33,no=34,missing=33
					33:leaf=0.0468875878
					34:leaf=-0.0435233153
			8:[f17<1.5] yes=17,no=18,missing=17
				17:[f3<29.0070877] yes=35,no=36,missing=35
					35:leaf=-0.00711553404
					36:leaf=-0.0581032224
				18:[f0<63.3506432] yes=37,no=38,missing=37
					37:leaf=0.080609411
					38:leaf=-0.0464506894
		4:[f0<64.8759308] yes=9,no=10,missing=9
			9:[f16<64.533371] yes=19,no=20,missing=19
				19:[f20<57.8273659] yes=39,no=40,missing=39
					39:leaf=0.126379892
					40:leaf=0.23527579
				20:[f20<97.4190063] yes=41,no=42,missing=41
					41:leaf=-0.0463901274
					42:leaf=0.133286104
			10:[f0<90.1728058] yes=21,no=22,missing=21
				21:[f16<65.0827026] yes=43,no=44,missing=43
					43:leaf=0.0593545847
					44:leaf=-0.0192339737
				22:[f16<40.2355728] yes=45,no=46,missing=45
					45:leaf=-0.017876491
					46:leaf=-0.0542105697
	2:[f14<39.6905823] yes=5,no=6,missing=5
		5:[f16<20.7685623] yes=11,no=12,missing=11
			11:[f10<2.17944717] yes=23,no=24,missing=23
				23:[f18<2.11441231] yes=47,no=48,missing=47
					47:leaf=0.0595667772
					48:leaf=0.167410716
				24:[f1<26.4025269] yes=49,no=50,missing=49
					49:leaf=0.029577462
					50:leaf=-0.0472222231
			12:[f18<2.39864922] yes=25,no=26,missing=25
				25:[f27<0.042899318] yes=51,no=52,missing=51
					51:leaf=-0.0569828711
					52:leaf=0.0352941118
				26:[f16<47.8231163] yes=53,no=54,missing=53
					53:leaf=0.0226096716
					54:leaf=-0.0475071371
		6:[f14<42.6337509] yes=13,no=14,missing=13
			13:[f16<24.1525173] yes=27,no=28,missing=27
				27:[f0<62.1543198] yes=55,no=56,missing=55
					55:leaf=0.00326441485
					56:leaf=-0.0550106578
				28:[f16<38.394043] yes=57,no=58,missing=57
					57:leaf=-0.0477351919
					58:leaf=-0.0581997521
			14:[f2<19.5657806] yes=29,no=30,missing=29
				29:[f3<0.749123633] yes=59,no=60,missing=59
					59:leaf=0.0157894716
					60:leaf=-0.0583849959
				30:[f5<0.105273843] yes=61,no=62,missing=61
					61:leaf=-0.0597344711
					62:leaf=-0.0320388339
booster[6]:
0:[f0<39.6600304] yes=1,no=2,missing=1
	1:[f14<118.089287] yes=3,no=4,missing=3
		3:[f0<25.9344845] yes=7,no=8,missing=7
			7:[f16<59.8446007] yes=15,no=16,missing=15
				15:[f3<80.530014] yes=31,no=32,missing=31
					31:leaf=-0.0117440484
					32:leaf=0.0294855684
				16:[f14<29.69384] yes=33,no=34,missing=33
					33:leaf=-0.00735310325
					34:leaf=0.041003257
			8:[f16<69.8917694] yes=17,no=18,missing=17
				17:[f14<32.1734161] yes=35,no=36,missing=35
					35:leaf=-0.0107374582
					36:leaf=0.0517875254
				18:[f14<27.4713707] yes=37,no=38,missing=37
					37:leaf=0.0369272195
					38:leaf=0.106622674
		4:[f14<147.900574] yes=9,no=10,missing=9
			9:[f0<24.6817398] yes=19,no=20,missing=19
				19:[f20<83.6695938] yes=39,no=40,missing=39
					39:leaf=0.0797149017
					40:leaf=0.158523053
				20:[f20<79.698288] yes=41,no=42,missing=41
					41:leaf=0.136525065
					42:leaf=0.188743874
			10:[f0<19.9454479] yes=21,no=22,missing=21
				21:[f14<224.280365] yes=43,no=44,missing=43
					43:leaf=0.130936012
					44:leaf=0.166809678
				22:[f3<95.1776428] yes=45,no=46,missing=45
					45:leaf=0.171538398
					46:leaf=0.196808353
	2:[f0<55.0712967] yes=5,no=6,missing=5
		5:[f14<115.219772] yes=11,no=12,missing=11
			11:[f7<48.2191849] yes=23,no=24,missing=23
				23:[f3<60.3383293] yes=47,no=48,missing=47
					47:leaf=0.0610175505
					48:leaf=0.121550374
				24:[f14<70.7840118] yes=49,no=50,missing=49
					49:leaf=0.164401665
					50:leaf=0.120232023
			12:[f14<158.332993] yes=25,no=26,missing=25
				25:[f3<95.49646] yes=51,no=52,missing=51
					51:leaf=0.177068546
					52:leaf=0.201968595
				26:[f24<0.0058459416] yes=53,no=54,missing=53
					53:leaf=0.204078868
					54:leaf=0.214788347
		6:[f0<70.4736786] yes=13,no=14,missing=13
			13:[f14<113.074646] yes=27,no=28,missing=27
				27:[f14<27.1491432] yes=55,no=56,missing=55
					55:leaf=0.126950055
					56:leaf=0.184523374
				28:[f14<124.442505] yes=57,no=58,missing=57
					57:leaf=0.199279666
					58:leaf=0.216444358
			14:[f0<96.6342163] yes=29,no=30,missing=29
				29:[f14<107.857635] yes=59,no=60,missing=59
					59:leaf=0.207443342
					60:leaf=0.220747948
				30:[f4<-0.0868918151] yes=61,no=62,missing=61
					61:leaf=0.0655622184
					62:leaf=0.221751675
booster[7]:
0:[f0<45.2349739] yes=1,no=2,missing=1
	1:[f14<123.387497] yes=3,no=4,missing=3
		3:[f20<81.6773453] yes=7,no=8,missing=7
			7:[f0<30.1523819] yes=15,no=16,missing=15
				15:[f14<69.3289948] yes=31,no=32,missing=31
					31:leaf=0.152893901
					32:leaf=0.186625615
				16:[f14<70.5097351] yes=33,no=34,missing=33
					33:leaf=0.0911160633
					34:leaf=0.137557447
			8:[f14<66.7497711] yes=17,no=18,missing=17
				17:[f15<145.987427] yes=35,no=36,missing=35
					35:leaf=0.0132382913
					36:leaf=0.085715659
				18:[f0<30.5401917] yes=37,no=38,missing=37
					37:leaf=0.130647466
					38:leaf=0.0632235631
		4:[f0<29.6094761] yes=9,no=10,missing=9
			9:[f14<150.695267] yes=19,no=20,missing=19
				19:[f20<42.2251511] yes=39,no=40,missing=39
					39:leaf=0.113508739
					40:leaf=0.0521907024
				20:[f24<0.00428740773] yes=41,no=42,missing=41
					41:leaf=0.049123805
					42:leaf=0.0100358799
			10:[f14<160.473877] yes=21,no=22,missing=21
				21:[f3<94.8222046] yes=43,no=44,missing=43
					43:leaf=0.0369123779
					44:leaf=-0.00114696682
				22:[f24<0.00585354632] yes=45,no=46,missing=45
					45:leaf=-0.00650635734
					46:leaf=-0.0280209612
	2:[f0<63.2231255] yes=5,no=6,missing=5
		5:[f14<116.126869] yes=11,no=12,missing=11
			11:[f14<71.3554535] yes=23,no=24,missing=23
				23:[f7<50.0448303] yes=47,no=48,missing=47
					47:leaf=0.0392257124
					48:leaf=-0.00747520989
				24:[f3<67.6233368] yes=49,no=50,missing=49
					49:leaf=0.0900202021
					50:leaf=0.0341813453
			12:[f14<157.30011] yes=25,no=26,missing=25
				25:[f3<99.6439896] yes=51,no=52,missing=51
					51:leaf=-0.0107261948
					52:leaf=-0.0386830941
				26:[f0<53.5914993] yes=53,no=54,missing=53
					53:leaf=-0.0369495042
					54:leaf=-0.0480546653
		6:[f0<79.8186035] yes=13,no=14,missing=13
			13:[f14<123.235962] yes=27,no=28,missing=27
				27:[f8<82.1839752] yes=55,no=56,missing=55
					55:leaf=-0.0071314075
					56:leaf=-0.0363790542
				28:[f2<237.351013] yes=57,no=58,missing=57
					57:leaf=-0.0528660081
					58:leaf=-0.0310127493
			14:[f0<96.590683] yes=29,no=30,missing=29
				29:[f14<109.808029] yes=59,no=60,missing=59
					59:leaf=-0.0464393236
					60:leaf=-0.0571027398
				30:[f8<38.4917908] yes=61,no=62,missing=61
					61:leaf=-0.0541399494
					62:leaf=-0.0585417151
booster[8]:
0:[f20<37.7489319] yes=1,no=2,missing=1
	1:[f0<58.6844101] yes=3,no=4,missing=3
		3:[f10<0.0165965706] yes=7,no=8,missing=7
			7:[f6<86.2429962] yes=15,no=16,missing=15
				15:leaf=-0.0346581899
				16:leaf=0.0170426592
			8:[f21<36.4599037] yes=17,no=18,missing=17
				17:[f25<0.167537987] yes=27,no=28,missing=27
					27:leaf=-0.0588361509
					28:leaf=-0.0367432013
				18:[f13<1.89926112] yes=29,no=30,missing=29
					29:leaf=-0.0391540937
					30:leaf=0.0174560603
		4:[f0<58.6878281] yes=9,no=10,missing=9
			9:leaf=0.0157268923
			10:[f7<0.0150679648] yes=19,no=20,missing=19
				19:leaf=-0.00483378582
				20:[f24<0.365017474] yes=31,no=32,missing=31
					31:leaf=-0.0578421317
					32:leaf=-0.0343895853
	2:[f0<55.8635635] yes=5,no=6,missing=5
		5:[f11<6.28269386] yes=11,no=12,missing=11
			11:[f3<0.920428634] yes=21,no=22,missing=21
				21:leaf=0.00230053836
				22:[f12<3.07205558] yes=33,no=34,missing=33
					33:leaf=-0.0574324019
					34:leaf=-0.0308120195
			12:leaf=0.0169591308
		6:[f1<202.007538] yes=13,no=14,missing=13
			13:[f25<0.0329570137] yes=23,no=24,missing=23
				23:[f24<0.142193079] yes=35,no=36,missing=35
					35:leaf=-0.0560345054
					36:leaf=-0.0509731285
				24:[f0<55.9048767] yes=37,no=38,missing=37
					37:leaf=0.0410668515
					38:leaf=-0.0526399575
			14:[f9<6.27715206] yes=25,no=26,missing=25
				25:[f18<0.413655341] yes=39,no=40,missing=39
					39:leaf=0.00951223355
					40:leaf=-0.0579154268
				26:[f9<6.27796173] yes=41,no=42,missing=41
					41:leaf=0.0640798882
					42:leaf=-0.0401531421
booster[9]:
0:[f25<0.700535893] yes=1,no=2,missing=1
	1:leaf=-0.0590955988
	2:leaf=0.000650882663
booster[10]:
0:leaf=-0.0588254035
booster[11]:
0:[f14<36.8023453] yes=1,no=2,missing=1
	1:[f18<2.0999217] yes=3,no=4,missing=3
		3:[f16<34.524662] yes=7,no=8,missing=7
			7:[f3<28.4215317] yes=15,no=16,missing=15
				15:[f10<2.24066067] yes=31,no=32,missing=31
					31:leaf=0.144988567
					32:leaf=-0.0407527052
				16:[f17<1.5] yes=33,no=34,missing=33
					33:leaf=-0.0172461998
					34:leaf=0.120381199
			8:[f17<1.5] yes=17,no=18,missing=17
				17:[f3<25.967247] yes=35,no=36,missing=35
					35:leaf=-0.0110187372
					36:leaf=-0.0570834763
				18:[f0<63.3506432] yes=37,no=38,missing=37
					37:leaf=0.0670527965
					38:leaf=-0.0460157841
		4:[f0<67.9904251] yes=9,no=10,missing=9
			9:[f1<40.6990623] yes=19,no=20,missing=19
				19:[f10<1.97555351] yes=39,no=40,missing=39
					39:leaf=0.182972178
					40:leaf=0.0491688773
				20:[f20<98.3476868] yes=41,no=42,missing=41
					41:leaf=-0.0322350487
					42:leaf=0.121246316
			10:[f0<90.1728058] yes=21,no=22,missing=21
				21:[f16<43.416111] yes=43,no=44,missing=43
					43:leaf=0.0934270024
					44:leaf=-0.0067227222
				22:[f0<98.3328857] yes=45,no=46,missing=45
					45:leaf=-0.0254880693
					46:leaf=-0.0539491661
	2:[f14<41.8612785] yes=5,no=6,missing=5
		5:[f16<18.8708992] yes=11,no=12,missing=11
			11:[f10<2.3277688] yes=23,no=24,missing=23
				23:[f3<56.8248672] yes=47,no=48,missing=47
					47:leaf=0.0797090828
					48:leaf=-0.0294920802
				24:[f16<3.08337355] yes=49,no=50,missing=49
					49:leaf=0.00170293625
					50:leaf=-0.0503891893
			12:[f18<2.39905119] yes=25,no=26,missing=25
				25:[f27<0.0427973643] yes=51,no=52,missing=51
					51:leaf=-0.0569714196
					52:leaf=0.0281302314
				26:[f16<40.47015] yes=53,no=54,missing=53
					53:leaf=0.00705550192
					54:leaf=-0.0489967465
		6:[f2<19.5588684] yes=13,no=14,missing=13
			13:[f14<43.9740677] yes=27,no=28,missing=27
				27:[f1<29.209343] yes=55,no=56,missing=55
					55:leaf=-0.0288429111
					56:leaf=-0.0542581864
				28:[f2<19.5572929] yes=57,no=58,missing=57
					57:leaf=-0.0577221513
					58:leaf=0.0183775295
			14:[f5<0.105273843] yes=29,no=30,missing=29
				29:leaf=-0.0589465201
				30:[f4<0.00313230697] yes=59,no=60,missing=59
					59:leaf=-0.0462823622
					60:leaf=0.0173424631
booster[12]:
0:[f0<38.071579] yes=1,no=2,missing=1
	1:[f14<117.479507] yes=3,no=4,missing=3
		3:[f0<23.9245777] yes=7,no=8,missing=7
			7:[f16<66.8920822] yes=15,no=16,missing=15
				15:[f14<30.0396805] yes=31,no=32,missing=31
					31:leaf=-0.0371208042
					32:leaf=-0.00311596063
				16:[f14<24.9922714] yes=33,no=34,missing=33
					33:leaf=-0.0161180329
					34:leaf=0.0373966023
			8:[f16<53.6150475] yes=17,no=18,missing=17
				17:[f3<63.7273026] yes=35,no=36,missing=35
					35:leaf=0.0167255495
					36:leaf=0.0664637759
				18:[f14<28.8817177] yes=37,no=38,missing=37
					37:leaf=0.0180050768
					38:leaf=0.0813755915
		4:[f14<169.714142] yes=9,no=10,missing=9
			9:[f0<20.6087189] yes=19,no=20,missing=19
				19:[f20<45.6520844] yes=39,no=40,missing=39
					39:leaf=0.0683862343
					40:leaf=0.119435422
				20:[f20<79.7214661] yes=41,no=42,missing=41
					41:leaf=0.114620045
					42:leaf=0.158348501
			10:[f0<17.3718033] yes=21,no=22,missing=21
				21:[f20<64.9753113] yes=43,no=44,missing=43
					43:leaf=0.119579017
					44:leaf=0.158104524
				22:[f14<246.4702] yes=45,no=46,missing=45
					45:leaf=0.143785313
					46:leaf=0.160970286
	2:[f0<53.6179276] yes=5,no=6,missing=5
		5:[f14<112.783432] yes=11,no=12,missing=11
			11:[f16<49.3446732] yes=23,no=24,missing=23
				23:[f3<57.6025658] yes=47,no=48,missing=47
					47:leaf=0.0514957197
					48:leaf=0.11569389
				24:[f14<27.4871368] yes=49,no=50,missing=49
					49:leaf=0.0618818514
					50:leaf=0.12776728
			12:[f14<144.068451] yes=25,no=26,missing=25
				25:[f20<64.1337891] yes=51,no=52,missing=51
					51:leaf=0.141319245
					52:leaf=0.17091459
				26:[f3<133.798859] yes=53,no=54,missing=53
					53:leaf=0.163982794
					54:leaf=0.174768239
		6:[f0<69.6462173] yes=13,no=14,missing=13
			13:[f14<109.524323] yes=27,no=28,missing=27
				27:[f16<51.6478424] yes=55,no=56,missing=55
					55:leaf=0.128134906
					56:leaf=0.157680631
				28:[f14<133.461273] yes=57,no=58,missing=57
					57:leaf=0.164535627
					58:leaf=0.175999179
			14:[f0<89.1991272] yes=29,no=30,missing=29
				29:[f2<17.5685596] yes=59,no=60,missing=59
					59:leaf=0.155056313
					60:leaf=0.175644085
				30:[f7<40.3227768] yes=61,no=62,missing=61
					61:leaf=0.176511094
					62:leaf=0.179698959
booster[13]:
0:[f0<45.8991089] yes=1,no=2,missing=1
	1:[f14<131.31044] yes=3,no=4,missing=3
		3:[f20<56.677433] yes=7,no=8,missing=7
			7:[f0<32.3696671] yes=15,no=16,missing=15
				15:[f0<18.8906479] yes=31,no=32,missing=31
					31:leaf=0.154100925
					32:leaf=0.130293474
				16:[f7<38.3326187] yes=33,no=34,missing=33
					33:leaf=0.11683549
					34:leaf=0.077862978
			8:[f14<40.8987007] yes=17,no=18,missing=17
				17:[f1<69.8836975] yes=35,no=36,missing=35
					35:leaf=0.00438646367
					36:leaf=0.0859168544
				18:[f20<143.006622] yes=37,no=38,missing=37
					37:leaf=0.100609101
					38:leaf=0.0422368906
		4:[f0<29.6088772] yes=9,no=10,missing=9
			9:[f14<203.367737] yes=19,no=20,missing=19
				19:[f20<80.8988647] yes=39,no=40,missing=39
					39:leaf=0.0714035332
					40:leaf=0.00953800697
				20:[f20<80.827179] yes=41,no=42,missing=41
					41:leaf=0.0274142753
					42:leaf=-0.012051939
			10:[f14<193.643616] yes=21,no=22,missing=21
				21:[f24<-0.996763229] yes=43,no=44,missing=43
					43:leaf=0.0199157894
					44:leaf=-0.0116634322
				22:[f20<54.1483231] yes=45,no=46,missing=45
					45:leaf=-0.0128608514
					46:leaf=-0.0345081314
	2:[f0<63.2231255] yes=5,no=6,missing=5
		5:[f14<120.153961] yes=11,no=12,missing=11
			11:[f3<83.7706146] yes=23,no=24,missing=23
				23:[f8<83.8479233] yes=47,no=48,missing=47
					47:leaf=0.0753199235
					48:leaf=0.0169703197
				24:[f14<71.3554535] yes=49,no=50,missing=49
					49:leaf=-0.01268066
					50:leaf=0.0222025719
			12:[f14<157.142303] yes=25,no=26,missing=25
				25:[f0<52.5191193] yes=51,no=52,missing=51
					51:leaf=-0.00812866632
					52:leaf=-0.0344933383
				26:[f0<53.5914993] yes=53,no=54,missing=53
					53:leaf=-0.0360358506
					54:leaf=-0.0469044037
		6:[f0<79.8186035] yes=13,no=14,missing=13
			13:[f14<123.478256] yes=27,no=28,missing=27
				27:[f8<82.1839752] yes=55,no=56,missing=55
					55:leaf=-0.00618804246
					56:leaf=-0.0351095311
				28:[f2<237.351013] yes=57,no=58,missing=57
					57:leaf=-0.0518941544
					58:leaf=-0.0295011383
			14:[f0<96.590683] yes=29,no=30,missing=29
				29:[f14<109.808029] yes=59,no=60,missing=59
					59:leaf=-0.0452433564
					60:leaf=-0.0562718175
				30:[f8<38.4917908] yes=61,no=62,missing=61
					61:leaf=-0.0531679951
					62:leaf=-0.0577782281
booster[14]:
0:[f20<37.7490234] yes=1,no=2,missing=1
	1:[f0<58.6833038] yes=3,no=4,missing=3
		3:[f10<0.0165965706] yes=7,no=8,missing=7
			7:[f4<0.000972346519] yes=15,no=16,missing=15
				15:leaf=0.0173420887
				16:leaf=-0.033961501
			8:[f21<36.4599037] yes=17,no=18,missing=17
				17:[f25<0.167537987] yes=27,no=28,missing=27
					27:leaf=-0.0581350587
					28:leaf=-0.0355016999
				18:[f18<2.63234615] yes=29,no=30,missing=29
					29:leaf=-0.0384201221
					30:leaf=0.018473139
		4:[f0<58.6865921] yes=9,no=10,missing=9
			9:leaf=0.01713272
			10:[f7<0.0150679648] yes=19,no=20,missing=19
				19:leaf=-0.00402723625
				20:[f24<0.365017474] yes=31,no=32,missing=31
					31:leaf=-0.0570521243
					32:leaf=-0.0329620689
	2:[f0<55.8635635] yes=5,no=6,missing=5
		5:[f11<6.28269386] yes=11,no=12,missing=11
			11:[f3<0.920428634] yes=21,no=22,missing=21
				21:leaf=0.00268696668
				22:[f12<3.07205558] yes=33,no=34,missing=33
					33:leaf=-0.0566698872
					34:leaf=-0.0295535065
			12:leaf=0.0169440564
		6:[f1<202.023987] yes=13,no=14,missing=13
			13:[f25<0.0329570137] yes=23,no=24,missing=23
				23:[f24<0.142193079] yes=35,no=36,missing=35
					35:leaf=-0.0551527627
					36:leaf=-0.0498780571
				24:[f0<55.9048767] yes=37,no=38,missing=37
					37:leaf=0.0401676707
					38:leaf=-0.0516085215
			14:[f5<-0.0339780003] yes=25,no=26,missing=25
				25:[f9<5.15156794] yes=39,no=40,missing=39
					39:leaf=-0.0393336974
					40:leaf=0.0646032616
				26:[f18<0.413655341] yes=41,no=42,missing=41
					41:leaf=0.00994036626
					42:leaf=-0.0571238101
booster[15]:
0:[f25<0.700535893] yes=1,no=2,missing=1
	1:leaf=-0.0583842695
	2:leaf=0.00147998205
booster[16]:
0:[f0<56.3493195] yes=1,no=2,missing=1
	1:leaf=-0.0583640635
	2:[f0<56.3509674] yes=3,no=4,missing=3
		3:leaf=0.0205808468
		4:[f24<0.19101873] yes=5,no=6,missing=5
			5:leaf=-0.0579270236
			6:[f14<13.190114] yes=7,no=8,missing=7
				7:leaf=0.0224221405
				8:[f18<0.488764107] yes=9,no=10,missing=9
					9:leaf=0.0124416808
					10:leaf=-0.0560035184
booster[17]:
0:[f14<36.8023453] yes=1,no=2,missing=1
	1:[f18<2.0999217] yes=3,no=4,missing=3
		3:[f16<36.7605705] yes=7,no=8,missing=7
			7:[f3<30.6194553] yes=15,no=16,missing=15
				15:[f10<2.00569582] yes=31,no=32,missing=31
					31:leaf=0.123944722
					32:leaf=-0.0132207097
				16:[f21<30.1873169] yes=33,no=34,missing=33
					33:leaf=-0.0267944671
					34:leaf=0.101952426
			8:[f17<1.5] yes=17,no=18,missing=17
				17:[f16<44.3206253] yes=35,no=36,missing=35
					35:leaf=-0.0301418453
					36:leaf=-0.057907898
				18:[f0<63.3506432] yes=37,no=38,missing=37
					37:leaf=0.0577891879
					38:leaf=-0.0454814397
		4:[f0<67.9904251] yes=9,no=10,missing=9
			9:[f1<54.2256775] yes=19,no=20,missing=19
				19:[f10<1.99536633] yes=39,no=40,missing=39
					39:leaf=0.143606409
					40:leaf=0.0249389224
				20:[f20<152.234833] yes=41,no=42,missing=41
					41:leaf=-0.040343225
					42:leaf=0.108401023
			10:[f0<90.1728058] yes=21,no=22,missing=21
				21:[f10<1.20269442] yes=43,no=44,missing=43
					43:leaf=0.0522803478
					44:leaf=-0.0197834112
				22:[f16<40.2080841] yes=45,no=46,missing=45
					45:leaf=-0.0165587571
					46:leaf=-0.0523020327
	2:[f14<41.8612785] yes=5,no=6,missing=5
		5:[f16<18.8708992] yes=11,no=12,missing=11
			11:[f10<2.3277688] yes=23,no=24,missing=23
				23:[f3<56.8248672] yes=47,no=48,missing=47
					47:leaf=0.0725158229
					48:leaf=-0.0282043014
				24:[f18<2.54434061] yes=49,no=50,missing=49
					49:leaf=-0.0528545193
					50:leaf=-0.00961380731
			12:[f18<2.39905119] yes=25,no=26,missing=25
				25:[f27<0.0427973643] yes=51,no=52,missing=51
					51:leaf=-0.0561942123
					52:leaf=0.0272125583
				26:[f16<40.47015] yes=53,no=54,missing=53
					53:leaf=0.00730298553
					54:leaf=-0.0479354188
		6:[f2<19.5590858] yes=13,no=14,missing=13
			13:[f14<43.9740677] yes=27,no=28,missing=27
				27:[f1<29.209343] yes=55,no=56,missing=55
					55:leaf=-0.0276503246
					56:leaf=-0.053398069
				28:[f2<19.5580482] yes=57,no=58,missing=57
					57:leaf=-0.056967169
					58:leaf=0.0197140221
			14:[f5<0.105273843] yes=29,no=30,missing=29
				29:leaf=-0.0582254939
				30:[f5<0.118581876] yes=59,no=60,missing=59
					59:leaf=0.0186798871
					60:leaf=-0.0455639027
booster[18]:
0:[f0<37.9059219] yes=1,no=2,missing=1
	1:[f14<117.288094] yes=3,no=4,missing=3
		3:[f7<39.9690361] yes=7,no=8,missing=7
			7:[f3<93.3392792] yes=15,no=16,missing=15
				15:[f14<28.2345734] yes=31,no=32,missing=31
					31:leaf=-0.0338190831
					32:leaf=0.00380445085
				16:[f14<32.6509361] yes=33,no=34,missing=33
					33:leaf=-0.000631647883
					34:leaf=0.052107811
			8:[f14<71.3532104] yes=17,no=18,missing=17
				17:[f14<32.2269897] yes=35,no=36,missing=35
					35:leaf=0.021705851
					36:leaf=0.0941512808
				18:[f24<-0.996867836] yes=37,no=38,missing=37
					37:leaf=0.0168000814
					38:leaf=0.0622127764
		4:[f14<141.319489] yes=9,no=10,missing=9
			9:[f0<19.7754707] yes=19,no=20,missing=19
				19:[f3<91.8951569] yes=39,no=40,missing=39
					39:leaf=0.0430644564
					40:leaf=0.0904747918
				20:[f20<86.5961685] yes=41,no=42,missing=41
					41:leaf=0.0899696276
					42:leaf=0.132833734
			10:[f3<99.9288483] yes=21,no=22,missing=21
				21:[f8<89.1950455] yes=43,no=44,missing=43
					43:leaf=0.104221933
					44:leaf=0.130510822
				22:[f20<80.8747253] yes=45,no=46,missing=45
					45:leaf=0.127750248
					46:leaf=0.145969808
	2:[f0<56.4169388] yes=5,no=6,missing=5
		5:[f14<109.770691] yes=11,no=12,missing=11
			11:[f8<83.8393784] yes=23,no=24,missing=23
				23:[f3<64.5243225] yes=47,no=48,missing=47
					47:leaf=0.0429217182
					48:leaf=0.0997117087
				24:[f14<75.0320587] yes=49,no=50,missing=49
					49:leaf=0.120190375
					50:leaf=0.0794555396
			12:[f14<125.692383] yes=25,no=26,missing=25
				25:[f3<37.7931137] yes=51,no=52,missing=51
					51:leaf=0.0964794755
					52:leaf=0.127781928
				26:[f3<123.13446] yes=53,no=54,missing=53
					53:leaf=0.138320506
					54:leaf=0.147727594
		6:[f0<71.671669] yes=13,no=14,missing=13
			13:[f14<33.3518105] yes=27,no=28,missing=27
				27:[f18<2.35050154] yes=55,no=56,missing=55
					55:leaf=0.125745222
					56:leaf=0.0629754141
				28:[f14<113.074646] yes=57,no=58,missing=57
					57:leaf=0.132932931
					58:leaf=0.148083493
			14:[f14<38.2159081] yes=29,no=30,missing=29
				29:[f8<46.3852921] yes=59,no=60,missing=59
					59:leaf=0.12425901
					60:leaf=0.147686407
				30:[f3<60.445488] yes=61,no=62,missing=61
					61:leaf=0.1484074
					62:leaf=0.151766047
booster[19]:
0:[f0<47.5872955] yes=1,no=2,missing=1
	1:[f14<120.737564] yes=3,no=4,missing=3
		3:[f24<0.00564454449] yes=7,no=8,missing=7
			7:[f0<34.8876495] yes=15,no=16,missing=15
				15:[f14<69.3315887] yes=31,no=32,missing=31
					31:leaf=0.113210283
					32:leaf=0.136191383
				16:[f8<84.4133606] yes=33,no=34,missing=33
					33:leaf=0.097098805
					34:leaf=0.0578669012
			8:[f24<0.0297063142] yes=17,no=18,missing=17
				17:[f14<70.4981308] yes=35,no=36,missing=35
					35:leaf=-0.000989942462
					36:leaf=0.0447360091
				18:[f14<67.3132019] yes=37,no=38,missing=37
					37:leaf=0.0663877651
					38:leaf=0.120338753
		4:[f0<29.6094761] yes=9,no=10,missing=9
			9:[f14<171.380951] yes=19,no=20,missing=19
				19:[f25<-0.996783853] yes=39,no=40,missing=39
					39:leaf=0.07396359
					40:leaf=-0.00102364435
				20:[f3<141.733826] yes=41,no=42,missing=41
					41:leaf=0.0334858783
					42:leaf=-0.00176135811
			10:[f14<160.473877] yes=21,no=22,missing=21
				21:[f20<79.6607056] yes=43,no=44,missing=43
					43:leaf=0.0267522391
					44:leaf=-0.0189673379
				22:[f24<0.00585354632] yes=45,no=46,missing=45
					45:leaf=-0.00720648468
					46:leaf=-0.0270786621
	2:[f0<66.5354614] yes=5,no=6,missing=5
		5:[f14<120.153961] yes=11,no=12,missing=11
			11:[f3<67.1107788] yes=23,no=24,missing=23
				23:[f8<92.9716873] yes=47,no=48,missing=47
					47:leaf=0.0695478097
					48:leaf=0.00215677894
				24:[f0<55.474678] yes=49,no=50,missing=49
					49:leaf=0.0177491903
					50:leaf=-0.0152327446
			12:[f14<153.268066] yes=25,no=26,missing=25
				25:[f3<99.6715698] yes=51,no=52,missing=51
					51:leaf=-0.017244909
					52:leaf=-0.0406184234
				26:[f0<53.7460098] yes=53,no=54,missing=53
					53:leaf=-0.0352175497
					54:leaf=-0.0466885008
		6:[f0<79.8186035] yes=13,no=14,missing=13
			13:[f14<123.478256] yes=27,no=28,missing=27
				27:[f8<82.1839752] yes=55,no=56,missing=55
					55:leaf=-0.00888632145
					56:leaf=-0.037102554
				28:[f1<694.009766] yes=57,no=58,missing=57
					57:leaf=-0.0515895747
					58:leaf=0.0422527194
			14:[f0<96.590683] yes=29,no=30,missing=29
				29:[f14<109.808029] yes=59,no=60,missing=59
					59:leaf=-0.0440032296
					60:leaf=-0.0554847606
				30:[f8<38.4917908] yes=61,no=62,missing=61
					61:leaf=-0.0522173829
					62:leaf=-0.0570626557
booster[20]:
0:[f20<37.7490234] yes=1,no=2,missing=1
	1:[f0<54.5192184] yes=3,no=4,missing=3
		3:[f10<0.0165965706] yes=7,no=8,missing=7
			7:[f12<1.90770614] yes=15,no=16,missing=15
				15:leaf=0.0181506872
				16:leaf=-0.0303699281
			8:[f21<36.4599037] yes=17,no=18,missing=17
				17:[f25<0.167537987] yes=27,no=28,missing=27
					27:leaf=-0.0575214326
					28:leaf=-0.0331151299
				18:[f1<98.213501] yes=29,no=30,missing=29
					29:leaf=-0.0376781709
					30:leaf=0.0192742851
		4:[f0<54.5222397] yes=9,no=10,missing=9
			9:leaf=0.0141149778
			10:[f24<0.365017474] yes=19,no=20,missing=19
				19:[f7<0.0150679648] yes=31,no=32,missing=31
					31:leaf=-0.00318800355
					32:leaf=-0.056343656
				20:[f10<2.58999777] yes=33,no=34,missing=33
					33:leaf=-0.0530021004
					34:leaf=0.0381345488
	2:[f0<55.8635635] yes=5,no=6,missing=5
		5:[f11<6.28269386] yes=11,no=12,missing=11
			11:[f3<0.920428634] yes=21,no=22,missing=21
				21:leaf=0.00296023558
				22:[f12<3.07205558] yes=35,no=36,missing=35
					35:leaf=-0.0559550822
					36:leaf=-0.0283453669
			12:leaf=0.0169381853
		6:[f1<202.023987] yes=13,no=14,missing=13
			13:[f21<30.0943832] yes=23,no=24,missing=23
				23:[f24<0.14957507] yes=37,no=38,missing=37
					37:leaf=-0.0549708121
					38:leaf=-0.0480109379
				24:[f20<147.253799] yes=39,no=40,missing=39
					39:leaf=-0.0500411093
					40:leaf=-0.0536058061
			14:[f9<6.27715206] yes=25,no=26,missing=25
				25:[f18<0.413655341] yes=41,no=42,missing=41
					41:leaf=0.0105545502
					42:leaf=-0.0563764982
				26:[f14<513.131836] yes=43,no=44,missing=43
					43:leaf=-0.038418211
					44:leaf=0.0652897805
booster[21]:
0:[f25<0.700535893] yes=1,no=2,missing=1
	1:leaf=-0.0577260554
	2:leaf=0.00232823589
booster[22]:
0:[f0<56.3491592] yes=1,no=2,missing=1
	1:leaf=-0.0577265732
	2:[f0<56.350563] yes=3,no=4,missing=3
		3:leaf=0.0129375225
		4:[f24<0.19101873] yes=5,no=6,missing=5
			5:leaf=-0.057224717
			6:[f14<13.190114] yes=7,no=8,missing=7
				7:leaf=0.023405632
				8:[f24<0.19115828] yes=9,no=10,missing=9
					9:leaf=0.0148973269
					10:leaf=-0.0551968031
booster[23]:
0:[f14<36.8023453] yes=1,no=2,missing=1
	1:[f18<2.0999217] yes=3,no=4,missing=3
		3:[f16<36.7605705] yes=7,no=8,missing=7
			7:[f3<30.6194553] yes=15,no=16,missing=15
				15:[f10<2.10026312] yes=31,no=32,missing=31
					31:leaf=0.108577274
					32:leaf=-0.0252840612
				16:[f21<30.1873169] yes=33,no=34,missing=33
					33:leaf=-0.0255420264
					34:leaf=0.0913961753
			8:[f25<0.00756043196] yes=17,no=18,missing=17
				17:[f16<44.3206253] yes=35,no=36,missing=35
					35:leaf=-0.0272414126
					36:leaf=-0.0566869751
				18:[f0<61.6447182] yes=37,no=38,missing=37
					37:leaf=0.0691288263
					38:leaf=-0.0428669825
		4:[f0<71.6172562] yes=9,no=10,missing=9
			9:[f16<81.0418701] yes=19,no=20,missing=19
				19:[f20<58.9602127] yes=39,no=40,missing=39
					39:leaf=0.0644496679
					40:leaf=0.137357503
				20:[f20<165.341125] yes=41,no=42,missing=41
					41:leaf=-0.0409963951
					42:leaf=0.0956002176
			10:[f0<98.3328857] yes=21,no=22,missing=21
				21:[f16<43.2007904] yes=43,no=44,missing=43
					43:leaf=0.0796523616
					44:leaf=-0.0153139001
				22:[f10<0.213471159] yes=45,no=46,missing=45
					45:leaf=0.0130614936
					46:leaf=-0.0526671
	2:[f14<41.8612785] yes=5,no=6,missing=5
		5:[f16<23.736536] yes=11,no=12,missing=11
			11:[f10<2.38722038] yes=23,no=24,missing=23
				23:[f3<56.3416176] yes=47,no=48,missing=47
					47:leaf=0.0579535961
					48:leaf=-0.0321975909
				24:[f16<2.38866878] yes=49,no=50,missing=49
					49:leaf=0.0118051171
					50:leaf=-0.04938839
			12:[f18<2.32471848] yes=25,no=26,missing=25
				25:[f27<0.0427973643] yes=51,no=52,missing=51
					51:leaf=-0.0563818403
					52:leaf=0.0327725224
				26:[f16<42.9549332] yes=53,no=54,missing=53
					53:leaf=-0.00178585597
					54:leaf=-0.0479559898
		6:[f2<19.5618553] yes=13,no=14,missing=13
			13:[f14<43.9740677] yes=27,no=28,missing=27
				27:[f1<29.209343] yes=55,no=56,missing=55
					55:leaf=-0.0263649058
					56:leaf=-0.0525380149
				28:[f3<0.749123633] yes=57,no=58,missing=57
					57:leaf=0.0205835924
					58:leaf=-0.0562523864
			14:[f5<0.105273843] yes=29,no=30,missing=29
				29:leaf=-0.0575578101
				30:[f11<5.37959862] yes=59,no=60,missing=59
					59:leaf=-0.0448768996
					60:leaf=0.0197733324
booster[24]:
0:[f0<36.3093185] yes=1,no=2,missing=1
	1:[f14<114.649826] yes=3,no=4,missing=3
		3:[f0<22.3238525] yes=7,no=8,missing=7
			7:[f16<59.7231522] yes=15,no=16,missing=15
				15:[f3<81.1715622] yes=31,no=32,missing=31
					31:leaf=-0.0155832162
					32:leaf=0.0190416202
				16:[f14<25.2491035] yes=33,no=34,missing=33
					33:leaf=-0.0174024161
					34:leaf=0.0275871214
			8:[f16<69.8854141] yes=17,no=18,missing=17
				17:[f14<29.9611053] yes=35,no=36,missing=35
					35:leaf=-0.0207368489
					36:leaf=0.0299222972
				18:[f14<74.4980621] yes=37,no=38,missing=37
					37:leaf=0.0742043406
					38:leaf=0.0345364958
		4:[f14<141.912384] yes=9,no=10,missing=9
			9:[f3<82.7323456] yes=19,no=20,missing=19
				19:[f0<19.6918888] yes=39,no=40,missing=39
					39:leaf=0.0356940739
					40:leaf=0.0708914921
				20:[f20<149.946594] yes=41,no=42,missing=41
					41:leaf=0.0834473819
					42:leaf=0.134258658
			10:[f24<0.00502779521] yes=21,no=22,missing=21
				21:[f0<14.7294703] yes=43,no=44,missing=43
					43:leaf=0.0772871599
					44:leaf=0.102150135
				22:[f24<0.0399641544] yes=45,no=46,missing=45
					45:leaf=0.132535249
					46:leaf=0.0953862891
	2:[f0<52.4796524] yes=5,no=6,missing=5
		5:[f14<108.599487] yes=11,no=12,missing=11
			11:[f16<49.55439] yes=23,no=24,missing=23
				23:[f14<36.6111603] yes=47,no=48,missing=47
					47:leaf=-0.00150745583
					48:leaf=0.0613480285
				24:[f14<30.3898983] yes=49,no=50,missing=49
					49:leaf=0.0480555333
					50:leaf=0.0963821188
			12:[f14<158.626221] yes=25,no=26,missing=25
				25:[f3<95.2855988] yes=51,no=52,missing=51
					51:leaf=0.101851024
					52:leaf=0.121424131
				26:[f3<113.302132] yes=53,no=54,missing=53
					53:leaf=0.121290781
					54:leaf=0.129132584
		6:[f0<68.9886398] yes=13,no=14,missing=13
			13:[f14<107.405579] yes=27,no=28,missing=27
				27:[f16<46.3832245] yes=55,no=56,missing=55
					55:leaf=0.0913896114
					56:leaf=0.11599078
				28:[f14<124.199158] yes=57,no=58,missing=57
					57:leaf=0.119129382
					58:leaf=0.129367396
			14:[f0<85.0181274] yes=29,no=30,missing=29
				29:[f2<17.365406] yes=59,no=60,missing=59
					59:leaf=0.111180387
					60:leaf=0.128963456
				30:[f14<53.9747734] yes=61,no=62,missing=61
					61:leaf=0.129668161
					62:leaf=0.132447317
booster[25]:
0:[f0<49.6066589] yes=1,no=2,missing=1
	1:[f14<132.818817] yes=3,no=4,missing=3
		3:[f20<87.1906662] yes=7,no=8,missing=7
			7:[f0<34.5097084] yes=15,no=16,missing=15
				15:[f19<1.60503709] yes=31,no=32,missing=31
					31:leaf=0.108815067
					32:leaf=0.0856280997
				16:[f7<45.9187698] yes=33,no=34,missing=33
					33:leaf=0.0807911083
					34:leaf=0.049213212
			8:[f14<65.3564529] yes=17,no=18,missing=17
				17:[f1<116.947998] yes=35,no=36,missing=35
					35:leaf=0.00123606343
					36:leaf=0.0630405396
				18:[f14<110.364609] yes=37,no=38,missing=37
					37:leaf=0.0751245022
					38:leaf=0.0173354037
		4:[f0<29.6534195] yes=9,no=10,missing=9
			9:[f3<99.9292603] yes=19,no=20,missing=19
				19:[f14<231.734283] yes=39,no=40,missing=39
					39:leaf=0.0605849437
					40:leaf=0.0223366749
				20:[f20<80.8771515] yes=41,no=42,missing=41
					41:leaf=0.0215316415
					42:leaf=-0.0147896055
			10:[f14<193.91925] yes=21,no=22,missing=21
				21:[f3<91.9892807] yes=43,no=44,missing=43
					43:leaf=0.0161679368
					44:leaf=-0.0143929794
				22:[f20<54.1483231] yes=45,no=46,missing=45
					45:leaf=-0.01404001
					46:leaf=-0.0336066596
	2:[f0<69.6405945] yes=5,no=6,missing=5
		5:[f14<120.222366] yes=11,no=12,missing=11
			11:[f8<83.8479233] yes=23,no=24,missing=23
				23:[f3<53.7650948] yes=47,no=48,missing=47
					47:leaf=0.0759555101
					48:leaf=0.00272992137
				24:[f14<74.9857788] yes=49,no=50,missing=49
					49:leaf=-0.0182591435
					50:leaf=0.0183183756
			12:[f14<146.817276] yes=25,no=26,missing=25
				25:[f5<-0.00765915914] yes=51,no=52,missing=51
					51:leaf=0.0227445159
					52:leaf=-0.0307122525
				26:[f0<53.753746] yes=53,no=54,missing=53
					53:leaf=-0.0341951773
					54:leaf=-0.0460298881
		6:[f0<88.70961] yes=13,no=14,missing=13
			13:[f14<109.800812] yes=27,no=28,missing=27
				27:[f8<81.8824158] yes=55,no=56,missing=55
					55:leaf=-0.0147412373
					56:leaf=-0.0418717302
				28:[f4<-0.0532057658] yes=57,no=58,missing=57
					57:leaf=0.0828569159
					58:leaf=-0.051578071
			14:[f8<38.4917908] yes=29,no=30,missing=29
				29:[f14<42.3177299] yes=59,no=60,missing=59
					59:leaf=-0.01149897
					60:leaf=-0.0536052659
				30:[f0<102.352386] yes=61,no=62,missing=61
					61:leaf=-0.0538164079
					62:leaf=-0.056553442
booster[26]:
0:[f21<30.0948753] yes=1,no=2,missing=1
	1:[f24<0.049957905] yes=3,no=4,missing=3
		3:[f0<58.6844101] yes=7,no=8,missing=7
			7:[f11<6.28286076] yes=15,no=16,missing=15
				15:[f10<0.0165965706] yes=29,no=30,missing=29
					29:leaf=-0.0208107065
					30:leaf=-0.0567002892
				16:leaf=0.0120206922
			8:[f0<58.6859665] yes=17,no=18,missing=17
				17:leaf=0.0203485154
				18:[f7<0.0150679648] yes=31,no=32,missing=31
					31:leaf=-0.00635619555
					32:leaf=-0.055521626
		4:[f0<56.1455002] yes=9,no=10,missing=9
			9:[f24<0.0499796197] yes=19,no=20,missing=19
				19:leaf=0.0177593101
				20:[f15<-46.7535629] yes=33,no=34,missing=33
					33:leaf=-0.00119320955
					34:leaf=-0.0558602288
			10:[f0<56.5149002] yes=21,no=22,missing=21
				21:[f16<32.1485405] yes=35,no=36,missing=35
					35:leaf=0.0942408368
					36:leaf=-0.0295308735
				22:[f18<0.427251935] yes=37,no=38,missing=37
					37:leaf=0.026452342
					38:leaf=-0.0522252209
	2:[f1<202.001495] yes=5,no=6,missing=5
		5:[f0<57.1828804] yes=11,no=12,missing=11
			11:[f12<3.07205558] yes=23,no=24,missing=23
				23:[f3<1.48218703] yes=39,no=40,missing=39
					39:leaf=0.0149242356
					40:leaf=-0.0541868769
				24:[f2<31.2832794] yes=41,no=42,missing=41
					41:leaf=0.0701101646
					42:leaf=-0.0403260849
			12:[f20<147.253799] yes=25,no=26,missing=25
				25:[f1<25.1054993] yes=43,no=44,missing=43
					43:leaf=0.0283442084
					44:leaf=-0.0493538789
				26:[f21<30.1812477] yes=45,no=46,missing=45
					45:leaf=-0.00597000029
					46:leaf=-0.0527937189
		6:[f5<-0.0339780003] yes=13,no=14,missing=13
			13:leaf=0.026280839
			14:[f14<15.0040493] yes=27,no=28,missing=27
				27:[f5<0.00129817822] yes=47,no=48,missing=47
					47:leaf=-0.0424506143
					48:leaf=0.0180468429
				28:[f10<0.0896440744] yes=49,no=50,missing=49
					49:leaf=-0.0265016705
					50:leaf=-0.0557334088
booster[27]:
0:[f25<0.700535893] yes=1,no=2,missing=1
	1:leaf=-0.057114955
	2:leaf=0.00305306027
booster[28]:
0:[f0<56.3493195] yes=1,no=2,missing=1
	1:leaf=-0.0571364835
	2:[f0<56.3512344] yes=3,no=4,missing=3
		3:leaf=0.0142047359
		4:[f24<0.19101873] yes=5,no=6,missing=5
			5:leaf=-0.056565471
			6:[f14<13.190114] yes=7,no=8,missing=7
				7:leaf=0.0235630274
				8:[f7<0.314386249] yes=9,no=10,missing=9
					9:leaf=0.017477626
					10:leaf=-0.054425329
booster[29]:
0:[f14<36.8023453] yes=1,no=2,missing=1
	1:[f18<2.0999217] yes=3,no=4,missing=3
		3:[f16<39.3935852] yes=7,no=8,missing=7
			7:[f3<28.4468536] yes=15,no=16,missing=15
				15:[f10<2.00569582] yes=31,no=32,missing=31
					31:leaf=0.10342592
					32:leaf=-0.0112164132
				16:[f21<30.1873169] yes=33,no=34,missing=33
					33:leaf=-0.0248256419
					34:leaf=0.0770962462
			8:[f17<1.5] yes=17,no=18,missing=17
				17:[f16<44.3206253] yes=35,no=36,missing=35
					35:leaf=-0.0350382477
					36:leaf=-0.0566417277
				18:[f0<71.352066] yes=37,no=38,missing=37
					37:leaf=0.0405124277
					38:leaf=-0.0468295738
		4:[f0<70.2783966] yes=9,no=10,missing=9
			9:[f16<54.0296402] yes=19,no=20,missing=19
				19:[f10<1.98861217] yes=39,no=40,missing=39
					39:leaf=0.129687041
					40:leaf=0.036651969
				20:[f20<81.8094482] yes=41,no=42,missing=41
					41:leaf=-0.0374562331
					42:leaf=0.0868548751
			10:[f0<98.3328857] yes=21,no=22,missing=21
				21:[f10<1.46168184] yes=43,no=44,missing=43
					43:leaf=0.0319098793
					44:leaf=-0.0336359851
				22:[f5<0.0212891214] yes=45,no=46,missing=45
					45:leaf=-0.0516336076
					46:leaf=0.0335074812
	2:[f14<41.8612785] yes=5,no=6,missing=5
		5:[f16<22.0310631] yes=11,no=12,missing=11
			11:[f10<2.38722038] yes=23,no=24,missing=23
				23:[f18<2.45161819] yes=47,no=48,missing=47
					47:leaf=0.0177311953
					48:leaf=0.0985451713
				24:[f16<2.38866878] yes=49,no=50,missing=49
					49:leaf=0.0119405873
					50:leaf=-0.0493119471
			12:[f18<2.32471848] yes=25,no=26,missing=25
				25:[f27<0.0427973643] yes=51,no=52,missing=51
					51:leaf=-0.055508323
					52:leaf=0.0317407809
				26:[f16<42.9549332] yes=53,no=54,missing=53
					53:leaf=0.00119620247
					54:leaf=-0.0469452254
		6:[f2<19.5625381] yes=13,no=14,missing=13
			13:[f14<43.0586815] yes=27,no=28,missing=27
				27:[f1<28.7802696] yes=55,no=56,missing=55
					55:leaf=-0.0125460327
					56:leaf=-0.0520112999
				28:[f3<0.749123633] yes=57,no=58,missing=57
					57:leaf=0.0204662811
					58:leaf=-0.0554712489
			14:[f5<0.105273843] yes=29,no=30,missing=29
				29:leaf=-0.0569341779
				30:[f10<1.1870811] yes=59,no=60,missing=59
					59:leaf=-0.0441400073
					60:leaf=0.0206744131
booster[30]:
0:[f0<42.172924] yes=1,no=2,missing=1
	1:[f14<113.377037] yes=3,no=4,missing=3
		3:[f0<28.7155037] yes=7,no=8,missing=7
			7:[f16<59.6434402] yes=15,no=16,missing=15
				15:[f14<28.2494392] yes=31,no=32,missing=31
					31:leaf=-0.039613381
					32:leaf=-0.000430492539
				16:[f14<24.1810875] yes=33,no=34,missing=33
					33:leaf=-0.0131390765
					34:leaf=0.0313527398
			8:[f16<42.6520424] yes=17,no=18,missing=17
				17:[f3<57.4363174] yes=35,no=36,missing=35
					35:leaf=0.0112884967
					36:leaf=0.0630888343
				18:[f14<24.2847519] yes=37,no=38,missing=37
					37:leaf=0.00814897567
					38:leaf=0.0693073198
		4:[f14<147.900574] yes=9,no=10,missing=9
			9:[f0<23.9686127] yes=19,no=20,missing=19
				19:[f20<130.442322] yes=39,no=40,missing=39
					39:leaf=0.0465001389
					40:leaf=0.11008288
				20:[f3<58.7735672] yes=41,no=42,missing=41
					41:leaf=0.0696418211
					42:leaf=0.0931599662
			10:[f0<23.52701] yes=21,no=22,missing=21
				21:[f14<239.579178] yes=43,no=44,missing=43
					43:leaf=0.0768871456
					44:leaf=0.0954979286
				22:[f24<-0.997631133] yes=45,no=46,missing=45
					45:leaf=0.0978178158
					46:leaf=0.109664857
	2:[f0<62.2957458] yes=5,no=6,missing=5
		5:[f14<108.64444] yes=11,no=12,missing=11
			11:[f7<47.7475815] yes=23,no=24,missing=23
				23:[f3<57.6067123] yes=47,no=48,missing=47
					47:leaf=0.0394556932
					48:leaf=0.0767380968
				24:[f14<74.6520386] yes=49,no=50,missing=49
					49:leaf=0.101245306
					50:leaf=0.0694696754
			12:[f14<126.364853] yes=25,no=26,missing=25
				25:[f3<102.220474] yes=51,no=52,missing=51
					51:leaf=0.091614604
					52:leaf=0.113244608
				26:[f3<100.53994] yes=53,no=54,missing=53
					53:leaf=0.109543525
					54:leaf=0.115310982
		6:[f0<80.474411] yes=13,no=14,missing=13
			13:[f2<17.5752201] yes=27,no=28,missing=27
				27:[f14<34.3891678] yes=55,no=56,missing=55
					55:leaf=0.0639660358
					56:leaf=0.102122389
				28:[f14<129.10025] yes=57,no=58,missing=57
					57:leaf=0.109509267
					58:leaf=0.116680562
			14:[f14<109.139961] yes=29,no=30,missing=29
				29:[f7<41.7510338] yes=59,no=60,missing=59
					59:leaf=0.111348741
					60:leaf=0.117073968
				30:[f27<0.375770986] yes=61,no=62,missing=61
					61:leaf=0.118304111
					62:leaf=0.030616764
booster[31]:
0:[f0<50.7877693] yes=1,no=2,missing=1
	1:[f14<119.256012] yes=3,no=4,missing=3
		3:[f20<110.441559] yes=7,no=8,missing=7
			7:[f0<28.7155037] yes=15,no=16,missing=15
				15:[f14<68.917366] yes=31,no=32,missing=31
					31:leaf=0.0845945179
					32:leaf=0.106981434
				16:[f14<71.2148743] yes=33,no=34,missing=33
					33:leaf=0.0501270853
					34:leaf=0.0829035565
			8:[f14<72.7771606] yes=17,no=18,missing=17
				17:[f1<115.65683] yes=35,no=36,missing=35
					35:leaf=-0.00600622641
					36:leaf=0.047366865
				18:[f0<28.8938293] yes=37,no=38,missing=37
					37:leaf=0.0770985112
					38:leaf=0.0312590115
		4:[f0<29.6094761] yes=9,no=10,missing=9
			9:[f14<181.786865] yes=19,no=20,missing=19
				19:[f20<81.0670013] yes=39,no=40,missing=39
					39:leaf=0.0608521514
					40:leaf=0.0132357171
				20:[f20<115.137985] yes=41,no=42,missing=41
					41:leaf=0.0248087104
					42:leaf=-0.0157791227
			10:[f14<160.473877] yes=21,no=22,missing=21
				21:[f3<100.503784] yes=43,no=44,missing=43
					43:leaf=0.0251186788
					44:leaf=-0.0082903998
				22:[f0<39.4798889] yes=45,no=46,missing=45
					45:leaf=-0.00531911338
					46:leaf=-0.0248965528
	2:[f0<69.6405945] yes=5,no=6,missing=5
		5:[f14<124.199158] yes=11,no=12,missing=11
			11:[f3<100.627541] yes=23,no=24,missing=23
				23:[f8<92.9716873] yes=47,no=48,missing=47
					47:leaf=0.0383264683
					48:leaf=-0.00436723744
				24:[f16<365.628906] yes=49,no=50,missing=49
					49:leaf=-0.0185578447
					50:leaf=0.104581945
			12:[f0<58.7525101] yes=25,no=26,missing=25
				25:[f3<114.459427] yes=51,no=52,missing=51
					51:leaf=-0.0300959349
					52:leaf=-0.0431605093
				26:[f3<18.1920319] yes=53,no=54,missing=53
					53:leaf=-0.0210804325
					54:leaf=-0.0459965989
		6:[f0<88.70961] yes=13,no=14,missing=13
			13:[f14<109.800812] yes=27,no=28,missing=27
				27:[f8<81.8824158] yes=55,no=56,missing=55
					55:leaf=-0.0132206967
					56:leaf=-0.0405733027
				28:[f4<-0.0532057658] yes=57,no=58,missing=57
					57:leaf=0.0785261765
					58:leaf=-0.0506739803
			14:[f8<38.4917908] yes=29,no=30,missing=29
				29:[f14<42.3177299] yes=59,no=60,missing=59
					59:leaf=-0.0099627031
					60:leaf=-0.0527932532
				30:[f0<102.352386] yes=61,no=62,missing=61
					61:leaf=-0.0530235954
					62:leaf=-0.0559275746
booster[32]:
0:[f20<37.7490234] yes=1,no=2,missing=1
	1:[f0<58.6844101] yes=3,no=4,missing=3
		3:[f10<0.0165965706] yes=7,no=8,missing=7
			7:[f6<86.2429962] yes=15,no=16,missing=15
				15:leaf=-0.0325694494
				16:leaf=0.0206309445
			8:[f21<36.4599037] yes=17,no=18,missing=17
				17:[f25<0.167537987] yes=27,no=28,missing=27
					27:leaf=-0.0563189872
					28:leaf=-0.0314531326
				18:[f13<1.86811471] yes=29,no=30,missing=29
					29:leaf=-0.0339550637
					30:leaf=0.0142905219
		4:[f0<58.6878281] yes=9,no=10,missing=9
			9:leaf=0.019416647
			10:[f24<0.365017474] yes=19,no=20,missing=19
				19:[f7<0.0150679648] yes=31,no=32,missing=31
					31:leaf=-0.00129360368
					32:leaf=-0.0549187176
				20:[f10<2.58999777] yes=33,no=34,missing=33
					33:leaf=-0.0511846617
					34:leaf=0.042065464
	2:[f0<55.8635635] yes=5,no=6,missing=5
		5:[f11<6.28269386] yes=11,no=12,missing=11
			11:[f3<0.920428634] yes=21,no=22,missing=21
				21:leaf=0.00468557514
				22:[f12<3.07205558] yes=35,no=36,missing=35
					35:leaf=-0.0546406098
					36:leaf=-0.0257827789
			12:leaf=0.0183982197
		6:[f1<202.007538] yes=13,no=14,missing=13
			13:[f25<0.0329570137] yes=23,no=24,missing=23
				23:[f24<0.142193079] yes=37,no=38,missing=37
					37:leaf=-0.0526864715
					38:leaf=-0.0465267114
				24:[f0<55.9048767] yes=39,no=40,missing=39
					39:leaf=0.0465724915
					40:leaf=-0.0485334098
			14:[f9<6.27715206] yes=25,no=26,missing=25
				25:[f18<0.413655341] yes=41,no=42,missing=41
					41:leaf=0.0126752248
					42:leaf=-0.0549926832
				26:[f1<246.236084] yes=43,no=44,missing=43
					43:leaf=0.0671892241
					44:leaf=-0.0366177037
booster[33]:
0:[f25<0.700535893] yes=1,no=2,missing=1
	1:[f4<0.0792724639] yes=3,no=4,missing=3
		3:leaf=-0.0565496348
		4:[f9<5.58679867] yes=5,no=6,missing=5
			5:leaf=-0.0478617959
			6:leaf=0.0204761606
	2:leaf=0.00392222637
booster[34]:
0:[f0<56.3480797] yes=1,no=2,missing=1
	1:leaf=-0.0565903261
	2:[f0<56.3496246] yes=3,no=4,missing=3
		3:leaf=0.00523831649
		4:[f24<0.190968916] yes=5,no=6,missing=5
			5:leaf=-0.0559463799
			6:[f14<13.190114] yes=7,no=8,missing=7
				7:leaf=0.023927927
				8:[f18<0.488764107] yes=9,no=10,missing=9
					9:leaf=0.0187495556
					10:leaf=-0.0536804907
booster[35]:
0:[f14<36.8023453] yes=1,no=2,missing=1
	1:[f18<1.96558654] yes=3,no=4,missing=3
		3:[f16<39.3935852] yes=7,no=8,missing=7
			7:[f3<28.4468536] yes=15,no=16,missing=15
				15:[f10<2.24066067] yes=31,no=32,missing=31
					31:leaf=0.0908697993
					32:leaf=-0.0468548946
				16:[f10<1.68521035] yes=33,no=34,missing=33
					33:leaf=0.0172466915
					34:leaf=-0.0430838279
			8:[f25<0.00756043196] yes=17,no=18,missing=17
				17:[f16<44.3206253] yes=35,no=36,missing=35
					35:leaf=-0.0334959775
					36:leaf=-0.0556453876
				18:[f0<52.7112961] yes=37,no=38,missing=37
					37:leaf=0.0583947711
					38:leaf=-0.0378702246
		4:[f0<71.6172562] yes=9,no=10,missing=9
			9:[f16<84.9038696] yes=19,no=20,missing=19
				19:[f10<1.8514235] yes=39,no=40,missing=39
					39:leaf=0.102020793
					40:leaf=0.0245909523
				20:[f20<167.107483] yes=41,no=42,missing=41
					41:leaf=-0.046218399
					42:leaf=0.0751703233
			10:[f0<98.3197479] yes=21,no=22,missing=21
				21:[f16<43.2007904] yes=43,no=44,missing=43
					43:leaf=0.0741924569
					44:leaf=-0.0130231669
				22:[f10<0.208835185] yes=45,no=46,missing=45
					45:leaf=0.0176614281
					46:leaf=-0.0511832647
	2:[f14<41.8612785] yes=5,no=6,missing=5
		5:[f16<23.736536] yes=11,no=12,missing=11
			11:[f3<56.3416176] yes=23,no=24,missing=23
				23:[f10<2.33713675] yes=47,no=48,missing=47
					47:leaf=0.0530987494
					48:leaf=-0.034781035
				24:[f18<2.51392031] yes=49,no=50,missing=49
					49:leaf=-0.0543862768
					50:leaf=-0.00526106451
			12:[f18<2.32471848] yes=25,no=26,missing=25
				25:[f27<0.0427973643] yes=51,no=52,missing=51
					51:leaf=-0.0550562218
					52:leaf=0.0310070906
				26:[f0<41.3390503] yes=53,no=54,missing=53
					53:leaf=-0.00574917952
					54:leaf=-0.0485473387
		6:[f2<19.5593643] yes=13,no=14,missing=13
			13:[f14<43.9740677] yes=27,no=28,missing=27
				27:[f1<29.209343] yes=55,no=56,missing=55
					55:leaf=-0.0236691292
					56:leaf=-0.0508628562
				28:[f3<0.749123633] yes=57,no=58,missing=57
					57:leaf=0.0204273518
					58:leaf=-0.0549267791
			14:[f5<0.105273843] yes=29,no=30,missing=29
				29:[f19<7.58739853] yes=59,no=60,missing=59
					59:leaf=-0.0563568138
					60:leaf=-0.0345019139
				30:[f10<1.1870811] yes=61,no=62,missing=61
					61:leaf=-0.0432501622
					62:leaf=0.0203775913
booster[36]:
0:[f0<42.416214] yes=1,no=2,missing=1
	1:[f14<112.803864] yes=3,no=4,missing=3
		3:[f7<39.3784027] yes=7,no=8,missing=7
			7:[f3<101.322754] yes=15,no=16,missing=15
				15:[f14<28.145443] yes=31,no=32,missing=31
					31:leaf=-0.0297183543
					32:leaf=0.00452814624
				16:[f14<32.5185242] yes=33,no=34,missing=33
					33:leaf=0.00127171027
					34:leaf=0.047211986
			8:[f14<73.2966843] yes=17,no=18,missing=17
				17:[f14<33.5623817] yes=35,no=36,missing=35
					35:leaf=0.0222395193
					36:leaf=0.0768082216
				18:[f14<105.325294] yes=37,no=38,missing=37
					37:leaf=0.0114742508
					38:leaf=0.0487627909
		4:[f14<141.912384] yes=9,no=10,missing=9
			9:[f0<19.7719879] yes=19,no=20,missing=19
				19:[f3<91.8951569] yes=39,no=40,missing=39
					39:leaf=0.0285346005
					40:leaf=0.0651594922
				20:[f24<-0.996867836] yes=41,no=42,missing=41
					41:leaf=0.062690638
					42:leaf=0.0859100372
			10:[f0<23.5285721] yes=21,no=22,missing=21
				21:[f3<146.782181] yes=43,no=44,missing=43
					43:leaf=0.0707870349
					44:leaf=0.0928145945
				22:[f24<-0.997631133] yes=45,no=46,missing=45
					45:leaf=0.0869902447
					46:leaf=0.0986927375
	2:[f0<62.2957458] yes=5,no=6,missing=5
		5:[f14<107.405792] yes=11,no=12,missing=11
			11:[f2<14.4384403] yes=23,no=24,missing=23
				23:[f14<33.9354172] yes=47,no=48,missing=47
					47:leaf=-0.00152164034
					48:leaf=0.0506034158
				24:[f14<74.6530151] yes=49,no=50,missing=49
					49:leaf=0.0858255252
					50:leaf=0.0524550043
			12:[f14<126.364853] yes=25,no=26,missing=25
				25:[f3<53.8997574] yes=51,no=52,missing=51
					51:leaf=0.0761618167
					52:leaf=0.0956512913
				26:[f3<100.53994] yes=53,no=54,missing=53
					53:leaf=0.0988030061
					54:leaf=0.104174174
		6:[f0<80.474411] yes=13,no=14,missing=13
			13:[f14<34.0636749] yes=27,no=28,missing=27
				27:[f18<2.51348639] yes=55,no=56,missing=55
					55:leaf=0.0932357833
					56:leaf=0.0556057394
				28:[f3<53.6270905] yes=57,no=58,missing=57
					57:leaf=0.0954296887
					58:leaf=0.10424196
			14:[f14<109.145309] yes=29,no=30,missing=29
				29:[f0<103.971024] yes=59,no=60,missing=59
					59:leaf=0.101642624
					60:leaf=0.106329374
				30:[f25<0.700535893] yes=61,no=62,missing=61
					61:leaf=0.107115127
					62:leaf=0.0276986696
booster[37]:
0:[f0<52.4907303] yes=1,no=2,missing=1
	1:[f14<141.262543] yes=3,no=4,missing=3
		3:[f0<35.7548065] yes=7,no=8,missing=7
			7:[f24<0.00564454449] yes=15,no=16,missing=15
				15:[f7<37.7030716] yes=31,no=32,missing=31
					31:leaf=0.0918837264
					32:leaf=0.0728210062
				16:[f24<0.0256511755] yes=33,no=34,missing=33
					33:leaf=0.00584977446
					34:leaf=0.0716005713
			8:[f20<80.5410233] yes=17,no=18,missing=17
				17:[f7<45.6188583] yes=35,no=36,missing=35
					35:leaf=0.0639951676
					36:leaf=0.0356038921
				18:[f24<0.0518804416] yes=37,no=38,missing=37
					37:leaf=-0.0108118616
					38:leaf=0.0246366467
		4:[f0<31.0026703] yes=9,no=10,missing=9
			9:[f3<99.506546] yes=19,no=20,missing=19
				19:[f14<246.023499] yes=39,no=40,missing=39
					39:leaf=0.0454517715
					40:leaf=0.0171046983
				20:[f20<174.108932] yes=41,no=42,missing=41
					41:leaf=0.0136575131
					42:leaf=-0.028756801
			10:[f0<41.6561317] yes=21,no=22,missing=21
				21:[f20<54.1483231] yes=43,no=44,missing=43
					43:leaf=0.00304697803
					44:leaf=-0.0226204004
				22:[f3<133.703033] yes=45,no=46,missing=45
					45:leaf=-0.0186800435
					46:leaf=-0.0359348916
	2:[f0<72.199173] yes=5,no=6,missing=5
		5:[f14<124.199158] yes=11,no=12,missing=11
			11:[f3<100.627541] yes=23,no=24,missing=23
				23:[f8<92.9716873] yes=47,no=48,missing=47
					47:leaf=0.0318724476
					48:leaf=-0.00819913018
				24:[f16<380.295288] yes=49,no=50,missing=49
					49:leaf=-0.02236351
					50:leaf=0.0911911577
			12:[f14<153.375717] yes=25,no=26,missing=25
				25:[f3<18.2038822] yes=51,no=52,missing=51
					51:leaf=0.0111690061
					52:leaf=-0.0347755142
				26:[f2<228.796143] yes=53,no=54,missing=53
					53:leaf=-0.0449049324
					54:leaf=-0.0165696591
		6:[f0<88.70961] yes=13,no=14,missing=13
			13:[f14<121.077049] yes=27,no=28,missing=27
				27:[f8<78.8131256] yes=55,no=56,missing=55
					55:leaf=-0.0153052704
					56:leaf=-0.0415883511
				28:[f14<1502.36096] yes=57,no=58,missing=57
					57:leaf=-0.0517248288
					58:leaf=0.0613896549
			14:[f8<38.4917908] yes=29,no=30,missing=29
				29:[f14<42.3177299] yes=59,no=60,missing=59
					59:leaf=-0.0084554404
					60:leaf=-0.0519991629
				30:[f0<102.352386] yes=61,no=62,missing=61
					61:leaf=-0.0522488169
					62:leaf=-0.0553386882
booster[38]:
0:[f20<37.7490234] yes=1,no=2,missing=1
	1:[f0<58.6825333] yes=3,no=4,missing=3
		3:[f10<0.0165965706] yes=7,no=8,missing=7
			7:[f4<0.000972346519] yes=15,no=16,missing=15
				15:leaf=0.0206025783
				16:leaf=-0.0318512544
			8:[f21<36.4599037] yes=17,no=18,missing=17
				17:[f25<0.167537987] yes=27,no=28,missing=27
					27:leaf=-0.0557973571
					28:leaf=-0.0302481409
				18:[f7<43.3096924] yes=29,no=30,missing=29
					29:leaf=-0.033375632
					30:leaf=0.0151844351
		4:[f0<58.6865921] yes=9,no=10,missing=9
			9:leaf=0.013600911
			10:[f25<0.0517804809] yes=19,no=20,missing=19
				19:[f7<0.0150679648] yes=31,no=32,missing=31
					31:leaf=-0.000372718903
					32:leaf=-0.0542959534
				20:[f3<161.16069] yes=33,no=34,missing=33
					33:leaf=-0.0544287674
					34:leaf=-0.00958952215
	2:[f0<55.8635635] yes=5,no=6,missing=5
		5:[f11<6.28269386] yes=11,no=12,missing=11
			11:[f3<0.920428634] yes=21,no=22,missing=21
				21:leaf=0.00488253264
				22:[f12<3.07205558] yes=35,no=36,missing=35
					35:leaf=-0.0540248454
					36:leaf=-0.0244753081
			12:leaf=0.0183153097
		6:[f1<202.007538] yes=13,no=14,missing=13
			13:[f25<0.0329570137] yes=23,no=24,missing=23
				23:[f24<0.142193079] yes=37,no=38,missing=37
					37:leaf=-0.0519038029
					38:leaf=-0.045422826
				24:[f0<55.9048767] yes=39,no=40,missing=39
					39:leaf=0.0453436188
					40:leaf=-0.0475251935
			14:[f5<-0.0339780003] yes=25,no=26,missing=25
				25:[f25<0.0278244503] yes=41,no=42,missing=41
					41:leaf=-0.0355743691
					42:leaf=0.0662689731
				26:[f18<0.413655341] yes=43,no=44,missing=43
					43:leaf=0.0133575303
					44:leaf=-0.0543423966
booster[39]:
0:[f25<0.700535893] yes=1,no=2,missing=1
	1:[f4<0.0792724639] yes=3,no=4,missing=3
		3:leaf=-0.0560233779
		4:[f3<100.553726] yes=5,no=6,missing=5
			5:leaf=-0.0471763834
			6:leaf=0.0217031222
	2:leaf=0.00481573585
booster[40]:
0:[f0<56.3493195] yes=1,no=2,missing=1
	1:leaf=-0.0560829155
	2:[f0<56.3512344] yes=3,no=4,missing=3
		3:leaf=0.0168589745
		4:[f24<0.19101873] yes=5,no=6,missing=5
			5:leaf=-0.0553655215
			6:[f14<13.190114] yes=7,no=8,missing=7
				7:leaf=0.0244500376
				8:[f24<0.19115828] yes=9,no=10,missing=9
					9:leaf=0.0207962152
					10:leaf=-0.0529566109
booster[41]:
0:[f14<36.8023453] yes=1,no=2,missing=1
	1:[f18<1.9593358] yes=3,no=4,missing=3
		3:[f16<39.3935852] yes=7,no=8,missing=7
			7:[f3<33.1929398] yes=15,no=16,missing=15
				15:[f10<2.00569582] yes=31,no=32,missing=31
					31:leaf=0.0813786387
					32:leaf=-0.0230793357
				16:[f21<31.6897659] yes=33,no=34,missing=33
					33:leaf=-0.032422632
					34:leaf=0.0576588027
			8:[f17<1.5] yes=17,no=18,missing=17
				17:[f3<30.927187] yes=35,no=36,missing=35
					35:leaf=-0.0316911601
					36:leaf=-0.0554914139
				18:[f0<71.0016403] yes=37,no=38,missing=37
					37:leaf=0.0295566972
					38:leaf=-0.0472565107
		4:[f0<82.7568207] yes=9,no=10,missing=9
			9:[f16<64.533371] yes=19,no=20,missing=19
				19:[f10<2.00170398] yes=39,no=40,missing=39
					39:leaf=0.0976668149
					40:leaf=0.0196554773
				20:[f20<127.854317] yes=41,no=42,missing=41
					41:leaf=-0.0325037353
					42:leaf=0.0740379393
			10:[f0<98.3197479] yes=21,no=22,missing=21
				21:[f10<1.36129761] yes=43,no=44,missing=43
					43:leaf=0.0215693843
					44:leaf=-0.0395657383
				22:[f10<0.208835185] yes=45,no=46,missing=45
					45:leaf=0.0182535909
					46:leaf=-0.0503101237
	2:[f14<41.8612785] yes=5,no=6,missing=5
		5:[f16<23.736536] yes=11,no=12,missing=11
			11:[f3<56.3416176] yes=23,no=24,missing=23
				23:[f24<0.00668262132] yes=47,no=48,missing=47
					47:leaf=0.0163400732
					48:leaf=0.0987982601
				24:[f18<2.51392031] yes=49,no=50,missing=49
					49:leaf=-0.0536440127
					50:leaf=-0.00408544438
			12:[f18<2.32471848] yes=25,no=26,missing=25
				25:[f26<0.0353904255] yes=51,no=52,missing=51
					51:leaf=-0.0547126494
					52:leaf=0.00140163524
				26:[f0<61.5645752] yes=53,no=54,missing=53
					53:leaf=-0.0130095035
					54:leaf=-0.052120436
		6:[f2<19.5598412] yes=13,no=14,missing=13
			13:[f14<43.9740677] yes=27,no=28,missing=27
				27:[f1<29.209343] yes=55,no=56,missing=55
					55:leaf=-0.0224448498
					56:leaf=-0.0500781052
				28:[f3<5.53222561] yes=57,no=58,missing=57
					57:leaf=-0.0267485119
					58:leaf=-0.0543715172
			14:[f5<0.105273843] yes=29,no=30,missing=29
				29:[f19<7.58739853] yes=59,no=60,missing=59
					59:leaf=-0.0558148697
					60:leaf=-0.0333205722
				30:[f10<1.1870811] yes=61,no=62,missing=61
					61:leaf=-0.0423880294
					62:leaf=0.0202276539
booster[42]:
0:[f0<43.8654251] yes=1,no=2,missing=1
	1:[f14<110.715668] yes=3,no=4,missing=3
		3:[f0<23.7701473] yes=7,no=8,missing=7
			7:[f16<52.3514557] yes=15,no=16,missing=15
				15:[f10<2.37915182] yes=31,no=32,missing=31
					31:leaf=-0.0169480201
					32:leaf=0.00796456821
				16:[f14<25.2491035] yes=33,no=34,missing=33
					33:leaf=-0.0179790314
					34:leaf=0.0221179705
			8:[f16<51.8802986] yes=17,no=18,missing=17
				17:[f3<57.4764175] yes=35,no=36,missing=35
					35:leaf=0.00952274445
					36:leaf=0.0465311669
				18:[f14<21.5248756] yes=37,no=38,missing=37
					37:leaf=0.000169920197
					38:leaf=0.056034375
		4:[f14<171.415588] yes=9,no=10,missing=9
			9:[f0<19.9199867] yes=19,no=20,missing=19
				19:[f20<45.6520844] yes=39,no=40,missing=39
					39:leaf=0.0327772461
					40:leaf=0.067025058
				20:[f24<0.00527416356] yes=41,no=42,missing=41
					41:leaf=0.0619257577
					42:leaf=0.0811920241
			10:[f0<23.5048237] yes=21,no=22,missing=21
				21:[f20<115.382324] yes=43,no=44,missing=43
					43:leaf=0.0691189021
					44:leaf=0.0927809626
				22:[f20<53.9701233] yes=45,no=46,missing=45
					45:leaf=0.0827960745
					46:leaf=0.0929020345
	2:[f0<63.2269821] yes=5,no=6,missing=5
		5:[f14<109.526489] yes=11,no=12,missing=11
			11:[f2<14.7451792] yes=23,no=24,missing=23
				23:[f14<33.6621399] yes=47,no=48,missing=47
					47:leaf=-2.98794566e-05
					48:leaf=0.0473932028
				24:[f14<74.6714783] yes=49,no=50,missing=49
					49:leaf=0.0793837234
					50:leaf=0.0536551476
			12:[f3<46.9886894] yes=25,no=26,missing=25
				25:[f8<95.2281113] yes=51,no=52,missing=51
					51:leaf=0.0705069155
					52:leaf=0.0939311013
				26:[f10<2.21158028] yes=53,no=54,missing=53
					53:leaf=0.0913928896
					54:leaf=0.0982152298
		6:[f0<80.4753571] yes=13,no=14,missing=13
			13:[f14<107.291679] yes=27,no=28,missing=27
				27:[f8<100.255753] yes=55,no=56,missing=55
					55:leaf=0.0774905309
					56:leaf=0.0929215252
				28:[f3<1018.61914] yes=57,no=58,missing=57
					57:leaf=0.0962303653
					58:leaf=-0.0109776128
			14:[f14<107.96418] yes=29,no=30,missing=29
				29:[f8<36.4932899] yes=59,no=60,missing=59
					59:leaf=0.0905789956
					60:leaf=0.0969381258
				30:[f27<0.375770986] yes=61,no=62,missing=61
					61:leaf=0.0982647613
					62:leaf=0.0227660667
booster[43]:
0:[f0<53.3225632] yes=1,no=2,missing=1
	1:[f14<118.08783] yes=3,no=4,missing=3
		3:[f14<69.3863983] yes=7,no=8,missing=7
			7:[f7<46.540062] yes=15,no=16,missing=15
				15:[f24<0.00564454449] yes=31,no=32,missing=31
					31:leaf=0.0713917911
					32:leaf=0.0318849795
				16:[f14<20.0124664] yes=33,no=34,missing=33
					33:leaf=0.0701021627
					34:leaf=0.0136415875
			8:[f14<105.265091] yes=17,no=18,missing=17
				17:[f8<99.8335724] yes=35,no=36,missing=35
					35:leaf=0.0905829072
					36:leaf=0.0600713491
				18:[f0<27.395153] yes=37,no=38,missing=37
					37:leaf=0.0718490705
					38:leaf=0.0386255831
		4:[f0<34.0538406] yes=9,no=10,missing=9
			9:[f14<203.287445] yes=19,no=20,missing=19
				19:[f3<82.7279892] yes=39,no=40,missing=39
					39:leaf=0.052379597
					40:leaf=0.0252788905
				20:[f0<17.3651924] yes=41,no=42,missing=41
					41:leaf=0.0293922219
					42:leaf=0.00180597906
			10:[f14<157.778229] yes=21,no=22,missing=21
				21:[f3<101.377747] yes=43,no=44,missing=43
					43:leaf=0.0157592669
					44:leaf=-0.0146281468
				22:[f3<115.280228] yes=45,no=46,missing=45
					45:leaf=-0.0120477611
					46:leaf=-0.0294282231
	2:[f0<73.1475754] yes=5,no=6,missing=5
		5:[f14<124.199158] yes=11,no=12,missing=11
			11:[f3<69.4589844] yes=23,no=24,missing=23
				23:[f8<92.9390488] yes=47,no=48,missing=47
					47:leaf=0.042028632
					48:leaf=-0.010460021
				24:[f5<-0.00292795664] yes=49,no=50,missing=49
					49:leaf=0.00813570153
					50:leaf=-0.0196997803
			12:[f14<153.375717] yes=25,no=26,missing=25
				25:[f3<18.2038822] yes=51,no=52,missing=51
					51:leaf=0.0145736029
					52:leaf=-0.0342716686
				26:[f2<228.796143] yes=53,no=54,missing=53
					53:leaf=-0.0446028039
					54:leaf=-0.0156665426
		6:[f0<88.70961] yes=13,no=14,missing=13
			13:[f14<109.544823] yes=27,no=28,missing=27
				27:[f8<45.6468239] yes=55,no=56,missing=55
					55:leaf=-0.00136188779
					56:leaf=-0.0376214944
				28:[f4<-0.0532057658] yes=57,no=58,missing=57
					57:leaf=0.0684882775
					58:leaf=-0.0501747094
			14:[f8<38.4917908] yes=29,no=30,missing=29
				29:[f14<42.3177299] yes=59,no=60,missing=59
					59:leaf=-0.00683620526
					60:leaf=-0.0512160063
				30:[f0<102.352386] yes=61,no=62,missing=61
					61:leaf=-0.0514957085
					62:leaf=-0.0547823012
booster[44]:
0:[f21<30.0948753] yes=1,no=2,missing=1
	1:[f0<55.3869095] yes=3,no=4,missing=3
		3:[f11<6.28286076] yes=7,no=8,missing=7
			7:[f20<35.4957886] yes=15,no=16,missing=15
				15:[f10<0.0165965706] yes=27,no=28,missing=27
					27:leaf=-0.00839132443
					28:leaf=-0.0553727746
				16:[f20<35.5005188] yes=29,no=30,missing=29
					29:leaf=0.0171265658
					30:leaf=-0.0539899245
			8:leaf=0.0147647979
		4:[f24<0.043835111] yes=9,no=10,missing=9
			9:[f0<55.3896713] yes=17,no=18,missing=17
				17:leaf=0.0170826018
				18:[f7<0.0150679648] yes=31,no=32,missing=31
					31:leaf=-0.00309881591
					32:leaf=-0.053655006
			10:[f18<0.427251935] yes=19,no=20,missing=19
				19:leaf=0.0325378478
				20:[f5<-0.00601452356] yes=33,no=34,missing=33
					33:leaf=-0.0424171127
					34:leaf=-0.050216347
	2:[f1<202.001495] yes=5,no=6,missing=5
		5:[f0<57.1828804] yes=11,no=12,missing=11
			11:[f12<3.07205558] yes=21,no=22,missing=21
				21:[f3<1.48218703] yes=35,no=36,missing=35
					35:leaf=0.0185215734
					36:leaf=-0.0521841757
				22:[f20<103.222313] yes=37,no=38,missing=37
					37:leaf=0.070167169
					38:leaf=-0.0379194617
			12:[f20<147.253799] yes=23,no=24,missing=23
				23:[f1<25.1054993] yes=39,no=40,missing=39
					39:leaf=0.0362690911
					40:leaf=-0.0462151207
				24:[f21<30.1812477] yes=41,no=42,missing=41
					41:leaf=0.00125222618
					42:leaf=-0.0503185578
		6:[f5<-0.0339780003] yes=13,no=14,missing=13
			13:leaf=0.0291589182
			14:[f14<15.0040493] yes=25,no=26,missing=25
				25:[f3<148.073227] yes=43,no=44,missing=43
					43:leaf=0.0181997251
					44:leaf=-0.0388580263
				26:[f18<1.12342286] yes=45,no=46,missing=45
					45:leaf=-0.0491779558
					46:leaf=-0.054374855
booster[45]:
0:[f25<0.700535893] yes=1,no=2,missing=1
	1:[f4<0.0792724639] yes=3,no=4,missing=3
		3:leaf=-0.0555353165
		4:[f3<100.553726] yes=5,no=6,missing=5
			5:leaf=-0.0463878587
			6:leaf=0.0217683595
	2:leaf=0.00493462151
booster[46]:
0:[f0<56.3493195] yes=1,no=2,missing=1
	1:[f21<355.08252] yes=3,no=4,missing=3
		3:leaf=-0.0556167178
		4:[f15<59.7539787] yes=7,no=8,missing=7
			7:leaf=0.0182901789
			8:leaf=-0.0468268953
	2:[f0<56.3512344] yes=5,no=6,missing=5
		5:leaf=0.0168617871
		6:[f24<0.19101873] yes=9,no=10,missing=9
			9:leaf=-0.0548192151
			10:[f14<13.190114] yes=11,no=12,missing=11
				11:leaf=0.0249455627
				12:[f24<0.19115828] yes=13,no=14,missing=13
					13:leaf=0.0211556386
					14:leaf=-0.0522525869
booster[47]:
0:[f14<37.0197258] yes=1,no=2,missing=1
	1:[f18<1.9593358] yes=3,no=4,missing=3
		3:[f16<39.728611] yes=7,no=8,missing=7
			7:[f3<33.6925316] yes=15,no=16,missing=15
				15:[f10<1.84432065] yes=31,no=32,missing=31
					31:leaf=0.077860035
					32:leaf=-0.00697850017
				16:[f21<31.6897659] yes=33,no=34,missing=33
					33:leaf=-0.0325519294
					34:leaf=0.0578508265
			8:[f20<132.562073] yes=17,no=18,missing=17
				17:[f16<44.3643112] yes=35,no=36,missing=35
					35:leaf=-0.0286655482
					36:leaf=-0.0543487854
				18:[f0<56.8380241] yes=37,no=38,missing=37
					37:leaf=0.0665191635
					38:leaf=-0.0365655571
		4:[f0<82.7568207] yes=9,no=10,missing=9
			9:[f16<75.9937363] yes=19,no=20,missing=19
				19:[f20<45.0123444] yes=39,no=40,missing=39
					39:leaf=0.027530998
					40:leaf=0.0905186012
				20:[f20<153.044098] yes=41,no=42,missing=41
					41:leaf=-0.0409412794
					42:leaf=0.0643652678
			10:[f0<98.3197479] yes=21,no=22,missing=21
				21:[f10<1.36129761] yes=43,no=44,missing=43
					43:leaf=0.0215762127
					44:leaf=-0.0384295769
				22:[f5<0.0212891214] yes=45,no=46,missing=45
					45:leaf=-0.0493604057
					46:leaf=0.037446145
	2:[f14<41.9641266] yes=5,no=6,missing=5
		5:[f16<23.7222137] yes=11,no=12,missing=11
			11:[f10<2.38722038] yes=23,no=24,missing=23
				23:[f0<62.8812981] yes=47,no=48,missing=47
					47:leaf=0.044377815
					48:leaf=-0.0378985219
				24:[f18<2.51392031] yes=49,no=50,missing=49
					49:leaf=-0.0531723909
					50:leaf=-0.0143626798
			12:[f18<2.24475193] yes=25,no=26,missing=25
				25:[f27<0.0427973643] yes=51,no=52,missing=51
					51:leaf=-0.054215204
					52:leaf=0.0498893522
				26:[f16<45.5238571] yes=53,no=54,missing=53
					53:leaf=0.000247464777
					54:leaf=-0.0455672257
		6:[f2<19.5598412] yes=13,no=14,missing=13
			13:[f14<43.9740677] yes=27,no=28,missing=27
				27:[f1<29.209343] yes=55,no=56,missing=55
					55:leaf=-0.021409329
					56:leaf=-0.0493811518
				28:[f3<5.53222561] yes=57,no=58,missing=57
					57:leaf=-0.0254989099
					58:leaf=-0.053781718
			14:[f5<0.105273843] yes=29,no=30,missing=29
				29:[f19<7.58739853] yes=59,no=60,missing=59
					59:leaf=-0.0553148761
					60:leaf=-0.0321382694
				30:[f10<1.1870811] yes=61,no=62,missing=61
					61:leaf=-0.0415453278
					62:leaf=0.0202018041
booster[48]:
0:[f0<45.2349739] yes=1,no=2,missing=1
	1:[f14<113.377037] yes=3,no=4,missing=3
		3:[f0<28.7155037] yes=7,no=8,missing=7
			7:[f16<52.2282448] yes=15,no=16,missing=15
				15:[f10<2.41380262] yes=31,no=32,missing=31
					31:leaf=-0.0108261127
					32:leaf=0.0160545167
				16:[f14<24.1810875] yes=33,no=34,missing=33
					33:leaf=-0.0156916194
					34:leaf=0.0253756102
			8:[f16<42.6498413] yes=17,no=18,missing=17
				17:[f3<57.9352951] yes=35,no=36,missing=35
					35:leaf=0.010009231
					36:leaf=0.0514526069
				18:[f14<21.5248756] yes=37,no=38,missing=37
					37:leaf=0.00358250923
					38:leaf=0.0553666949
		4:[f14<186.736237] yes=9,no=10,missing=9
			9:[f0<26.8182278] yes=19,no=20,missing=19
				19:[f3<99.8978653] yes=39,no=40,missing=39
					39:leaf=0.0389710963
					40:leaf=0.0655742735
				20:[f7<37.9266815] yes=41,no=42,missing=41
					41:leaf=0.0568155833
					42:leaf=0.0721938238
			10:[f0<21.1968918] yes=21,no=22,missing=21
				21:[f20<59.9566727] yes=43,no=44,missing=43
					43:leaf=0.0612157583
					44:leaf=0.0793532431
				22:[f20<84.5613861] yes=45,no=46,missing=45
					45:leaf=0.0769776553
					46:leaf=0.0878766328
	2:[f0<64.6716766] yes=5,no=6,missing=5
		5:[f14<107.406921] yes=11,no=12,missing=11
			11:[f14<26.8174992] yes=23,no=24,missing=23
				23:[f18<2.37358642] yes=47,no=48,missing=47
					47:leaf=0.0496656895
					48:leaf=0.00115949067
				24:[f14<74.6577759] yes=49,no=50,missing=49
					49:leaf=0.0754244477
					50:leaf=0.046078112
			12:[f14<157.734406] yes=25,no=26,missing=25
				25:[f3<46.6546478] yes=51,no=52,missing=51
					51:leaf=0.0688208863
					52:leaf=0.0834231898
				26:[f2<230.833954] yes=53,no=54,missing=53
					53:leaf=0.0877583325
					54:leaf=0.0762834251
		6:[f0<82.7752228] yes=13,no=14,missing=13
			13:[f2<17.5752201] yes=27,no=28,missing=27
				27:[f14<42.0062332] yes=55,no=56,missing=55
					55:leaf=0.0524017774
					56:leaf=0.0796216279
				28:[f14<131.976105] yes=57,no=58,missing=57
					57:leaf=0.0833954886
					58:leaf=0.0902422741
			14:[f7<41.7695885] yes=29,no=30,missing=29
				29:[f8<36.4444275] yes=59,no=60,missing=59
					59:leaf=0.0788331553
					60:leaf=0.0895559117
				30:[f4<0.0916204453] yes=61,no=62,missing=61
					61:leaf=0.0908063948
					62:leaf=-0.0163951013
booster[49]:
0:[f0<54.3426132] yes=1,no=2,missing=1
	1:[f14<124.909988] yes=3,no=4,missing=3
		3:[f0<32.0971527] yes=7,no=8,missing=7
			7:[f25<0.00562568102] yes=15,no=16,missing=15
				15:[f14<69.191658] yes=31,no=32,missing=31
					31:leaf=0.0602800436
					32:leaf=0.0776994452
				16:[f25<0.0271883179] yes=33,no=34,missing=33
					33:leaf=-0.0322733112
					34:leaf=0.0405709185
			8:[f20<80.6188507] yes=17,no=18,missing=17
				17:[f14<71.217453] yes=35,no=36,missing=35
					35:leaf=0.0332445018
					36:leaf=0.057508301
				18:[f24<0.0448713228] yes=37,no=38,missing=37
					37:leaf=-0.00890970789
					38:leaf=0.0245996471
		4:[f0<34.0538406] yes=9,no=10,missing=9
			9:[f20<80.8988647] yes=19,no=20,missing=19
				19:[f14<203.287445] yes=39,no=40,missing=39
					39:leaf=0.0418180414
					40:leaf=0.016619917
				20:[f24<0.0272844322] yes=41,no=42,missing=41
					41:leaf=-0.0227697883
					42:leaf=0.00857419427
			10:[f3<95.2555161] yes=21,no=22,missing=21
				21:[f8<125.859024] yes=43,no=44,missing=43
					43:leaf=0.00716017326
					44:leaf=-0.0223866738
				22:[f0<44.5687103] yes=45,no=46,missing=45
					45:leaf=-0.015904652
					46:leaf=-0.0320576988
	2:[f0<73.6792755] yes=5,no=6,missing=5
		5:[f14<124.245514] yes=11,no=12,missing=11
			11:[f3<56.6756821] yes=23,no=24,missing=23
				23:[f8<86.1678772] yes=47,no=48,missing=47
					47:leaf=0.0528591275
					48:leaf=-0.010866941
				24:[f4<-0.00407771859] yes=49,no=50,missing=49
					49:leaf=0.0185313486
					50:leaf=-0.0165787321
			12:[f3<120.599686] yes=25,no=26,missing=25
				25:[f0<59.4872398] yes=51,no=52,missing=51
					51:leaf=-0.0275692325
					52:leaf=-0.0403950922
				26:[f3<815.53064] yes=53,no=54,missing=53
					53:leaf=-0.0465755276
					54:leaf=0.0823227167
		6:[f0<92.2554169] yes=13,no=14,missing=13
			13:[f14<109.544823] yes=27,no=28,missing=27
				27:[f7<31.200489] yes=55,no=56,missing=55
					55:leaf=0.00170245639
					56:leaf=-0.0375414006
				28:[f14<1502.36096] yes=57,no=58,missing=57
					57:leaf=-0.0500122271
					58:leaf=0.0647318587
			14:[f8<38.4917908] yes=29,no=30,missing=29
				29:[f14<49.0320892] yes=59,no=60,missing=59
					59:leaf=-0.0132143041
					60:leaf=-0.0522266924
				30:[f0<105.815109] yes=61,no=62,missing=61
					61:leaf=-0.0516712852
					62:leaf=-0.0543416142
booster[50]:
0:[f20<37.7490234] yes=1,no=2,missing=1
	1:[f0<58.6844101] yes=3,no=4,missing=3
		3:[f10<0.0165965706] yes=7,no=8,missing=7
			7:[f15<23.7438164] yes=15,no=16,missing=15
				15:leaf=-0.0305592474
				16:leaf=0.020575041
			8:[f21<36.4599037] yes=17,no=18,missing=17
				17:[f25<0.167537987] yes=29,no=30,missing=29
					29:leaf=-0.0548563674
					30:leaf=-0.0273219049
				18:[f9<2.33811283] yes=31,no=32,missing=31
					31:leaf=0.0185223259
					32:leaf=-0.0318988711
		4:[f24<0.365017474] yes=9,no=10,missing=9
			9:[f0<58.6884842] yes=19,no=20,missing=19
				19:leaf=0.0152597157
				20:[f7<0.0150679648] yes=33,no=34,missing=33
					33:leaf=0.001709915
					34:leaf=-0.0530561171
			10:[f3<271.208801] yes=21,no=22,missing=21
				21:leaf=-0.0488710254
				22:[f19<2.72767615] yes=35,no=36,missing=35
					35:leaf=0.119481698
					36:leaf=-0.0314764678
	2:[f0<55.8635635] yes=5,no=6,missing=5
		5:[f11<6.28269386] yes=11,no=12,missing=11
			11:[f3<0.920428634] yes=23,no=24,missing=23
				23:leaf=0.00658647856
				24:[f12<3.07205558] yes=37,no=38,missing=37
					37:leaf=-0.0528773069
					38:leaf=-0.0218157303
			12:leaf=0.019634109
		6:[f1<202.007538] yes=13,no=14,missing=13
			13:[f25<0.0329570137] yes=25,no=26,missing=25
				25:[f24<0.142193079] yes=39,no=40,missing=39
					39:leaf=-0.0503744744
					40:leaf=-0.0430792123
				26:[f0<55.9048767] yes=41,no=42,missing=41
					41:leaf=0.0481004268
					42:leaf=-0.0454456024
			14:[f9<6.27715206] yes=27,no=28,missing=27
				27:[f18<0.413655341] yes=43,no=44,missing=43
					43:leaf=0.0155170737
					44:leaf=-0.0531270467
				28:[f10<1.41393268] yes=45,no=46,missing=45
					45:leaf=0.0691680461
					46:leaf=-0.0335105881
booster[51]:
0:[f25<0.700535893] yes=1,no=2,missing=1
	1:[f4<0.0792724639] yes=3,no=4,missing=3
		3:leaf=-0.0550825372
		4:[f2<56.2064056] yes=5,no=6,missing=5
			5:leaf=-0.0455306396
			6:leaf=0.0177941136
	2:leaf=0.00580060249
booster[52]:
0:[f0<56.3491592] yes=1,no=2,missing=1
	1:[f21<355.08252] yes=3,no=4,missing=3
		3:leaf=-0.0551798306
		4:[f21<368.973969] yes=7,no=8,missing=7
			7:leaf=0.0197125729
			8:leaf=-0.0461201444
	2:[f0<56.350563] yes=5,no=6,missing=5
		5:leaf=0.0172634702
		6:[f24<0.19101873] yes=9,no=10,missing=9
			9:[f20<1333.36279] yes=11,no=12,missing=11
				11:leaf=-0.0543090291
				12:[f19<1.11083555] yes=15,no=16,missing=15
					15:leaf=0.0223278403
					16:leaf=-0.0464356281
			10:[f14<13.190114] yes=13,no=14,missing=13
				13:leaf=0.0255383104
				14:[f24<0.19115828] yes=17,no=18,missing=17
					17:leaf=0.0215431135
					18:leaf=-0.0515664592
booster[53]:
0:[f14<37.0197258] yes=1,no=2,missing=1
	1:[f18<1.9593358] yes=3,no=4,missing=3
		3:[f16<39.728611] yes=7,no=8,missing=7
			7:[f3<28.4468536] yes=15,no=16,missing=15
				15:[f10<2.24066067] yes=31,no=32,missing=31
					31:leaf=0.0723486543
					32:leaf=-0.0456358865
				16:[f10<1.85794294] yes=33,no=34,missing=33
					33:leaf=0.0117244646
					34:leaf=-0.0450694375
			8:[f25<0.00756043196] yes=17,no=18,missing=17
				17:[f3<11.1782112] yes=35,no=36,missing=35
					35:leaf=0.0135496631
					36:leaf=-0.0525949858
				18:[f0<52.7112961] yes=37,no=38,missing=37
					37:leaf=0.0487214476
					38:leaf=-0.0345486999
		4:[f0<82.7568207] yes=9,no=10,missing=9
			9:[f16<53.6927109] yes=19,no=20,missing=19
				19:[f10<1.95773304] yes=39,no=40,missing=39
					39:leaf=0.0922004506
					40:leaf=0.0256458763
				20:[f20<81.8094482] yes=41,no=42,missing=41
					41:leaf=-0.0386833623
					42:leaf=0.0610123388
			10:[f0<98.3197479] yes=21,no=22,missing=21
				21:[f10<1.36129761] yes=43,no=44,missing=43
					43:leaf=0.0222012755
					44:leaf=-0.0369292609
				22:[f10<0.208835185] yes=45,no=46,missing=45
					45:leaf=0.0233700648
					46:leaf=-0.0486511625
	2:[f14<41.9641266] yes=5,no=6,missing=5
		5:[f16<23.7222137] yes=11,no=12,missing=11
			11:[f10<2.38722038] yes=23,no=24,missing=23
				23:[f0<62.8812981] yes=47,no=48,missing=47
					47:leaf=0.0416482948
					48:leaf=-0.0363644361
				24:[f18<2.51392031] yes=49,no=50,missing=49
					49:leaf=-0.0525152758
					50:leaf=-0.0131562371
			12:[f18<2.24475193] yes=25,no=26,missing=25
				25:[f27<0.0427973643] yes=51,no=52,missing=51
					51:leaf=-0.0536862426
					52:leaf=0.0482753478
				26:[f16<45.5238571] yes=53,no=54,missing=53
					53:leaf=0.000949718233
					54:leaf=-0.0446018241
		6:[f2<19.5593643] yes=13,no=14,missing=13
			13:[f14<43.9740677] yes=27,no=28,missing=27
				27:[f1<29.209343] yes=55,no=56,missing=55
					55:leaf=-0.0201590937
					56:leaf=-0.0486049205
				28:[f3<5.53222561] yes=57,no=58,missing=57
					57:leaf=-0.02427065
					58:leaf=-0.053219229
			14:[f5<0.105273843] yes=29,no=30,missing=29
				29:[f19<7.58739853] yes=59,no=60,missing=59
					59:leaf=-0.0548454411
					60:leaf=-0.0309541263
				30:[f10<1.1870811] yes=61,no=62,missing=61
					61:leaf=-0.0407033525
					62:leaf=0.0203926414
booster[54]:
0:[f0<45.2349739] yes=1,no=2,missing=1
	1:[f14<110.715668] yes=3,no=4,missing=3
		3:[f7<36.2623291] yes=7,no=8,missing=7
			7:[f3<101.44838] yes=15,no=16,missing=15
				15:[f14<73.7252045] yes=31,no=32,missing=31
					31:leaf=0.00671719713
					32:leaf=-0.0157695841
				16:[f10<2.03064013] yes=33,no=34,missing=33
					33:leaf=0.0202068072
					34:leaf=0.0530452803
			8:[f14<72.6502228] yes=17,no=18,missing=17
				17:[f14<32.1855202] yes=35,no=36,missing=35
					35:leaf=0.0143243214
					36:leaf=0.0625045523
				18:[f25<-0.995961428] yes=37,no=38,missing=37
					37:leaf=0.0126369791
					38:leaf=0.0638379529
		4:[f14<147.900452] yes=9,no=10,missing=9
			9:[f0<19.7719879] yes=19,no=20,missing=19
				19:[f20<33.3423347] yes=39,no=40,missing=39
					39:leaf=0.021110991
					40:leaf=0.0494570956
				20:[f24<0.00534927007] yes=41,no=42,missing=41
					41:leaf=0.0491148494
					42:leaf=0.0670656115
			10:[f0<17.8934784] yes=21,no=22,missing=21
				21:[f20<59.8103943] yes=43,no=44,missing=43
					43:leaf=0.0490027703
					44:leaf=0.0704069212
				22:[f3<149.741364] yes=45,no=46,missing=45
					45:leaf=0.067096211
					46:leaf=0.0787536427
	2:[f0<63.2269821] yes=5,no=6,missing=5
		5:[f14<115.760651] yes=11,no=12,missing=11
			11:[f14<31.7287655] yes=23,no=24,missing=23
				23:[f18<2.37094116] yes=47,no=48,missing=47
					47:leaf=0.0500141457
					48:leaf=0.00459955679
				24:[f14<71.3554535] yes=49,no=50,missing=49
					49:leaf=0.0716365352
					50:leaf=0.050745625
			12:[f3<100.231415] yes=25,no=26,missing=25
				25:[f8<122.235962] yes=51,no=52,missing=51
					51:leaf=0.0725216717
					52:leaf=0.0814570412
				26:[f16<621.96106] yes=53,no=54,missing=53
					53:leaf=0.0825525075
					54:leaf=0.0213373546
		6:[f0<80.474411] yes=13,no=14,missing=13
			13:[f14<107.291679] yes=27,no=28,missing=27
				27:[f8<85.0355225] yes=55,no=56,missing=55
					55:leaf=0.0633416921
					56:leaf=0.0781999454
				28:[f3<1018.61914] yes=57,no=58,missing=57
					57:leaf=0.0830061659
					58:leaf=-0.0163950697
			14:[f14<109.131645] yes=29,no=30,missing=29
				29:[f0<96.5909882] yes=59,no=60,missing=59
					59:leaf=0.0788911432
					60:leaf=0.0842229947
				30:[f1<102.110626] yes=61,no=62,missing=61
					61:leaf=0.0843253508
					62:leaf=0.0857282281
booster[55]:
0:[f0<55.0712967] yes=1,no=2,missing=1
	1:[f14<117.704689] yes=3,no=4,missing=3
		3:[f20<111.93959] yes=7,no=8,missing=7
			7:[f0<28.7155037] yes=15,no=16,missing=15
				15:[f14<68.917366] yes=31,no=32,missing=31
					31:leaf=0.0570402332
					32:leaf=0.0749343932
				16:[f14<71.2148743] yes=33,no=34,missing=33
					33:leaf=0.0318957008
					34:leaf=0.0575592704
			8:[f1<88.3841705] yes=17,no=18,missing=17
				17:[f14<35.44841] yes=35,no=36,missing=35
					35:leaf=-0.0277184397
					36:leaf=0.0108835539
				18:[f20<201.739105] yes=37,no=38,missing=37
					37:leaf=0.0528232828
					38:leaf=0.0134556582
		4:[f0<35.3819275] yes=9,no=10,missing=9
			9:[f14<230.76001] yes=19,no=20,missing=19
				19:[f3<99.9292603] yes=39,no=40,missing=39
					39:leaf=0.0414885581
					40:leaf=0.0160545539
				20:[f0<17.3692036] yes=41,no=42,missing=41
					41:leaf=0.0242090616
					42:leaf=-0.000884202716
			10:[f14<157.778229] yes=21,no=22,missing=21
				21:[f20<62.4755249] yes=43,no=44,missing=43
					43:leaf=0.0100389244
					44:leaf=-0.0191659238
				22:[f0<44.582222] yes=45,no=46,missing=45
					45:leaf=-0.00963599328
					46:leaf=-0.0271439999
	2:[f0<74.7945557] yes=5,no=6,missing=5
		5:[f14<124.245514] yes=11,no=12,missing=11
			11:[f3<68.3811264] yes=23,no=24,missing=23
				23:[f8<92.9390488] yes=47,no=48,missing=47
					47:leaf=0.0396313481
					48:leaf=-0.012849248
				24:[f5<-0.00329366163] yes=49,no=50,missing=49
					49:leaf=0.00765236327
					50:leaf=-0.0205861479
			12:[f14<159.982422] yes=25,no=26,missing=25
				25:[f3<18.2038822] yes=51,no=52,missing=51
					51:leaf=0.0219955966
					52:leaf=-0.0343965068
				26:[f2<224.049179] yes=53,no=54,missing=53
					53:leaf=-0.0440199897
					54:leaf=-0.0137925325
		6:[f0<94.9957352] yes=13,no=14,missing=13
			13:[f14<109.544823] yes=27,no=28,missing=27
				27:[f8<75.7381821] yes=55,no=56,missing=55
					55:leaf=-0.0103635257
					56:leaf=-0.0411963724
				28:[f4<-0.0532057658] yes=57,no=58,missing=57
					57:leaf=0.0611812063
					58:leaf=-0.0499028489
			14:[f8<38.4917908] yes=29,no=30,missing=29
				29:[f14<42.3177299] yes=59,no=60,missing=59
					59:leaf=-0.00839127041
					60:leaf=-0.0513012111
				30:[f0<105.815109] yes=61,no=62,missing=61
					61:leaf=-0.0510414056
					62:leaf=-0.0538528636
booster[56]:
0:[f20<37.7490234] yes=1,no=2,missing=1
	1:[f0<58.6844101] yes=3,no=4,missing=3
		3:[f10<0.0165965706] yes=7,no=8,missing=7
			7:[f15<23.7438164] yes=15,no=16,missing=15
				15:leaf=-0.0299158636
				16:leaf=0.0202416498
			8:[f21<36.4599037] yes=17,no=18,missing=17
				17:[f25<0.167537987] yes=29,no=30,missing=29
					29:leaf=-0.0544312112
					30:leaf=-0.0262024105
				18:[f4<-0.000944624597] yes=31,no=32,missing=31
					31:leaf=-0.0316233002
					32:leaf=0.0194958374
		4:[f25<0.0517804809] yes=9,no=10,missing=9
			9:[f0<58.6884842] yes=19,no=20,missing=19
				19:leaf=0.0153097883
				20:[f7<0.0150679648] yes=33,no=34,missing=33
					33:leaf=0.00271202298
					34:leaf=-0.0525104962
			10:[f3<161.16069] yes=21,no=22,missing=21
				21:leaf=-0.0527683087
				22:[f15<133.031189] yes=35,no=36,missing=35
					35:leaf=0.067307502
					36:leaf=-0.0388068594
	2:[f0<55.8635635] yes=5,no=6,missing=5
		5:[f11<6.28269386] yes=11,no=12,missing=11
			11:[f3<0.920428634] yes=23,no=24,missing=23
				23:leaf=0.00692543108
				24:[f0<27.3531303] yes=37,no=38,missing=37
					37:leaf=-0.053552568
					38:leaf=-0.0514739044
			12:leaf=0.0197021402
		6:[f1<202.007538] yes=13,no=14,missing=13
			13:[f21<30.0943832] yes=25,no=26,missing=25
				25:[f24<0.14957507] yes=39,no=40,missing=39
					39:leaf=-0.0505731404
					40:leaf=-0.0408482738
				26:[f20<147.253799] yes=41,no=42,missing=41
					41:leaf=-0.043618001
					42:leaf=-0.0486310981
			14:[f9<6.27715206] yes=27,no=28,missing=27
				27:[f18<0.413655341] yes=43,no=44,missing=43
					43:leaf=0.016113136
					44:leaf=-0.0525508896
				28:[f25<0.0937197208] yes=45,no=46,missing=45
					45:leaf=-0.0329453684
					46:leaf=0.0693133995
booster[57]:
0:[f25<0.700535893] yes=1,no=2,missing=1
	1:[f4<0.0792724639] yes=3,no=4,missing=3
		3:leaf=-0.0546633303
		4:[f8<27.3615341] yes=5,no=6,missing=5
			5:leaf=0.0190885477
			6:leaf=-0.0449479483
	2:leaf=0.00673115021
booster[58]:
0:[f0<56.3493195] yes=1,no=2,missing=1
	1:[f21<355.08252] yes=3,no=4,missing=3
		3:leaf=-0.0547748618
		4:[f25<0.0625972822] yes=7,no=8,missing=7
			7:leaf=-0.045467034
			8:leaf=0.0213732701
	2:[f0<56.3512344] yes=5,no=6,missing=5
		5:leaf=0.0177444108
		6:[f24<0.19101873] yes=9,no=10,missing=9
			9:[f20<1333.36279] yes=11,no=12,missing=11
				11:[f25<0.513609648] yes=15,no=16,missing=15
					15:leaf=-0.0538291521
					16:leaf=-0.0331665948
				12:[f14<95.8420258] yes=17,no=18,missing=17
					17:leaf=0.0186316948
					18:leaf=-0.0454842485
			10:[f14<13.190114] yes=13,no=14,missing=13
				13:leaf=0.0254029986
				14:[f7<0.317510813] yes=19,no=20,missing=19
					19:leaf=0.0220726002
					20:leaf=-0.0508934222
booster[59]:
0:[f14<38.0601196] yes=1,no=2,missing=1
	1:[f18<1.95630169] yes=3,no=4,missing=3
		3:[f16<39.728611] yes=7,no=8,missing=7
			7:[f3<20.7344341] yes=15,no=16,missing=15
				15:[f10<2.29438829] yes=31,no=32,missing=31
					31:leaf=0.0855969191
					32:leaf=-0.0422480479
				16:[f10<1.96192312] yes=33,no=34,missing=33
					33:leaf=0.017713787
					34:leaf=-0.0435001031
			8:[f20<132.562073] yes=17,no=18,missing=17
				17:[f16<44.3643112] yes=35,no=36,missing=35
					35:leaf=-0.026962731
					36:leaf=-0.0534141138
				18:[f10<1.57976413] yes=37,no=38,missing=37
					37:leaf=0.0628892183
					38:leaf=-0.0334403068
		4:[f15<112.66008] yes=9,no=10,missing=9
			9:[f10<1.60999799] yes=19,no=20,missing=19
				19:[f0<84.2067108] yes=39,no=40,missing=39
					39:leaf=0.0750945434
					40:leaf=-0.015386953
				20:[f20<78.7771301] yes=41,no=42,missing=41
					41:leaf=-0.0236326512
					42:leaf=0.0429953896
			10:[f15<132.476288] yes=21,no=22,missing=21
				21:[f20<141.712723] yes=43,no=44,missing=43
					43:leaf=-0.034591265
					44:leaf=0.0639737025
				22:[f20<292.065247] yes=45,no=46,missing=45
					45:leaf=-0.0490145087
					46:leaf=-0.00814032555
	2:[f14<42.6337509] yes=5,no=6,missing=5
		5:[f16<21.1639042] yes=11,no=12,missing=11
			11:[f18<2.70469332] yes=23,no=24,missing=23
				23:[f3<27.1637611] yes=47,no=48,missing=47
					47:leaf=0.0271402206
					48:leaf=-0.042632971
				24:[f3<78.4234161] yes=49,no=50,missing=49
					49:leaf=0.0769013315
					50:leaf=-0.0400760397
			12:[f16<45.5238571] yes=25,no=26,missing=25
				25:[f18<2.44364023] yes=51,no=52,missing=51
					51:leaf=-0.047645878
					52:leaf=-0.00852850452
				26:[f20<130.87326] yes=53,no=54,missing=53
					53:leaf=-0.0541899018
					54:leaf=-0.0390969664
		6:[f2<19.5590019] yes=13,no=14,missing=13
			13:[f18<5.3724103] yes=27,no=28,missing=27
				27:[f6<0.0469728187] yes=55,no=56,missing=55
					55:leaf=0.0215830188
					56:leaf=-0.0525997169
				28:[f10<0.367461026] yes=57,no=58,missing=57
					57:leaf=0.0567827299
					58:leaf=-0.0421401709
			14:[f5<0.105273843] yes=29,no=30,missing=29
				29:[f19<7.58739853] yes=59,no=60,missing=59
					59:leaf=-0.0544121042
					60:leaf=-0.0297376309
				30:[f10<1.1870811] yes=61,no=62,missing=61
					61:leaf=-0.0399040245
					62:leaf=0.0204454046
