booster[0]:
0:[f20<1.5] yes=1,no=2,missing=1
	1:[f0<38.1005859] yes=3,no=4,missing=3
		3:[f16<103.970131] yes=7,no=8,missing=7
			7:[f16<82.5365372] yes=15,no=16,missing=15
				15:[f16<34.1865387] yes=31,no=32,missing=31
					31:[f18<59.7348557] yes=63,no=64,missing=63
						63:[f23<33.1693573] yes=127,no=128,missing=127
							127:[f18<42.3070755] yes=253,no=254,missing=253
								253:leaf=0.0230109524
								254:leaf=0.141273141
							128:[f12<2.12228918] yes=255,no=256,missing=255
								255:leaf=-0.0319105573
								256:leaf=0.0713391677
						64:[f23<96.367424] yes=129,no=130,missing=129
							129:[f16<18.6846237] yes=257,no=258,missing=257
								257:leaf=0.109680906
								258:leaf=0.199087113
							130:[f18<107.779312] yes=259,no=260,missing=259
								259:leaf=0.015611494
								260:leaf=0.139688715
					32:[f16<75.6734772] yes=65,no=66,missing=65
						65:[f18<42.2756653] yes=131,no=132,missing=131
							131:[f16<40.0281715] yes=261,no=262,missing=261
								261:leaf=0.0587628782
								262:leaf=0.185664073
							132:[f27<0.582927823] yes=263,no=264,missing=263
								263:leaf=0.236759901
								264:leaf=0.0175078828
						66:[f0<23.7287025] yes=133,no=134,missing=133
							133:[f18<52.5384903] yes=265,no=266,missing=265
								265:leaf=0.0677785873
								266:leaf=0.134341821
							134:[f18<41.3761063] yes=267,no=268,missing=267
								267:leaf=0.136528492
								268:leaf=0.189695954
				16:[f16<97.0804443] yes=33,no=34,missing=33
					33:[f0<26.3396473] yes=67,no=68,missing=67
						67:[f23<113.350281] yes=135,no=136,missing=135
							135:[f16<85.9815369] yes=269,no=270,missing=269
								269:leaf=0.0158663001
								270:leaf=-0.0236741845
							136:[f23<244.089172] yes=271,no=272,missing=271
								271:leaf=0.031009391
								272:leaf=0.105405405
						68:[f16<85.3883057] yes=137,no=138,missing=137
							137:[f5<35.7653465] yes=273,no=274,missing=273
								273:leaf=0.0411277749
								274:leaf=0.11399287
							138:[f23<99.0508118] yes=275,no=276,missing=275
								275:leaf=0.0137587031
								276:leaf=0.0803367719
					34:[f0<24.5747299] yes=69,no=70,missing=69
						69:[f16<99.4420624] yes=139,no=140,missing=139
							139:[f22<2.32937288] yes=277,no=278,missing=277
								277:leaf=0.0371933877
								278:leaf=0.0969843119
							140:[f23<123.579819] yes=279,no=280,missing=279
								279:leaf=0.107135288
								280:leaf=0.188967958
						70:[f16<99.1683578] yes=141,no=142,missing=141
							141:[f5<108.091164] yes=281,no=282,missing=281
								281:leaf=0.107680239
								282:leaf=0.169002697
							142:[f28<0.4857243] yes=283,no=284,missing=283
								283:leaf=0.177833483
								284:leaf=-0.0495145619
			8:[f27<0.670472503] yes=17,no=18,missing=17
				17:[f16<120.835709] yes=35,no=36,missing=35
					35:[f0<22.2606392] yes=71,no=72,missing=71
						71:[f5<61.2590256] yes=143,no=144,missing=143
							143:[f16<107.283638] yes=285,no=286,missing=285
								285:leaf=0.131589532
								286:leaf=0.181543782
							144:[f28<0.717996478] yes=287,no=288,missing=287
								287:leaf=0.216622695
								288:leaf=-0.0230769254
						72:[f28<0.626468778] yes=145,no=146,missing=145
							145:[f5<83.134903] yes=289,no=290,missing=289
								289:leaf=0.228253081
								290:leaf=0.258651108
							146:[f9<57.7181625] yes=291,no=292,missing=291
								291:leaf=-0.0203389842
								292:leaf=0.0962264091
					36:[f28<0.631316066] yes=73,no=74,missing=73
						73:[f29<0.710106969] yes=147,no=148,missing=147
							147:[f16<170.929993] yes=293,no=294,missing=293
								293:leaf=0.265828252
								294:leaf=0.284683436
							148:[f3<166.573547] yes=295,no=296,missing=295
								295:leaf=-0.0297297295
								296:leaf=0.0831325278
						74:[f28<0.839609504] yes=149,no=150,missing=149
							149:[f3<102.155655] yes=297,no=298,missing=297
								297:leaf=0.0317307673
								298:leaf=0.153488368
							150:[f3<187.810364] yes=299,no=300,missing=299
								299:leaf=-0.0183962286
								300:leaf=0.0902912542
				18:[f27<0.886915803] yes=37,no=38,missing=37
					37:[f28<0.0534211472] yes=75,no=76,missing=75
						75:[f22<1.17053962] yes=151,no=152,missing=151
							151:[f27<0.745015979] yes=301,no=302,missing=301
								301:leaf=0.116949141
								302:leaf=-2.43837173e-09
							152:[f4<64.0116501] yes=303,no=304,missing=303
								303:leaf=0.109859146
								304:leaf=0.201305464
						76:[f27<0.684726] yes=153,no=154,missing=153
							153:leaf=0.157894731
							154:[f24<79.506958] yes=305,no=306,missing=305
								305:leaf=-0.0535714291
								306:leaf=0.0483870916
					38:[f3<243.037109] yes=77,no=78,missing=77
						77:[f22<4.15270519] yes=155,no=156,missing=155
							155:[f21<2.11684489] yes=307,no=308,missing=307
								307:leaf=-0.041302558
								308:leaf=0.00203291117
							156:[f9<49.2650337] yes=309,no=310,missing=309
								309:leaf=-2.39482945e-09
								310:leaf=0.193220332
						78:[f19<2.5] yes=157,no=158,missing=157
							157:[f8<163.103683] yes=311,no=312,missing=311
								311:leaf=0.230769202
								312:leaf=0.0488372073
							158:leaf=-1.6763807e-09
		4:[f27<0.608511627] yes=9,no=10,missing=9
			9:[f28<0.583406448] yes=19,no=20,missing=19
				19:[f0<53.1928329] yes=39,no=40,missing=39
					39:[f16<99.6687012] yes=79,no=80,missing=79
						79:[f16<84.2625732] yes=159,no=160,missing=159
							159:[f16<32.4435883] yes=313,no=314,missing=313
								313:leaf=0.16217427
								314:leaf=0.25175187
							160:[f16<95.0368042] yes=315,no=316,missing=315
								315:leaf=0.0841177255
								316:leaf=0.17470105
						80:[f29<0.645789146] yes=161,no=162,missing=161
							161:[f16<109.857796] yes=317,no=318,missing=317
								317:leaf=0.25320369
								318:leaf=0.288454056
							162:[f3<217.683014] yes=319,no=320,missing=319
								319:leaf=-0.0234042574
								320:leaf=0.157142848
					40:[f29<0.608183026] yes=81,no=82,missing=81
						81:[f20<0.5] yes=163,no=164,missing=163
							163:[f0<71.4976501] yes=321,no=322,missing=321
								321:leaf=0.278720349
								322:leaf=0.294620126
							164:[f30<0.680835605] yes=323,no=324,missing=323
								323:leaf=0.262743592
								324:leaf=-0.00323741254
						82:[f29<0.816448092] yes=165,no=166,missing=165
							165:[f17<265.607483] yes=325,no=326,missing=325
								325:leaf=0.0682403371
								326:leaf=0.19190599
							166:[f3<172.852112] yes=327,no=328,missing=327
								327:leaf=-0.0179640744
								328:leaf=0.0857904032
				20:[f28<0.823743463] yes=41,no=42,missing=41
					41:[f3<139.634125] yes=83,no=84,missing=83
						83:[f21<1.91429877] yes=167,no=168,missing=167
							167:[f10<177.642059] yes=329,no=330,missing=329
								329:leaf=0.0258924495
								330:leaf=0.10726577
							168:[f23<170.645584] yes=331,no=332,missing=331
								331:leaf=0.0980437249
								332:leaf=0.180542976
						84:[f21<0.873616099] yes=169,no=170,missing=169
							169:[f16<231.414185] yes=333,no=334,missing=333
								333:leaf=0.145312488
								334:leaf=0.0130434753
							170:[f23<232.244095] yes=335,no=336,missing=335
								335:leaf=0.165701553
								336:leaf=0.251351327
					42:[f3<240.299332] yes=85,no=86,missing=85
						85:[f17<256.068237] yes=171,no=172,missing=171
							171:[f21<1.84481668] yes=337,no=338,missing=337
								337:leaf=-0.0263787713
								338:leaf=0.00755835185
							172:[f21<1.70864248] yes=339,no=340,missing=339
								339:leaf=0.00557620544
								340:leaf=0.117761984
						86:[f21<1.30497944] yes=173,no=174,missing=173
							173:[f28<0.981541276] yes=341,no=342,missing=341
								341:leaf=0.0833333284
								342:leaf=-0.0500000007
							174:[f14<2.70718384] yes=343,no=344,missing=343
								343:leaf=0.207476616
								344:leaf=-0.0348837189
			10:[f27<0.863042712] yes=21,no=22,missing=21
				21:[f21<1.78466105] yes=43,no=44,missing=43
					43:[f3<131.503052] yes=87,no=88,missing=87
						87:[f23<219.62677] yes=175,no=176,missing=175
							175:[f24<40.9643402] yes=345,no=346,missing=345
								345:leaf=0.0651013255
								346:leaf=-0.00446650339
							176:[f21<0.945316255] yes=347,no=348,missing=347
								347:leaf=0.0455830358
								348:leaf=0.186206877
						88:[f21<0.705719292] yes=177,no=178,missing=177
							177:[f27<0.6896348] yes=349,no=350,missing=349
								349:leaf=0.116949141
								350:leaf=-0.00491803465
							178:[f23<198.669205] yes=351,no=352,missing=351
								351:leaf=0.117511511
								352:leaf=0.205263138
					44:[f3<107.402939] yes=89,no=90,missing=89
						89:[f23<149.252014] yes=179,no=180,missing=179
							179:[f22<2.32012653] yes=353,no=354,missing=353
								353:leaf=0.0667566508
								354:leaf=0.119145565
							180:[f22<1.41250396] yes=355,no=356,missing=355
								355:leaf=0.0897540972
								356:leaf=0.214792892
						90:[f22<1.20573795] yes=181,no=182,missing=181
							181:[f5<42.1229553] yes=357,no=358,missing=357
								357:leaf=0.0166666638
								358:leaf=0.143271759
							182:[f23<192.432587] yes=359,no=360,missing=359
								359:leaf=0.200533196
								360:leaf=0.273557156
				22:[f17<241.023041] yes=45,no=46,missing=45
					45:[f27<0.973100066] yes=91,no=92,missing=91
						91:[f23<229.769379] yes=183,no=184,missing=183
							183:[f24<30.7113647] yes=361,no=362,missing=361
								361:leaf=0.0333015695
								362:leaf=-0.0146809639
							184:[f21<1.0417676] yes=363,no=364,missing=363
								363:leaf=0.00789473392
								364:leaf=0.167741925
						92:[f3<112.148605] yes=185,no=186,missing=185
							185:[f23<42.3242111] yes=365,no=366,missing=365
								365:leaf=-0.000335948862
								366:leaf=-0.0392491482
							186:[f21<1.08722663] yes=367,no=368,missing=367
								367:leaf=-0.0376205817
								368:leaf=0.0112600503
					46:[f21<1.33528447] yes=93,no=94,missing=93
						93:[f27<0.918842375] yes=187,no=188,missing=187
							187:[f4<80.8153687] yes=369,no=370,missing=369
								369:leaf=0.116666667
								370:leaf=-0.0315789469
							188:[f23<53.1911659] yes=371,no=372,missing=371
								371:leaf=0.102739714
								372:leaf=-0.0276595745
						94:[f3<135.330811] yes=189,no=190,missing=189
							189:[f27<0.958492994] yes=373,no=374,missing=373
								373:leaf=0.148739487
								374:leaf=0.0333333276
							190:[f12<2.69419622] yes=375,no=376,missing=375
								375:leaf=0.210433364
								376:leaf=-0.0348837189
	2:[f27<0.473678768] yes=5,no=6,missing=5
		5:[f28<0.540969372] yes=11,no=12,missing=11
			11:[f29<0.418394923] yes=23,no=24,missing=23
				23:[f30<0.499418378] yes=47,no=48,missing=47
					47:[f3<102.477478] yes=95,no=96,missing=95
						95:[f26<39.059494] yes=191,no=192,missing=191
							191:[f28<0.245948985] yes=377,no=378,missing=377
								377:leaf=0.175757051
								378:leaf=0.0962049291
							192:[f21<1.55265915] yes=379,no=380,missing=379
								379:leaf=0.0429602824
								380:leaf=0.119120717
						96:[f21<1.63125718] yes=193,no=194,missing=193
							193:[f28<0.271688163] yes=381,no=382,missing=381
								381:leaf=0.193593472
								382:leaf=0.116285555
							194:[f3<159.361069] yes=383,no=384,missing=383
								383:leaf=0.21632719
								384:leaf=0.269262075
					48:[f3<213.806534] yes=97,no=98,missing=97
						97:[f21<2.3127892] yes=195,no=196,missing=195
							195:[f30<0.745602846] yes=385,no=386,missing=385
								385:leaf=0.00554089388
								386:leaf=-0.0380397551
							196:[f29<0.0683504492] yes=387,no=388,missing=387
								387:leaf=0.090106003
								388:leaf=-0.0337078683
						98:[f21<1.22494793] yes=197,no=198,missing=197
							197:[f14<1.6401782] yes=389,no=390,missing=389
								389:leaf=-0.0345132761
								390:leaf=0.0979591832
							198:[f8<290.899506] yes=391,no=392,missing=391
								391:leaf=0.191803262
								392:leaf=-0.00566037884
				24:[f29<0.790440559] yes=49,no=50,missing=49
					49:[f3<109.356979] yes=99,no=100,missing=99
						99:[f25<38.1844177] yes=199,no=200,missing=199
							199:[f5<107.315842] yes=393,no=394,missing=393
								393:leaf=0.0146341426
								394:leaf=0.121529736
							200:[f30<0.0403074659] yes=395,no=396,missing=395
								395:leaf=0.0141630871
								396:leaf=-0.036710836
						100:[f21<1.39596248] yes=201,no=202,missing=201
							201:[f26<32.719059] yes=397,no=398,missing=397
								397:leaf=0.0964664221
								398:leaf=-0.0116504868
							202:[f0<89.2928009] yes=399,no=400,missing=399
								399:leaf=0.0733656138
								400:leaf=0.18709676
					50:[f21<1.73379779] yes=101,no=102,missing=101
						101:[f8<287.351868] yes=203,no=204,missing=203
							203:[f13<6.20479965] yes=401,no=402,missing=401
								401:leaf=-0.0453662612
								402:leaf=0.0461538397
							204:[f5<210.41864] yes=403,no=404,missing=403
								403:leaf=-0.022543354
								404:leaf=0.127397254
						102:[f3<171.092941] yes=205,no=206,missing=205
							205:[f17<272.184082] yes=405,no=406,missing=405
								405:leaf=-0.0268292706
								406:leaf=0.0680981502
							206:[f23<297.31073] yes=407,no=408,missing=407
								407:leaf=0.0336322822
								408:leaf=0.177966103
			12:[f3<230.9552] yes=25,no=26,missing=25
				25:[f21<1.9315064] yes=51,no=52,missing=51
					51:[f28<0.691136479] yes=103,no=104,missing=103
						103:[f23<297.163757] yes=207,no=208,missing=207
							207:[f3<167.191925] yes=409,no=410,missing=409
								409:leaf=-0.0314426646
								410:leaf=0.0579831898
							208:[f29<0.0297596827] yes=411,no=412,missing=411
								411:leaf=0.103278689
								412:leaf=-0.000928795082
						104:[f5<522.231445] yes=209,no=210,missing=209
							209:[f22<3.23343372] yes=413,no=414,missing=413
								413:leaf=-0.0480626225
								414:leaf=-0.0133704757
							210:[f14<1.98293328] yes=415,no=416,missing=415
								415:leaf=-0.0264248699
								416:leaf=0.0902912542
					52:[f23<210.935944] yes=105,no=106,missing=105
						105:[f28<0.817043185] yes=211,no=212,missing=211
							211:[f29<0.627198458] yes=417,no=418,missing=417
								417:leaf=0.0314161666
								418:leaf=-0.0522788242
							212:[f4<86.8474426] yes=419,no=420,missing=419
								419:leaf=-0.0386338197
								420:leaf=0.0362637304
						106:[f3<121.608902] yes=213,no=214,missing=213
							213:[f22<2.73444629] yes=421,no=422,missing=421
								421:leaf=0.0146927834
								422:leaf=0.12808989
							214:[f28<0.955895543] yes=423,no=424,missing=423
								423:leaf=0.168407306
								424:leaf=0.0317307673
				26:[f21<1.19745469] yes=53,no=54,missing=53
					53:[f28<0.701901317] yes=107,no=108,missing=107
						107:[f13<5.26253128] yes=215,no=216,missing=215
							215:[f10<131.110077] yes=425,no=426,missing=425
								425:leaf=0.0206896532
								426:leaf=0.197727263
							216:leaf=-0.0396226421
						108:[f22<1.62784648] yes=217,no=218,missing=217
							217:[f5<262.242065] yes=427,no=428,missing=427
								427:leaf=-0.0568047352
								428:leaf=-0.00550458906
							218:[f23<249.433533] yes=429,no=430,missing=429
								429:leaf=0.089062497
								430:leaf=-0.0495145619
					54:[f28<0.895561814] yes=109,no=110,missing=109
						109:[f11<6.03101826] yes=219,no=220,missing=219
							219:[f30<0.904268503] yes=431,no=432,missing=431
								431:leaf=0.226630434
								432:leaf=0.0157894716
							220:leaf=0.0069767423
						110:[f10<128.39975] yes=221,no=222,missing=221
							221:[f22<0.692962408] yes=433,no=434,missing=433
								433:leaf=-0.0315789469
								434:leaf=0.15882352
							222:[f0<55.3268127] yes=435,no=436,missing=435
								435:leaf=0.149999991
								436:leaf=-0.0167381987
		6:[f27<0.768284917] yes=13,no=14,missing=13
			13:[f28<0.496766537] yes=27,no=28,missing=27
				27:[f21<1.63580012] yes=55,no=56,missing=55
					55:[f29<0.404746354] yes=111,no=112,missing=111
						111:[f3<180.893188] yes=223,no=224,missing=223
							223:[f0<262.520142] yes=437,no=438,missing=437
								437:leaf=-0.0112417368
								438:leaf=0.114084497
							224:[f21<1.11703002] yes=439,no=440,missing=439
								439:leaf=0.0380804911
								440:leaf=0.167484656
						112:[f24<36.1956711] yes=225,no=226,missing=225
							225:[f4<54.756897] yes=441,no=442,missing=441
								441:leaf=-0.0375000015
								442:leaf=0.110526316
							226:[f23<344.643127] yes=443,no=444,missing=443
								443:leaf=-0.0518867932
								444:leaf=0.00967741664
					56:[f23<186.071289] yes=113,no=114,missing=113
						113:[f3<85.0298309] yes=227,no=228,missing=227
							227:[f29<0.349237531] yes=445,no=446,missing=445
								445:leaf=0.0100782299
								446:leaf=-0.0506024063
							228:[f29<0.373036742] yes=447,no=448,missing=447
								447:leaf=0.088527292
								448:leaf=-0.0185185205
						114:[f22<1.1741538] yes=229,no=230,missing=229
							229:[f24<131.056992] yes=449,no=450,missing=449
								449:leaf=0.117857136
								450:leaf=-0.0500000007
							230:[f3<41.9664688] yes=451,no=452,missing=451
								451:leaf=0.0340909064
								452:leaf=0.213745266
				28:[f18<148.257935] yes=57,no=58,missing=57
					57:[f9<293.898163] yes=115,no=116,missing=115
						115:[f23<295.29071] yes=231,no=232,missing=231
							231:[f21<1.8262949] yes=453,no=454,missing=453
								453:leaf=-0.0556148849
								454:leaf=-0.0430440493
							232:[f21<1.342206] yes=455,no=456,missing=455
								455:leaf=-0.055970151
								456:leaf=0.092920348
						116:leaf=0.0749999955
					58:[f21<2.20722294] yes=117,no=118,missing=117
						117:[f9<61.3343201] yes=233,no=234,missing=233
							233:[f6<-0.00462418795] yes=457,no=458,missing=457
								457:leaf=0.0157894716
								458:leaf=-0.0554621816
							234:[f22<1.91343296] yes=459,no=460,missing=459
								459:leaf=-0.0176470615
								460:leaf=0.078082189
						118:[f16<262.733887] yes=235,no=236,missing=235
							235:[f27<0.642439008] yes=461,no=462,missing=461
								461:leaf=0.230097085
								462:leaf=0.0374999978
							236:[f0<186.846252] yes=463,no=464,missing=463
								463:leaf=-0.0348837189
								464:leaf=0.0157894716
			14:[f17<280.256561] yes=29,no=30,missing=29
				29:[f24<30.3254128] yes=59,no=60,missing=59
					59:[f3<167.060791] yes=119,no=120,missing=119
						119:[f18<4.70737743] yes=237,no=238,missing=237
							237:[f14<0.875833511] yes=465,no=466,missing=465
								465:leaf=0.157142848
								466:leaf=-0.01304348
							238:[f27<0.791868329] yes=467,no=468,missing=467
								467:leaf=0.0411764644
								468:leaf=-0.0337398387
						120:[f7<-0.000354460703] yes=239,no=240,missing=239
							239:[f21<1.38811946] yes=469,no=470,missing=469
								469:leaf=0.0283018835
								470:leaf=0.153658524
							240:[f10<254.625412] yes=471,no=472,missing=471
								471:leaf=-0.0235955063
								472:leaf=0.114705876
					60:[f4<145.574402] yes=121,no=122,missing=121
						121:[f21<1.83147812] yes=241,no=242,missing=241
							241:[f28<0.285548329] yes=473,no=474,missing=473
								473:leaf=-0.0496528894
								474:leaf=-0.0568457358
							242:[f23<176.770416] yes=475,no=476,missing=475
								475:leaf=-0.0473168753
								476:leaf=-0.00479867868
						122:[f22<0.915420771] yes=243,no=244,missing=243
							243:[f11<0.392203271] yes=477,no=478,missing=477
								477:leaf=0.0631578937
								478:leaf=-0.048837211
							244:[f12<0.88310349] yes=479,no=480,missing=479
								479:leaf=-0.0396226421
								480:leaf=0.113471501
				30:[f21<1.71775818] yes=61,no=62,missing=61
					61:[f28<0.037950322] yes=123,no=124,missing=123
						123:[f13<1.49691927] yes=245,no=246,missing=245
							245:[f9<76.5348816] yes=481,no=482,missing=481
								481:leaf=0.157142848
								482:leaf=-0.0142857153
							246:[f1<12] yes=483,no=484,missing=483
								483:leaf=-0.0405405425
								484:leaf=0.0517241359
						124:[f23<73.7031479] yes=247,no=248,missing=247
							247:[f8<48.0942688] yes=485,no=486,missing=485
								485:leaf=-0.0469879508
								486:leaf=0.0428571403
							248:[f8<224.260376] yes=487,no=488,missing=487
								487:leaf=-0.057692308
								488:leaf=-0.0205479469
					62:[f24<85.7348251] yes=125,no=126,missing=125
						125:[f8<154.004776] yes=249,no=250,missing=249
							249:[f22<1.2667799] yes=489,no=490,missing=489
								489:leaf=-0.0290322583
								490:leaf=0.103361331
							250:leaf=-0.0504424758
						126:[f23<175.416504] yes=251,no=252,missing=251
							251:[f0<157.218842] yes=491,no=492,missing=491
								491:leaf=0.0157894716
								492:leaf=-0.0315789469
							252:[f8<254.078186] yes=493,no=494,missing=493
								493:leaf=0.249650344
								494:leaf=0.0157894716
booster[1]:
0:[f0<35.8270111] yes=1,no=2,missing=1
	1:[f16<103.929306] yes=3,no=4,missing=3
		3:[f16<80.2790756] yes=7,no=8,missing=7
			7:[f23<52.5539246] yes=15,no=16,missing=15
				15:[f16<72.104126] yes=31,no=32,missing=31
					31:[f9<36.9832077] yes=63,no=64,missing=63
						63:[f16<18.931427] yes=127,no=128,missing=127
							127:[f23<30.6075478] yes=243,no=244,missing=243
								243:leaf=0.166260645
								244:leaf=0.034106724
							128:[f5<95.0934525] yes=245,no=246,missing=245
								245:leaf=0.043467816
								246:leaf=-0.00308642234
						64:[f16<21.2841606] yes=129,no=130,missing=129
							129:[f5<38.616333] yes=247,no=248,missing=247
								247:leaf=-0.00257290131
								248:leaf=0.0756205097
							130:[f10<69.2001953] yes=249,no=250,missing=249
								249:leaf=0.00967238378
								250:leaf=-0.0256250855
					32:[f0<21.8427353] yes=65,no=66,missing=65
						65:[f18<56.2147903] yes=131,no=132,missing=131
							131:[f22<1.95409334] yes=251,no=252,missing=251
								251:leaf=0.166374162
								252:leaf=0.0871743411
							132:[f16<75.0146484] yes=253,no=254,missing=253
								253:leaf=0.0336073972
								254:leaf=0.101620734
						66:[f18<46.4508438] yes=133,no=134,missing=133
							133:[f5<53.4242935] yes=255,no=256,missing=255
								255:leaf=0.105962314
								256:leaf=0.0369702838
							134:[f9<45.1261978] yes=257,no=258,missing=257
								257:leaf=0.046326831
								258:leaf=-0.00206227507
				16:[f16<74.2838211] yes=33,no=34,missing=33
					33:[f23<108.619247] yes=67,no=68,missing=67
						67:[f3<49.6294632] yes=135,no=136,missing=135
							135:[f12<1.87804329] yes=259,no=260,missing=259
								259:leaf=-0.0386813581
								260:leaf=-0.00759983063
							136:[f16<19.4504452] yes=261,no=262,missing=261
								261:leaf=0.0622641444
								262:leaf=-0.00935448799
						68:[f3<91.2036285] yes=137,no=138,missing=137
							137:[f12<1.52087724] yes=263,no=264,missing=263
								263:leaf=-0.0522220992
								264:leaf=-0.0422490798
							138:[f24<45.6798248] yes=265,no=266,missing=265
								265:leaf=-0.00841121655
								266:leaf=-0.0409917943
					34:[f28<-0.99764967] yes=69,no=70,missing=69
						69:[f27<0.0263975952] yes=139,no=140,missing=139
							139:[f27<-0.996703625] yes=267,no=268,missing=267
								267:leaf=0.0836909786
								268:leaf=-0.0102204429
							140:[f9<47.0921097] yes=269,no=270,missing=269
								269:leaf=0.0928478464
								270:leaf=0.0149171231
						70:[f18<261.367249] yes=141,no=142,missing=141
							141:[f28<0.0255622193] yes=271,no=272,missing=271
								271:leaf=-0.0503714681
								272:leaf=-0.00494873198
							142:[f28<0.0422660969] yes=273,no=274,missing=273
								273:leaf=-1.6763807e-09
								274:leaf=0.175862059
			8:[f16<97.488739] yes=17,no=18,missing=17
				17:[f16<84.7423401] yes=35,no=36,missing=35
					35:[f23<64.6807632] yes=71,no=72,missing=71
						71:[f0<26.1243324] yes=143,no=144,missing=143
							143:[f16<82.5504608] yes=275,no=276,missing=275
								275:leaf=0.170772076
								276:leaf=0.218172312
							144:[f18<54.391655] yes=277,no=278,missing=277
								277:leaf=0.156677365
								278:leaf=0.0951933786
						72:[f24<47.3143501] yes=145,no=146,missing=145
							145:[f27<0.0269602239] yes=279,no=280,missing=279
								279:leaf=0.0586592145
								280:leaf=0.135888919
							146:[f21<1.38219166] yes=281,no=282,missing=281
								281:leaf=-0.0361111127
								282:leaf=0.0443349704
					36:[f23<89.8513947] yes=73,no=74,missing=73
						73:[f0<26.3380051] yes=147,no=148,missing=147
							147:[f16<94.8562775] yes=283,no=284,missing=283
								283:leaf=0.263884068
								284:leaf=0.230436683
							148:[f16<94.9341278] yes=285,no=286,missing=285
								285:leaf=0.232283041
								286:leaf=0.171475157
						74:[f20<1.5] yes=149,no=150,missing=149
							149:[f0<25.9516068] yes=287,no=288,missing=287
								287:leaf=0.204201683
								288:leaf=0.148086652
							150:[f21<2.14701152] yes=289,no=290,missing=289
								289:leaf=0.0173553675
								290:leaf=0.132048666
				18:[f24<46.6474991] yes=37,no=38,missing=37
					37:[f0<23.0121002] yes=75,no=76,missing=75
						75:[f16<99.4420624] yes=151,no=152,missing=151
							151:[f23<92.6072235] yes=291,no=292,missing=291
								291:leaf=0.192776546
								292:leaf=0.0888268054
							152:[f27<-0.996547103] yes=293,no=294,missing=293
								293:leaf=0.145893797
								294:leaf=0.0877256244
						76:[f16<99.1683578] yes=153,no=154,missing=153
							153:[f0<28.9035416] yes=295,no=296,missing=295
								295:leaf=0.156976745
								296:leaf=0.101018839
							154:[f5<106.98542] yes=297,no=298,missing=297
								297:leaf=0.080692403
								298:leaf=0.0269349813
					38:[f20<0.5] yes=77,no=78,missing=77
						77:[f16<101.919106] yes=155,no=156,missing=155
							155:[f9<29.4518986] yes=299,no=300,missing=299
								299:leaf=0.109793805
								300:leaf=0.0211267564
							156:[f5<66.4075317] yes=301,no=302,missing=301
								301:leaf=0.0378640741
								302:leaf=-0.0306122452
						78:[f17<339.830994] yes=157,no=158,missing=157
							157:[f13<0.119798802] yes=303,no=304,missing=303
								303:leaf=0.0906976685
								304:leaf=-0.0381137989
							158:leaf=0.157894731
		4:[f16<121.321426] yes=9,no=10,missing=9
			9:[f23<81.8138733] yes=19,no=20,missing=19
				19:[f0<20.6862335] yes=39,no=40,missing=39
					39:[f5<59.2787476] yes=79,no=80,missing=79
						79:[f16<108.824463] yes=159,no=160,missing=159
							159:[f10<26.55933] yes=305,no=306,missing=305
								305:leaf=0.139857635
								306:leaf=0.0791255236
							160:[f7<0.00179644814] yes=307,no=308,missing=307
								307:leaf=0.046893388
								308:leaf=0.0854014531
						80:[f16<107.345795] yes=161,no=162,missing=161
							161:[f6<0.00127271423] yes=309,no=310,missing=309
								309:leaf=0.0419949666
								310:leaf=0.113028161
							162:[f12<2.62787604] yes=311,no=312,missing=311
								311:leaf=0.0284817517
								312:leaf=-0.032007236
					40:[f16<111.321068] yes=81,no=82,missing=81
						81:[f5<69.6962891] yes=163,no=164,missing=163
							163:[f8<32.2980576] yes=313,no=314,missing=313
								313:leaf=0.0762087405
								314:leaf=0.026133392
							164:[f8<77.9442139] yes=315,no=316,missing=315
								315:leaf=-0.0155670885
								316:leaf=0.0156716388
						82:[f12<2.50993395] yes=165,no=166,missing=165
							165:[f18<80.0160675] yes=317,no=318,missing=317
								317:leaf=0.00189633097
								318:leaf=-0.0296254288
							166:[f27<0.162754327] yes=319,no=320,missing=319
								319:leaf=-0.0417195633
								320:leaf=0.0378640741
				20:[f3<77.7004852] yes=41,no=42,missing=41
					41:[f21<5.71274281] yes=83,no=84,missing=83
						83:[f10<19.2066269] yes=167,no=168,missing=167
							167:[f7<-0.00668369187] yes=321,no=322,missing=321
								321:leaf=0.0906976685
								322:leaf=-0.028190745
							168:[f0<8.33346939] yes=323,no=324,missing=323
								323:leaf=-0.0115384636
								324:leaf=-0.0517436378
						84:leaf=0.0631578937
					42:[f17<415.276428] yes=85,no=86,missing=85
						85:[f23<156.376984] yes=169,no=170,missing=169
							169:[f21<2.60655379] yes=325,no=326,missing=325
								325:leaf=-0.0286165513
								326:leaf=0.0229036268
							170:[f22<3.45263553] yes=327,no=328,missing=327
								327:leaf=-0.0399477817
								328:leaf=-0.00280374079
						86:leaf=0.144827589
			10:[f16<150.704788] yes=21,no=22,missing=21
				21:[f27<-0.996984363] yes=43,no=44,missing=43
					43:[f0<24.1261864] yes=87,no=88,missing=87
						87:[f5<95.1994781] yes=171,no=172,missing=171
							171:[f7<0.00388190849] yes=329,no=330,missing=329
								329:leaf=-0.00061735342
								330:leaf=0.0328124948
							172:[f9<79.1047974] yes=331,no=332,missing=331
								331:leaf=-0.0256045517
								332:leaf=0.114705876
						88:[f0<28.2390633] yes=173,no=174,missing=173
							173:[f10<58.8284683] yes=333,no=334,missing=333
								333:leaf=-0.00850414485
								334:leaf=-0.0319785289
							174:[f6<0.00775319058] yes=335,no=336,missing=335
								335:leaf=-0.0385728404
								336:leaf=-2.51457077e-09
					44:[f27<0.027302891] yes=89,no=90,missing=89
						89:[f5<10.9901371] yes=175,no=176,missing=175
							175:[f3<111.875366] yes=337,no=338,missing=337
								337:leaf=-0.0483870953
								338:leaf=0.110526316
							176:[f4<66.5451279] yes=339,no=340,missing=339
								339:leaf=-0.0556174815
								340:leaf=-0.0379377417
						90:[f23<107.596489] yes=177,no=178,missing=177
							177:[f0<19.046051] yes=341,no=342,missing=341
								341:leaf=-0.00639516627
								342:leaf=-0.0368121713
							178:[f21<3.41377521] yes=343,no=344,missing=343
								343:leaf=-0.0534399413
								344:leaf=-0.0330324918
				22:[f0<22.5600929] yes=45,no=46,missing=45
					45:[f16<201.447891] yes=91,no=92,missing=91
						91:[f22<0.411492258] yes=179,no=180,missing=179
							179:[f4<92.5619812] yes=345,no=346,missing=345
								345:leaf=-0.0304951798
								346:leaf=0.0183932316
							180:[f5<48.5853043] yes=347,no=348,missing=347
								347:leaf=-0.028243145
								348:leaf=-0.0444886647
						92:[f23<99.1134109] yes=181,no=182,missing=181
							181:[f27<0.0495493673] yes=349,no=350,missing=349
								349:leaf=-0.0453259684
								350:leaf=-0.030988276
							182:[f15<3.02407789] yes=351,no=352,missing=351
								351:leaf=-0.0534532443
								352:leaf=0.0142857125
					46:[f23<54.0161362] yes=93,no=94,missing=93
						93:[f16<173.791656] yes=183,no=184,missing=183
							183:[f0<28.2226524] yes=353,no=354,missing=353
								353:leaf=-0.0336310863
								354:leaf=-0.0461538471
							184:[f7<0.0407026745] yes=355,no=356,missing=355
								355:leaf=-0.0511751547
								356:leaf=0.0283018835
						94:[f4<299.970703] yes=185,no=186,missing=185
							185:[f17<603.413086] yes=357,no=358,missing=357
								357:leaf=-0.0553063117
								358:leaf=0.00410958705
							186:[f14<0.994743466] yes=359,no=360,missing=359
								359:leaf=0.099999994
								360:leaf=-0.0396226421
	2:[f0<53.1928329] yes=5,no=6,missing=5
		5:[f16<102.730652] yes=11,no=12,missing=11
			11:[f16<83.2435455] yes=23,no=24,missing=23
				23:[f16<77.6600647] yes=47,no=48,missing=47
					47:[f23<49.606041] yes=95,no=96,missing=95
						95:[f9<46.5371017] yes=187,no=188,missing=187
							187:[f5<64.8145142] yes=361,no=362,missing=361
								361:leaf=-0.000920059916
								362:leaf=-0.0295792613
							188:[f8<52.6803741] yes=363,no=364,missing=363
								363:leaf=-0.023145156
								364:leaf=-0.0440587029
						96:[f23<102.165833] yes=189,no=190,missing=189
							189:[f18<0.520713329] yes=365,no=366,missing=365
								365:leaf=0.0692307651
								366:leaf=-0.0416255295
							190:[f16<14.8745127] yes=367,no=368,missing=367
								367:leaf=-0.0161290336
								368:leaf=-0.0519014075
					48:[f5<57.4704018] yes=97,no=98,missing=97
						97:[f10<76.5035095] yes=191,no=192,missing=191
							191:[f5<29.0049057] yes=369,no=370,missing=369
								369:leaf=0.13866432
								370:leaf=0.0679886639
							192:[f18<45.1012802] yes=371,no=372,missing=371
								371:leaf=0.0310601331
								372:leaf=-0.0214285739
						98:[f0<47.4412422] yes=193,no=194,missing=193
							193:[f5<78.0260773] yes=373,no=374,missing=373
								373:leaf=0.0331858359
								374:leaf=-0.00445104111
							194:[f3<136.583435] yes=375,no=376,missing=375
								375:leaf=-0.0313034579
								376:leaf=0.0281879157
				24:[f16<96.0048065] yes=49,no=50,missing=49
					49:[f23<91.7335815] yes=99,no=100,missing=99
						99:[f16<85.7756348] yes=195,no=196,missing=195
							195:[f0<45.0933685] yes=377,no=378,missing=377
								377:leaf=0.111798361
								378:leaf=0.0465940014
							196:[f0<43.7831802] yes=379,no=380,missing=379
								379:leaf=0.19329004
								380:leaf=0.145416409
						100:[f20<1.5] yes=197,no=198,missing=197
							197:[f27<0.0246934704] yes=381,no=382,missing=381
								381:leaf=0.0310771745
								382:leaf=0.104614429
							198:[f9<74.5781174] yes=383,no=384,missing=383
								383:leaf=-0.0292908549
								384:leaf=0.0716417879
					50:[f16<98.9849701] yes=101,no=102,missing=101
						101:[f5<86.455864] yes=199,no=200,missing=199
							199:[f27<-0.995749831] yes=385,no=386,missing=385
								385:leaf=0.0986239836
								386:leaf=0.0437317751
							200:[f3<94.7857285] yes=387,no=388,missing=387
								387:leaf=-0.0125638423
								388:leaf=0.0557297878
						102:[f5<84.7301788] yes=201,no=202,missing=201
							201:[f0<45.8938065] yes=389,no=390,missing=389
								389:leaf=0.0310072359
								390:leaf=-0.0166666694
							202:[f3<74.7493896] yes=391,no=392,missing=391
								391:leaf=-0.0445356928
								392:leaf=-0.0123196468
			12:[f16<110.723068] yes=25,no=26,missing=25
				25:[f0<42.8585205] yes=51,no=52,missing=51
					51:[f23<89.9295349] yes=103,no=104,missing=103
						103:[f6<0.00224129949] yes=203,no=204,missing=203
							203:[f6<-0.00184720638] yes=393,no=394,missing=393
								393:leaf=0.0143297343
								394:leaf=-0.0183962286
							204:[f5<54.3152771] yes=395,no=396,missing=395
								395:leaf=0.0861771032
								396:leaf=-0.0125748515
						104:[f16<103.849365] yes=205,no=206,missing=205
							205:[f13<1.09879446] yes=397,no=398,missing=397
								397:leaf=0.099999994
								398:leaf=-0.0407407396
							206:[f22<4.96360922] yes=399,no=400,missing=399
								399:leaf=-0.0533386953
								400:leaf=0.00882352702
					52:[f17<452.482544] yes=105,no=106,missing=105
						105:[f5<71.0500641] yes=207,no=208,missing=207
							207:[f8<11.4680729] yes=401,no=402,missing=401
								401:leaf=0.0370786451
								402:leaf=-0.029870132
							208:[f10<180.452271] yes=403,no=404,missing=403
								403:leaf=-0.0443306528
								404:leaf=0.00297029433
						106:leaf=0.157894731
				26:[f16<138.291138] yes=53,no=54,missing=53
					53:[f5<66.9565506] yes=107,no=108,missing=107
						107:[f0<44.5635223] yes=209,no=210,missing=209
							209:[f8<11.1945362] yes=405,no=406,missing=405
								405:leaf=0.0142335733
								406:leaf=-0.0364759453
							210:[f10<8.52162552] yes=407,no=408,missing=407
								407:leaf=-0.00592885586
								408:leaf=-0.0494967774
						108:[f6<0.0148202535] yes=211,no=212,missing=211
							211:[f22<6.53534222] yes=409,no=410,missing=409
								409:leaf=-0.051933933
								410:leaf=0.0136363609
							212:[f3<90.8808441] yes=411,no=412,missing=411
								411:leaf=-0.0542553179
								412:leaf=0.0468749963
					54:[f9<289.305908] yes=109,no=110,missing=109
						109:[f0<41.8830223] yes=213,no=214,missing=213
							213:[f16<170.620697] yes=413,no=414,missing=413
								413:leaf=-0.0500068925
								414:leaf=-0.0551557839
							214:[f4<768.993896] yes=415,no=416,missing=415
								415:leaf=-0.0565934554
								416:leaf=0.0157894716
						110:[f5<83.9478149] yes=215,no=216,missing=215
							215:leaf=0.110526316
							216:leaf=-0.0452054814
		6:[f0<67.2233658] yes=13,no=14,missing=13
			13:[f16<100.319359] yes=27,no=28,missing=27
				27:[f16<83.5624695] yes=55,no=56,missing=55
					55:[f16<80.2582245] yes=111,no=112,missing=111
						111:[f10<81.9716339] yes=217,no=218,missing=217
							217:[f5<55.1645966] yes=417,no=418,missing=417
								417:leaf=-0.0318317674
								418:leaf=-0.0492899753
							218:[f18<8.59496403] yes=419,no=420,missing=419
								419:leaf=-0.0294117667
								420:leaf=-0.0542472191
						112:[f5<49.4961166] yes=219,no=220,missing=219
							219:[f10<75.6018982] yes=421,no=422,missing=421
								421:leaf=0.0519142412
								422:leaf=-0.0259423535
							220:[f3<71.8058319] yes=423,no=424,missing=423
								423:leaf=-0.0451558828
								424:leaf=-0.0145038189
					56:[f16<95.6262512] yes=113,no=114,missing=113
						113:[f5<64.5057755] yes=221,no=222,missing=221
							221:[f10<101.372009] yes=425,no=426,missing=425
								425:leaf=0.120082393
								426:leaf=0.0315579176
							222:[f3<58.4115143] yes=427,no=428,missing=427
								427:leaf=-0.0125672845
								428:leaf=0.032930363
						114:[f5<55.1902618] yes=223,no=224,missing=223
							223:[f8<78.428215] yes=429,no=430,missing=429
								429:leaf=0.0448015071
								430:leaf=-0.015976334
							224:[f4<63.3385353] yes=431,no=432,missing=431
								431:leaf=-0.0379368588
								432:leaf=0.0173210129
				28:[f16<110.785767] yes=57,no=58,missing=57
					57:[f7<-0.00496383058] yes=115,no=116,missing=115
						115:[f12<0.57606256] yes=225,no=226,missing=225
							225:[f18<40.6572266] yes=433,no=434,missing=433
								433:leaf=-0.0096774213
								434:leaf=0.099999994
							226:[f0<53.7518158] yes=435,no=436,missing=435
								435:leaf=0.0244897921
								436:leaf=-0.0433602333
						116:[f14<0.231701747] yes=227,no=228,missing=227
							227:[f14<0.18083322] yes=437,no=438,missing=437
								437:leaf=-0.0306122452
								438:leaf=0.11249999
							228:[f3<459.450134] yes=439,no=440,missing=439
								439:leaf=-0.0509080887
								440:leaf=0.0631578937
					58:[f4<635.202576] yes=117,no=118,missing=117
						117:[f4<10.262413] yes=229,no=230,missing=229
							229:leaf=-0.00566037884
							230:[f18<578.108398] yes=441,no=442,missing=441
								441:leaf=-0.0582790673
								442:leaf=-0.0272727292
						118:leaf=-0.00566037884
			14:[f0<85.2084961] yes=29,no=30,missing=29
				29:[f16<104.324219] yes=59,no=60,missing=59
					59:[f16<84.5027008] yes=119,no=120,missing=119
						119:[f10<68.2177124] yes=231,no=232,missing=231
							231:[f5<40.3127899] yes=443,no=444,missing=443
								443:leaf=-0.0249825064
								444:leaf=-0.0522176698
							232:[f16<80.2156219] yes=445,no=446,missing=445
								445:leaf=-0.0579426885
								446:leaf=-0.0494061783
						120:[f16<96.5149689] yes=233,no=234,missing=233
							233:[f5<75.1945038] yes=447,no=448,missing=447
								447:leaf=-0.00205011643
								448:leaf=-0.0340477936
							234:[f10<353.326172] yes=449,no=450,missing=449
								449:leaf=-0.0520756058
								450:leaf=0.110526316
					60:[f6<-0.0811413601] yes=121,no=122,missing=121
						121:leaf=0.0157894716
						122:[f7<0.0532536507] yes=235,no=236,missing=235
							235:[f16<120.914001] yes=451,no=452,missing=451
								451:leaf=-0.0576810502
								452:leaf=-0.0595512874
							236:[f0<81.620636] yes=453,no=454,missing=453
								453:leaf=-0.0413793139
								454:leaf=0.0157894716
				30:[f16<100.225777] yes=61,no=62,missing=61
					61:[f0<95.9928894] yes=123,no=124,missing=123
						123:[f16<83.5386581] yes=237,no=238,missing=237
							237:[f10<8.45753288] yes=455,no=456,missing=455
								455:leaf=-0.0423137881
								456:leaf=-0.0584949441
							238:[f5<63.5257034] yes=457,no=458,missing=457
								457:leaf=-0.0395159833
								458:leaf=-0.0539869927
						124:[f10<45.0810928] yes=239,no=240,missing=239
							239:[f16<42.9309311] yes=459,no=460,missing=459
								459:leaf=-0.051709611
								460:leaf=-0.0587744527
							240:[f3<25.0028515] yes=461,no=462,missing=461
								461:leaf=0.0157894716
								462:leaf=-0.0596648566
					62:[f8<1730.90881] yes=125,no=126,missing=125
						125:leaf=-0.0599233508
						126:[f0<816.718933] yes=241,no=242,missing=241
							241:leaf=0.0157894716
							242:leaf=-0.0396226421
booster[2]:
0:[f20<1.5] yes=1,no=2,missing=1
	1:[f27<0.599334061] yes=3,no=4,missing=3
		3:[f28<0.609589756] yes=7,no=8,missing=7
			7:[f29<0.593361855] yes=15,no=16,missing=15
				15:[f20<0.5] yes=31,no=32,missing=31
					31:[f25<30.0024872] yes=63,no=64,missing=63
						63:[f24<30.0317535] yes=127,no=128,missing=127
							127:[f23<31.185154] yes=255,no=256,missing=255
								255:leaf=-0.059540417
								256:leaf=-0.0581452958
							128:[f21<1.80309439] yes=257,no=258,missing=257
								257:leaf=-0.0528829768
								258:leaf=-0.056711968
						64:[f21<1.84333074] yes=129,no=130,missing=129
							129:[f3<89.5931702] yes=259,no=260,missing=259
								259:leaf=-0.0374432914
								260:leaf=-0.0499820895
							130:[f30<0.76210022] yes=261,no=262,missing=261
								261:leaf=-0.0539117865
								262:leaf=0.110526316
					32:[f30<0.680835605] yes=65,no=66,missing=65
						65:[f25<31.8273888] yes=131,no=132,missing=131
							131:[f27<0.383078396] yes=263,no=264,missing=263
								263:leaf=-0.0442362279
								264:leaf=-0.011980772
							132:[f21<1.64879107] yes=265,no=266,missing=265
								265:leaf=0.0133939115
								266:leaf=-0.0302452333
						66:[f26<38.6472626] yes=133,no=134,missing=133
							133:[f23<322.459717] yes=267,no=268,missing=267
								267:leaf=0.17214483
								268:leaf=0.00612244662
							134:[f23<508.272095] yes=269,no=270,missing=269
								269:leaf=0.252782196
								270:leaf=0.0142857125
				16:[f29<0.840480924] yes=33,no=34,missing=33
					33:[f3<260.291931] yes=67,no=68,missing=67
						67:[f21<1.65115798] yes=135,no=136,missing=135
							135:[f25<40.0749321] yes=271,no=272,missing=271
								271:leaf=0.0713625774
								272:leaf=0.20380266
							136:[f23<177.492599] yes=273,no=274,missing=273
								273:leaf=0.118369974
								274:leaf=0.0178807918
						68:[f29<0.749216557] yes=137,no=138,missing=137
							137:leaf=-0.0548076928
							138:[f17<184.27771] yes=275,no=276,missing=275
								275:leaf=0.110526316
								276:leaf=-0.0375000015
					34:[f3<218.909439] yes=69,no=70,missing=69
						69:[f25<30.7064476] yes=139,no=140,missing=139
							139:[f10<144.996674] yes=277,no=278,missing=277
								277:leaf=-0.0096774213
								278:leaf=0.175862059
							140:[f0<346.174988] yes=279,no=280,missing=279
								279:leaf=0.232884869
								280:leaf=0.0553398021
						70:[f29<0.97467047] yes=141,no=142,missing=141
							141:[f26<64.8612213] yes=281,no=282,missing=281
								281:leaf=-0.0202454012
								282:leaf=0.110526316
							142:[f3<386.38681] yes=283,no=284,missing=283
								283:leaf=0.174125865
								284:leaf=-0.00566037884
			8:[f28<0.823743463] yes=17,no=18,missing=17
				17:[f21<1.77178693] yes=35,no=36,missing=35
					35:[f25<31.7334785] yes=71,no=72,missing=71
						71:[f18<112.889099] yes=143,no=144,missing=143
							143:[f24<39.6272354] yes=285,no=286,missing=285
								285:leaf=0.060280364
								286:leaf=0.149019599
							144:[f21<1.29062498] yes=287,no=288,missing=287
								287:leaf=-0.0220183488
								288:leaf=0.0795918331
						72:[f3<139.634125] yes=145,no=146,missing=145
							145:[f16<23.1880798] yes=289,no=290,missing=289
								289:leaf=-0.0348837189
								290:leaf=0.214168936
							146:[f24<169.464844] yes=291,no=292,missing=291
								291:leaf=0.129878044
								292:leaf=-0.0461538471
					36:[f22<2.02938819] yes=73,no=74,missing=73
						73:[f23<293.106018] yes=147,no=148,missing=147
							147:[f12<1.18706512] yes=293,no=294,missing=293
								293:leaf=0.0380952321
								294:leaf=0.117614962
							148:[f3<55.4277191] yes=295,no=296,missing=295
								295:leaf=0.0827586204
								296:leaf=-0.0302752294
						74:[f3<149.005432] yes=149,no=150,missing=149
							149:[f7<-0.00109994039] yes=297,no=298,missing=297
								297:leaf=0.0754756853
								298:leaf=0.0143438419
							150:[f6<0.00215782388] yes=299,no=300,missing=299
								299:leaf=-0.0465517268
								300:leaf=0.0166666638
				18:[f21<1.77966642] yes=37,no=38,missing=37
					37:[f23<634.8974] yes=75,no=76,missing=75
						75:[f24<53.4536743] yes=151,no=152,missing=151
							151:[f0<16.8195877] yes=301,no=302,missing=301
								301:leaf=0.0378640741
								302:leaf=0.201921061
							152:[f20<0.5] yes=303,no=304,missing=303
								303:leaf=0.0069767423
								304:leaf=0.242470786
						76:[f10<113.128548] yes=153,no=154,missing=153
							153:leaf=0.0962264091
							154:leaf=-0.042857144
					38:[f23<226.166885] yes=77,no=78,missing=77
						77:[f4<116.605301] yes=155,no=156,missing=155
							155:[f0<43.7094955] yes=305,no=306,missing=305
								305:leaf=0.118335895
								306:leaf=0.187348351
							156:[f24<83.6953735] yes=307,no=308,missing=307
								307:leaf=-0.0391304344
								308:leaf=0.0749999955
						78:[f22<1.88267851] yes=157,no=158,missing=157
							157:[f3<325.179169] yes=309,no=310,missing=309
								309:leaf=0.135087714
								310:leaf=-0.0272727292
							158:[f7<-0.0057489248] yes=311,no=312,missing=311
								311:leaf=0.0962264091
								312:leaf=-0.0108433757
		4:[f27<0.859353006] yes=9,no=10,missing=9
			9:[f21<1.80091548] yes=19,no=20,missing=19
				19:[f24<32.588356] yes=39,no=40,missing=39
					39:[f0<58.549118] yes=79,no=80,missing=79
						79:[f8<110.306305] yes=159,no=160,missing=159
							159:[f10<114.55455] yes=313,no=314,missing=313
								313:leaf=0.0285067838
								314:leaf=0.161538452
							160:[f7<0.00339012872] yes=315,no=316,missing=315
								315:leaf=-0.0518797003
								316:leaf=0.0157894716
						80:[f27<0.732267141] yes=161,no=162,missing=161
							161:[f3<215.670853] yes=317,no=318,missing=317
								317:leaf=0.0865525603
								318:leaf=-0.0477272719
							162:[f23<38.7930946] yes=319,no=320,missing=319
								319:leaf=-0.00508474791
								320:leaf=0.166483507
					40:[f23<226.949783] yes=81,no=82,missing=81
						81:[f3<139.323792] yes=163,no=164,missing=163
							163:[f21<1.4534862] yes=321,no=322,missing=321
								321:leaf=0.218444511
								322:leaf=0.15647839
							164:[f21<0.906275392] yes=323,no=324,missing=323
								323:leaf=0.183870956
								324:leaf=0.0656419471
						82:[f21<0.964015007] yes=165,no=166,missing=165
							165:[f27<0.737472177] yes=325,no=326,missing=325
								325:leaf=0.0604838692
								326:leaf=0.200395256
							166:[f12<2.72365427] yes=327,no=328,missing=327
								327:leaf=-0.0149105387
								328:leaf=0.157142848
				20:[f22<1.63801336] yes=41,no=42,missing=41
					41:[f3<106.682274] yes=83,no=84,missing=83
						83:[f0<42.5217514] yes=167,no=168,missing=167
							167:[f23<63.1629333] yes=329,no=330,missing=329
								329:leaf=-0.00297029945
								330:leaf=0.0867768526
							168:[f23<114.417686] yes=331,no=332,missing=331
								331:leaf=0.149635032
								332:leaf=0.0878854617
						84:[f5<35.4082108] yes=169,no=170,missing=169
							169:[f12<0.287438124] yes=333,no=334,missing=333
								333:leaf=-0.0315789469
								334:leaf=0.169565201
							170:[f11<4.20619965] yes=335,no=336,missing=335
								335:leaf=0.0160714258
								336:leaf=0.0769230723
					42:[f23<192.168671] yes=85,no=86,missing=85
						85:[f3<109.816849] yes=171,no=172,missing=171
							171:[f0<34.1869736] yes=337,no=338,missing=337
								337:leaf=-0.00916497223
								338:leaf=0.0603100024
							172:[f16<267.950043] yes=339,no=340,missing=339
								339:leaf=0.00702575827
								340:leaf=-0.0422535203
						86:[f28<0.104647771] yes=173,no=174,missing=173
							173:[f25<65.6509399] yes=341,no=342,missing=341
								341:leaf=-0.0511912405
								342:leaf=0.00612244662
							174:[f16<81.0033569] yes=343,no=344,missing=343
								343:leaf=0.11249999
								344:leaf=-0.042857144
			10:[f21<1.8990252] yes=21,no=22,missing=21
				21:[f24<30.0736942] yes=43,no=44,missing=43
					43:[f3<254.2948] yes=87,no=88,missing=87
						87:[f0<43.8932724] yes=175,no=176,missing=175
							175:[f23<36.941803] yes=345,no=346,missing=345
								345:leaf=-0.00731707504
								346:leaf=0.126829252
							176:[f23<263.613159] yes=347,no=348,missing=347
								347:leaf=0.182264879
								348:leaf=-0.0176470596
						88:[f14<1.30489373] yes=177,no=178,missing=177
							177:leaf=0.0962264091
							178:leaf=-0.0504424758
					44:[f23<299.647095] yes=89,no=90,missing=89
						89:[f22<2.05633092] yes=179,no=180,missing=179
							179:[f9<275.245239] yes=349,no=350,missing=349
								349:leaf=0.252584487
								350:leaf=0.0374999978
							180:[f17<317.33075] yes=351,no=352,missing=351
								351:leaf=0.212337643
								352:leaf=0.0180722866
						90:[f27<0.920779765] yes=181,no=182,missing=181
							181:[f4<29.5660896] yes=353,no=354,missing=353
								353:leaf=0.0157894716
								354:leaf=-0.0504424758
							182:[f17<277.636658] yes=355,no=356,missing=355
								355:leaf=0.211656436
								356:leaf=0.0069767423
				22:[f0<40.2409897] yes=45,no=46,missing=45
					45:[f16<104.557907] yes=91,no=92,missing=91
						91:[f16<82.5694733] yes=183,no=184,missing=183
							183:[f16<32.2800636] yes=357,no=358,missing=357
								357:leaf=0.000958463817
								358:leaf=0.128657311
							184:[f23<62.915947] yes=359,no=360,missing=359
								359:leaf=-0.0496815294
								360:leaf=0.0107569685
						92:[f23<44.4288712] yes=185,no=186,missing=185
							185:[f18<66.9489288] yes=361,no=362,missing=361
								361:leaf=-0.0365853682
								362:leaf=0.0749999955
							186:[f3<240.946289] yes=363,no=364,missing=363
								363:leaf=0.156325296
								364:leaf=-0.0166666694
					46:[f3<135.55954] yes=93,no=94,missing=93
						93:[f23<208.190735] yes=187,no=188,missing=187
							187:[f24<30.1382294] yes=365,no=366,missing=365
								365:leaf=0.151601598
								366:leaf=0.202702686
							188:[f22<1.45823681] yes=367,no=368,missing=367
								367:leaf=0.141450763
								368:leaf=0.0106382947
						94:[f22<1.55930471] yes=189,no=190,missing=189
							189:[f23<229.878082] yes=369,no=370,missing=369
								369:leaf=0.127139866
								370:leaf=0.00810810551
							190:[f23<167.282562] yes=371,no=372,missing=371
								371:leaf=0.0675619766
								372:leaf=-0.018292686
	2:[f28<0.472921729] yes=5,no=6,missing=5
		5:[f27<0.486458451] yes=11,no=12,missing=11
			11:[f29<0.413434744] yes=23,no=24,missing=23
				23:[f30<0.518421352] yes=47,no=48,missing=47
					47:[f21<1.63005996] yes=95,no=96,missing=95
						95:[f24<39.2522888] yes=191,no=192,missing=191
							191:[f27<0.271942139] yes=373,no=374,missing=373
								373:leaf=-0.00440098066
								374:leaf=0.0967213064
							192:[f23<261.090515] yes=375,no=376,missing=375
								375:leaf=0.111293294
								376:leaf=0.044082243
						96:[f3<151.678833] yes=193,no=194,missing=193
							193:[f22<2.09492946] yes=377,no=378,missing=377
								377:leaf=0.0449260734
								378:leaf=-0.000342219806
							194:[f21<4.75900936] yes=379,no=380,missing=379
								379:leaf=-0.0397439711
								380:leaf=0.0428571366
					48:[f3<196.169495] yes=97,no=98,missing=97
						97:[f30<0.745602846] yes=195,no=196,missing=195
							195:[f21<2.312222] yes=381,no=382,missing=381
								381:leaf=0.199547499
								382:leaf=0.0378640741
							196:[f23<636.085693] yes=383,no=384,missing=383
								383:leaf=0.256584078
								384:leaf=0.0488372073
						98:[f29<0.0132677667] yes=197,no=198,missing=197
							197:[f0<120.021744] yes=385,no=386,missing=385
								385:leaf=-0.042857144
								386:leaf=0.0631578937
							198:[f30<0.672935247] yes=387,no=388,missing=387
								387:leaf=0.0378640741
								388:leaf=0.191872776
				24:[f29<0.857651472] yes=49,no=50,missing=49
					49:[f21<1.86243868] yes=99,no=100,missing=99
						99:[f26<35.4778671] yes=199,no=200,missing=199
							199:[f3<231.818451] yes=389,no=390,missing=389
								389:leaf=0.185191333
								390:leaf=0.00612244662
							200:[f0<9.23565865] yes=391,no=392,missing=391
								391:leaf=0.0374999978
								392:leaf=0.237608299
						100:[f22<2.03327465] yes=201,no=202,missing=201
							201:[f4<47.318161] yes=393,no=394,missing=393
								393:leaf=0.189111739
								394:leaf=0.0870535597
							202:[f17<360.342072] yes=395,no=396,missing=395
								395:leaf=0.0757785365
								396:leaf=-0.0518797003
					50:[f21<1.87064481] yes=101,no=102,missing=101
						101:[f23<990.271484] yes=203,no=204,missing=203
							203:[f7<0.029049933] yes=397,no=398,missing=397
								397:leaf=0.262979984
								398:leaf=0.0374999978
							204:leaf=0.0069767423
						102:[f23<400.403656] yes=205,no=206,missing=205
							205:[f17<257.310425] yes=399,no=400,missing=399
								399:leaf=0.238090321
								400:leaf=0.122660093
							206:[f13<1.89117908] yes=401,no=402,missing=401
								401:leaf=0.157894731
								402:leaf=-0.0185840726
			12:[f21<2.02760363] yes=25,no=26,missing=25
				25:[f23<295.102722] yes=51,no=52,missing=51
					51:[f24<36.3291092] yes=103,no=104,missing=103
						103:[f27<0.724916756] yes=207,no=208,missing=207
							207:[f23<38.9130898] yes=403,no=404,missing=403
								403:leaf=0.0132743334
								404:leaf=0.164938599
							208:[f24<36.231842] yes=405,no=406,missing=405
								405:leaf=0.230349407
								406:leaf=-0.0315789469
						104:[f27<0.85562408] yes=209,no=210,missing=209
							209:[f29<0.377609193] yes=407,no=408,missing=407
								407:leaf=0.227373675
								408:leaf=0.272764772
							210:[f14<0.137701407] yes=409,no=410,missing=409
								409:leaf=0.0206896532
								410:leaf=0.269434363
					52:[f21<1.1985532] yes=105,no=106,missing=105
						105:[f22<2.93781376] yes=211,no=212,missing=211
							211:[f18<244.531372] yes=411,no=412,missing=411
								411:leaf=0.224369749
								412:leaf=0.0069767423
							212:[f5<245.423431] yes=413,no=414,missing=413
								413:leaf=0.0631578937
								414:leaf=-0.0348837189
						106:[f22<1.68377042] yes=213,no=214,missing=213
							213:[f16<144.143738] yes=415,no=416,missing=415
								415:leaf=0.188082889
								416:leaf=0.0411764644
							214:[f17<57.3065567] yes=417,no=418,missing=417
								417:leaf=0.11249999
								418:leaf=-0.0405405425
				26:[f27<0.781667948] yes=53,no=54,missing=53
					53:[f23<181.00386] yes=107,no=108,missing=107
						107:[f0<41.4999313] yes=215,no=216,missing=215
							215:[f22<1.32198644] yes=419,no=420,missing=419
								419:leaf=0.175862059
								420:leaf=0.0344768427
							216:[f3<81.3595428] yes=421,no=422,missing=421
								421:leaf=0.219442397
								422:leaf=0.12786144
						108:[f22<1.1741538] yes=217,no=218,missing=217
							217:[f23<406.329834] yes=423,no=424,missing=423
								423:leaf=0.164739877
								424:leaf=-0.00566037884
							218:[f18<66.2267609] yes=425,no=426,missing=425
								425:leaf=0.0947368369
								426:leaf=-0.0295275599
					54:[f17<322.062378] yes=109,no=110,missing=109
						109:[f22<2.13678932] yes=219,no=220,missing=219
							219:[f3<320.125061] yes=427,no=428,missing=427
								427:leaf=0.244714051
								428:leaf=0.0553398021
							220:[f23<155.779739] yes=429,no=430,missing=429
								429:leaf=0.21049419
								430:leaf=0.0944881812
						110:[f10<145.937317] yes=221,no=222,missing=221
							221:[f10<40.9271049] yes=431,no=432,missing=431
								431:leaf=0.0831325278
								432:leaf=-0.0495145619
							222:[f7<-0.00336007169] yes=433,no=434,missing=433
								433:leaf=0.0157894716
								434:leaf=0.175862059
		6:[f21<1.9315064] yes=13,no=14,missing=13
			13:[f3<231.025131] yes=27,no=28,missing=27
				27:[f27<0.527451992] yes=55,no=56,missing=55
					55:[f28<0.691136479] yes=111,no=112,missing=111
						111:[f22<1.93537474] yes=223,no=224,missing=223
							223:[f23<361.503998] yes=435,no=436,missing=435
								435:leaf=0.246654436
								436:leaf=0.154945046
							224:[f5<427.722717] yes=437,no=438,missing=437
								437:leaf=0.183395371
								438:leaf=-0.0461538471
						112:[f0<544.870605] yes=225,no=226,missing=225
							225:[f18<0.407961786] yes=439,no=440,missing=439
								439:leaf=0.104819275
								440:leaf=0.267821491
							226:leaf=0.0157894716
					56:[f7<0.0354783908] yes=113,no=114,missing=113
						113:[f18<246.147583] yes=227,no=228,missing=227
							227:leaf=0.279075325
							228:[f0<82.7956238] yes=441,no=442,missing=441
								441:leaf=0.0157894716
								442:leaf=0.18571429
						114:[f14<1.26776683] yes=229,no=230,missing=229
							229:leaf=0.0157894716
							230:leaf=0.157894731
				28:[f21<1.30149007] yes=57,no=58,missing=57
					57:[f22<2.76804233] yes=115,no=116,missing=115
						115:[f4<295.717621] yes=231,no=232,missing=231
							231:[f28<0.595931888] yes=443,no=444,missing=443
								443:leaf=0.139024377
								444:leaf=0.251387835
							232:leaf=-0.0348837189
						116:[f27<0.926769614] yes=233,no=234,missing=233
							233:[f0<87.3409882] yes=445,no=446,missing=445
								445:leaf=0.0157894716
								446:leaf=-0.042857144
							234:leaf=0.157894731
					58:[f28<0.890247583] yes=117,no=118,missing=117
						117:[f5<93.1022797] yes=235,no=236,missing=235
							235:leaf=0.0631578937
							236:[f3<268.003418] yes=447,no=448,missing=447
								447:leaf=0.0157894716
								448:leaf=-0.0515624993
						118:[f3<244.053619] yes=237,no=238,missing=237
							237:leaf=-0.0396226421
							238:[f12<1.80124664] yes=449,no=450,missing=449
								449:leaf=0.19746834
								450:leaf=-0.0315789469
			14:[f3<130.669495] yes=29,no=30,missing=29
				29:[f23<239.591003] yes=59,no=60,missing=59
					59:[f28<0.58323884] yes=119,no=120,missing=119
						119:[f27<0.486978948] yes=239,no=240,missing=239
							239:[f24<123.470268] yes=451,no=452,missing=451
								451:leaf=0.152054787
								452:leaf=-0.0176470596
							240:[f5<18.0596371] yes=453,no=454,missing=453
								453:leaf=0.0157894716
								454:leaf=0.234597132
						120:[f22<3.13491321] yes=241,no=242,missing=241
							241:[f12<0.611155391] yes=455,no=456,missing=455
								455:leaf=0.200934559
								456:leaf=0.255557358
							242:[f12<1.64378119] yes=457,no=458,missing=457
								457:leaf=0.155172393
								458:leaf=0.237188414
					60:[f22<2.66621852] yes=121,no=122,missing=121
						121:[f5<500.717407] yes=243,no=244,missing=243
							243:[f3<111.118172] yes=459,no=460,missing=459
								459:leaf=0.199216112
								460:leaf=0.069924809
							244:[f9<70.4907532] yes=461,no=462,missing=461
								461:leaf=0.0749999955
								462:leaf=-0.0413793139
						122:[f28<0.930529356] yes=245,no=246,missing=245
							245:[f0<207.555817] yes=463,no=464,missing=463
								463:leaf=-0.0518797003
								464:leaf=0.0157894716
							246:[f5<227.644806] yes=465,no=466,missing=465
								465:leaf=-0.00566037884
								466:leaf=0.149999991
				30:[f23<218.323532] yes=61,no=62,missing=61
					61:[f3<313.344696] yes=123,no=124,missing=123
						123:[f22<3.33483982] yes=247,no=248,missing=247
							247:[f28<0.560768962] yes=467,no=468,missing=467
								467:leaf=0.0721518919
								468:leaf=0.19321163
							248:[f8<109.59729] yes=469,no=470,missing=469
								469:leaf=-0.0290322583
								470:leaf=0.116949141
						124:[f8<490.803986] yes=249,no=250,missing=249
							249:[f4<21.3278275] yes=471,no=472,missing=471
								471:leaf=0.0157894716
								472:leaf=-0.0512195118
							250:leaf=0.149999991
					62:[f22<1.89643633] yes=125,no=126,missing=125
						125:[f28<0.894747317] yes=251,no=252,missing=251
							251:[f23<349.816833] yes=473,no=474,missing=473
								473:leaf=0.0947368369
								474:leaf=-0.0214285739
							252:[f23<525.597473] yes=475,no=476,missing=475
								475:leaf=0.19480519
								476:leaf=0.00882352702
						126:[f29<0.267029822] yes=253,no=254,missing=253
							253:[f12<0.798900127] yes=477,no=478,missing=477
								477:leaf=0.0340909064
								478:leaf=-0.0448051952
							254:[f21<2.45085573] yes=479,no=480,missing=479
								479:leaf=-0.0315789469
								480:leaf=0.157142848
booster[3]:
0:[f21<8.04492378] yes=1,no=2,missing=1
	1:leaf=-0.0598472618
	2:[f3<90.914978] yes=3,no=4,missing=3
		3:leaf=-0.0469879508
		4:leaf=0.0157894716
booster[4]:
0:[f27<0.661215425] yes=1,no=2,missing=1
	1:[f28<0.549792886] yes=3,no=4,missing=3
		3:[f20<0.5] yes=7,no=8,missing=7
			7:[f28<0.526976824] yes=15,no=16,missing=15
				15:[f22<8.29825974] yes=31,no=32,missing=31
					31:[f27<0.0567360409] yes=63,no=64,missing=63
						63:leaf=-0.0597164407
						64:[f27<0.0567363948] yes=115,no=116,missing=115
							115:leaf=0.0157894716
							116:[f27<0.484635442] yes=195,no=196,missing=195
								195:leaf=-0.0591189526
								196:leaf=-0.0513327606
					32:leaf=0.0157894716
				16:[f23<103.297432] yes=33,no=34,missing=33
					33:leaf=0.0488372073
					34:leaf=-0.0452054814
			8:[f27<0.439211071] yes=17,no=18,missing=17
				17:[f29<0.648299813] yes=35,no=36,missing=35
					35:[f20<1.5] yes=65,no=66,missing=65
						65:[f30<0.34871453] yes=117,no=118,missing=117
							117:[f4<10.011241] yes=197,no=198,missing=197
								197:leaf=0.0069767423
								198:leaf=-0.0580061451
							118:[f16<66.9679718] yes=199,no=200,missing=199
								199:leaf=-0.0321314968
								200:leaf=-0.0555967391
						66:[f10<128.486298] yes=119,no=120,missing=119
							119:[f11<0.00630895328] yes=201,no=202,missing=201
								201:leaf=-1.6763807e-09
								202:leaf=-0.0572492592
							120:[f10<128.524231] yes=203,no=204,missing=203
								203:leaf=0.0631578937
								204:leaf=-0.0540618263
					36:[f11<0.00534135802] yes=67,no=68,missing=67
						67:leaf=0.0631578937
						68:[f21<2.13277197] yes=121,no=122,missing=121
							121:[f11<0.164574146] yes=205,no=206,missing=205
								205:leaf=-0.0256281402
								206:leaf=-0.0544065796
							122:[f29<0.653569221] yes=207,no=208,missing=207
								207:leaf=0.0622641444
								208:leaf=-0.0436640121
				18:[f10<119.825569] yes=37,no=38,missing=37
					37:[f9<305.537476] yes=69,no=70,missing=69
						69:[f22<0.470228791] yes=123,no=124,missing=123
							123:[f13<4.81495476] yes=209,no=210,missing=209
								209:leaf=-0.042857144
								210:leaf=0.0631578937
							124:[f27<0.439382672] yes=211,no=212,missing=211
								211:leaf=0.0157894716
								212:leaf=-0.0545623265
						70:[f4<95.1886444] yes=125,no=126,missing=125
							125:leaf=-0.0348837189
							126:leaf=0.0631578937
					38:[f10<120.368546] yes=71,no=72,missing=71
						71:[f18<53.5275955] yes=127,no=128,missing=127
							127:[f5<100.733269] yes=213,no=214,missing=213
								213:leaf=0.0157894716
								214:leaf=0.110526316
							128:leaf=-0.0483870953
						72:[f18<0.455379665] yes=129,no=130,missing=129
							129:[f10<169.607422] yes=215,no=216,missing=215
								215:leaf=-0.0348837189
								216:leaf=0.0631578937
							130:[f22<5.23633575] yes=217,no=218,missing=217
								217:leaf=-0.0503355674
								218:leaf=-0.0230769254
		4:[f20<1.5] yes=9,no=10,missing=9
			9:[f28<0.979189992] yes=19,no=20,missing=19
				19:[f25<43.1035767] yes=39,no=40,missing=39
					39:[f9<20.9430618] yes=73,no=74,missing=73
						73:[f22<0.555307388] yes=131,no=132,missing=131
							131:leaf=0.0157894716
							132:[f11<6.06043434] yes=219,no=220,missing=219
								219:leaf=-0.0572192483
								220:leaf=-0.0290322583
						74:[f16<77.1136169] yes=133,no=134,missing=133
							133:[f16<49.5591774] yes=221,no=222,missing=221
								221:leaf=-0.0480206572
								222:leaf=-0.0208962504
							134:[f3<32.2029343] yes=223,no=224,missing=223
								223:leaf=0.020388348
								224:leaf=-0.0451993011
					40:[f22<4.14502859] yes=75,no=76,missing=75
						75:[f23<455.201233] yes=135,no=136,missing=135
							135:[f16<13.517148] yes=225,no=226,missing=225
								225:leaf=0.0157894716
								226:leaf=-0.0561194718
							136:[f8<39.0260658] yes=227,no=228,missing=227
								227:leaf=0.0428571403
								228:leaf=-0.042537313
						76:[f3<88.606369] yes=137,no=138,missing=137
							137:leaf=-0.0348837189
							138:leaf=0.0631578937
				20:[f28<0.97935921] yes=41,no=42,missing=41
					41:leaf=0.110526316
					42:[f15<0.143830031] yes=77,no=78,missing=77
						77:[f12<1.80929053] yes=139,no=140,missing=139
							139:leaf=0.157894731
							140:leaf=-0.0348837189
						78:[f14<2.71996212] yes=141,no=142,missing=141
							141:[f11<0.0323676541] yes=229,no=230,missing=229
								229:leaf=0.0622641444
								230:leaf=-0.0387503095
							142:[f21<1.88302231] yes=231,no=232,missing=231
								231:leaf=-0.0433526002
								232:leaf=0.0608391538
			10:[f21<1.83350921] yes=21,no=22,missing=21
				21:[f24<39.191803] yes=43,no=44,missing=43
					43:[f28<0.564420342] yes=79,no=80,missing=79
						79:leaf=0.0631578937
						80:[f11<1.29718089] yes=143,no=144,missing=143
							143:[f4<76.5460892] yes=233,no=234,missing=233
								233:leaf=-0.0272727292
								234:leaf=0.110526316
							144:[f6<0.01209467] yes=235,no=236,missing=235
								235:leaf=-0.0522833169
								236:leaf=0.0157894716
					44:[f16<13.2048149] yes=81,no=82,missing=81
						81:[f5<49.5238037] yes=145,no=146,missing=145
							145:leaf=0.0488372073
							146:leaf=-0.042857144
						82:[f0<587.072754] yes=147,no=148,missing=147
							147:[f8<0.0431560986] yes=237,no=238,missing=237
								237:leaf=0.0157894716
								238:leaf=-0.0558244772
							148:leaf=0.0157894716
				22:[f15<2.92021942] yes=45,no=46,missing=45
					45:[f0<3.8913548] yes=83,no=84,missing=83
						83:leaf=0.0488372073
						84:[f10<340.080505] yes=149,no=150,missing=149
							149:[f7<0.0168784335] yes=239,no=240,missing=239
								239:leaf=-0.048473347
								240:leaf=0.00291261892
							150:[f11<3.55653429] yes=241,no=242,missing=241
								241:leaf=-0.0531645529
								242:leaf=0.0499999933
					46:[f25<36.5862122] yes=85,no=86,missing=85
						85:[f17<-18.7583237] yes=151,no=152,missing=151
							151:leaf=-0.0375000015
							152:leaf=0.149999991
						86:leaf=-0.0477272719
	2:[f20<1.5] yes=5,no=6,missing=5
		5:[f25<30.2270126] yes=11,no=12,missing=11
			11:[f27<0.948783875] yes=23,no=24,missing=23
				23:[f6<0.0290358849] yes=47,no=48,missing=47
					47:[f8<94.0533142] yes=87,no=88,missing=87
						87:[f14<0.201435864] yes=153,no=154,missing=153
							153:[f14<0.148054451] yes=243,no=244,missing=243
								243:leaf=-0.0375000015
								244:leaf=0.110526316
							154:[f12<2.84415579] yes=245,no=246,missing=245
								245:leaf=-0.0435544439
								246:leaf=-0.019444447
						88:[f16<57.3865433] yes=155,no=156,missing=155
							155:[f16<54.3271484] yes=247,no=248,missing=247
								247:leaf=-0.0167902913
								248:leaf=0.0689189136
							156:[f23<119.585838] yes=249,no=250,missing=249
								249:leaf=-0.0298126079
								250:leaf=-0.0457216315
					48:[f11<2.95095491] yes=89,no=90,missing=89
						89:[f0<58.7249413] yes=157,no=158,missing=157
							157:leaf=0.0157894716
							158:leaf=-0.0348837189
						90:leaf=0.132558137
				24:[f24<30.7293892] yes=49,no=50,missing=49
					49:[f10<123.460678] yes=91,no=92,missing=91
						91:[f23<56.4537201] yes=159,no=160,missing=159
							159:[f12<3.00448084] yes=251,no=252,missing=251
								251:leaf=-0.0370689668
								252:leaf=0.0906976685
							160:[f14<2.92835236] yes=253,no=254,missing=253
								253:leaf=-0.012847485
								254:leaf=0.132558137
						92:[f5<72.1366196] yes=161,no=162,missing=161
							161:[f12<0.995226383] yes=255,no=256,missing=255
								255:leaf=-0.00186335656
								256:leaf=0.0511830561
							162:[f10<125.376221] yes=257,no=258,missing=257
								257:leaf=0.0954545364
								258:leaf=-0.00768615073
					50:[f9<245.979477] yes=93,no=94,missing=93
						93:[f8<205.631378] yes=163,no=164,missing=163
							163:[f22<4.42249584] yes=259,no=260,missing=259
								259:leaf=-0.033193782
								260:leaf=0.0269662887
							164:[f21<2.01520872] yes=261,no=262,missing=261
								261:leaf=-0.0301507544
								262:leaf=0.0627906919
						94:[f7<0.000223620969] yes=165,no=166,missing=165
							165:leaf=-0.0375000015
							166:leaf=0.144827589
			12:[f23<43.9436417] yes=25,no=26,missing=25
				25:[f12<2.40430641] yes=51,no=52,missing=51
					51:[f21<2.41250515] yes=95,no=96,missing=95
						95:leaf=-0.0504424758
						96:leaf=0.0374999978
					52:leaf=0.11249999
				26:[f3<136.77327] yes=53,no=54,missing=53
					53:[f21<4.99976015] yes=97,no=98,missing=97
						97:[f21<1.51256418] yes=167,no=168,missing=167
							167:[f8<243.861572] yes=263,no=264,missing=263
								263:leaf=-0.05603645
								264:leaf=-0.0283783805
							168:[f21<1.53210139] yes=265,no=266,missing=265
								265:leaf=0.0340909064
								266:leaf=-0.0478409603
						98:leaf=0.0631578937
					54:[f6<0.000474570144] yes=99,no=100,missing=99
						99:[f13<0.138514876] yes=169,no=170,missing=169
							169:[f2<12] yes=267,no=268,missing=267
								267:leaf=-0.0315789469
								268:leaf=0.0631578937
							170:[f4<22.6671333] yes=269,no=270,missing=269
								269:leaf=-0.0245901644
								270:leaf=-0.0561889224
						100:[f27<0.96133852] yes=171,no=172,missing=171
							171:[f22<3.20511436] yes=271,no=272,missing=271
								271:leaf=-0.0449101813
								272:leaf=0.0517241359
							172:[f5<122.440216] yes=273,no=274,missing=273
								273:leaf=0.0909090862
								274:leaf=-0.0353612192
		6:[f21<1.80836916] yes=13,no=14,missing=13
			13:[f24<38.9616241] yes=27,no=28,missing=27
				27:[f29<0.996871591] yes=55,no=56,missing=55
					55:[f17<-110.728729] yes=101,no=102,missing=101
						101:[f9<68.6429367] yes=173,no=174,missing=173
							173:leaf=0.110526316
							174:leaf=-0.0469879508
						102:[f21<0.532017052] yes=175,no=176,missing=175
							175:[f0<83.4515381] yes=275,no=276,missing=275
								275:leaf=0.0461538397
								276:leaf=-0.0495145619
							176:[f24<38.425209] yes=277,no=278,missing=277
								277:leaf=-0.0508726798
								278:leaf=-0.0243243258
					56:leaf=0.0283018835
				28:[f17<218.198105] yes=57,no=58,missing=57
					57:[f10<1.78873897] yes=103,no=104,missing=103
						103:[f0<148.020966] yes=177,no=178,missing=177
							177:[f17<172.429504] yes=279,no=280,missing=279
								279:leaf=-0.0545454584
								280:leaf=0.0631578937
							178:leaf=0.0631578937
						104:[f24<276.362885] yes=179,no=180,missing=179
							179:[f7<0.0471364409] yes=281,no=282,missing=281
								281:leaf=-0.0555982701
								282:leaf=0.0157894716
							180:[f18<58.5321121] yes=283,no=284,missing=283
								283:leaf=-0.0508474596
								284:leaf=0.0428571403
					58:[f10<410.772308] yes=105,no=106,missing=105
						105:[f1<12] yes=181,no=182,missing=181
							181:[f21<1.58337355] yes=285,no=286,missing=285
								285:leaf=-0.0552457832
								286:leaf=-0.0202454012
							182:[f9<32.6928635] yes=287,no=288,missing=287
								287:leaf=0.0168539286
								288:leaf=-0.0417218544
						106:leaf=0.0488372073
			14:[f3<131.344223] yes=29,no=30,missing=29
				29:[f24<30.717329] yes=59,no=60,missing=59
					59:[f4<97.0405884] yes=107,no=108,missing=107
						107:[f28<0.237270236] yes=183,no=184,missing=183
							183:[f1<0] yes=289,no=290,missing=289
								289:leaf=-0.0280325022
								290:leaf=-0.0501144193
							184:[f6<-0.000282975321] yes=291,no=292,missing=291
								291:leaf=-0.0500000007
								292:leaf=0.07281553
						108:[f12<1.18890941] yes=185,no=186,missing=185
							185:leaf=-0.0315789469
							186:leaf=0.110526316
					60:[f17<-100.317917] yes=109,no=110,missing=109
						109:[f5<88.745079] yes=187,no=188,missing=187
							187:[f28<0.120141014] yes=293,no=294,missing=293
								293:leaf=0.113793097
								294:leaf=-0.0176470596
							188:[f1<12] yes=295,no=296,missing=295
								295:leaf=-0.054098364
								296:leaf=0.0142857125
						110:[f25<46.8707886] yes=189,no=190,missing=189
							189:[f28<0.0143543379] yes=297,no=298,missing=297
								297:leaf=-0.0337434113
								298:leaf=-0.0497755669
							190:[f27<0.999789894] yes=299,no=300,missing=299
								299:leaf=-0.0573011711
								300:leaf=-0.00566037884
				30:[f7<0.00242084917] yes=61,no=62,missing=61
					61:[f11<0.0690688044] yes=111,no=112,missing=111
						111:leaf=0.0906976685
						112:[f14<0.152082443] yes=191,no=192,missing=191
							191:leaf=0.0631578937
							192:[f13<0.243723288] yes=301,no=302,missing=301
								301:leaf=0.0157894697
								302:leaf=-0.038634602
					62:[f7<0.0028166743] yes=113,no=114,missing=113
						113:leaf=0.144827589
						114:[f21<2.91976261] yes=193,no=194,missing=193
							193:[f12<0.899318218] yes=303,no=304,missing=303
								303:leaf=-0.0508474596
								304:leaf=0.0328621864
							194:[f7<0.0122044627] yes=305,no=306,missing=305
								305:leaf=-0.0561151095
								306:leaf=0.0157894716
booster[5]:
0:[f16<34.4789543] yes=1,no=2,missing=1
	1:[f0<50.7546768] yes=3,no=4,missing=3
		3:[f21<1.94135022] yes=7,no=8,missing=7
			7:[f18<42.5835342] yes=15,no=16,missing=15
				15:[f12<1.84400785] yes=31,no=32,missing=31
					31:[f5<28.7981033] yes=63,no=64,missing=63
						63:[f3<30.5050621] yes=125,no=126,missing=125
							125:[f18<39.1499557] yes=245,no=246,missing=245
								245:leaf=0.250054389
								246:leaf=0.122797921
							126:[f4<12.650835] yes=247,no=248,missing=247
								247:leaf=0.156338021
								248:leaf=0.0130434753
						64:[f19<1.5] yes=127,no=128,missing=127
							127:[f18<30.8531265] yes=249,no=250,missing=249
								249:leaf=0.125531897
								250:leaf=0.000748127
							128:[f9<44.8078728] yes=251,no=252,missing=251
								251:leaf=0.235329315
								252:leaf=0.0614457801
					32:[f18<25.0687065] yes=65,no=66,missing=65
						65:[f12<2.55397606] yes=129,no=130,missing=129
							129:[f20<0.5] yes=253,no=254,missing=253
								253:leaf=0.162295073
								254:leaf=-0.0103448285
							130:leaf=-0.0469879508
						66:[f24<53.0958405] yes=131,no=132,missing=131
							131:[f12<1.98027015] yes=255,no=256,missing=255
								255:leaf=0.0174887851
								256:leaf=-0.054098364
							132:[f28<0.301704258] yes=257,no=258,missing=257
								257:leaf=0.143478259
								258:leaf=-0.0375000015
				16:[f19<1.5] yes=33,no=34,missing=33
					33:[f18<44.8792496] yes=67,no=68,missing=67
						67:[f5<17.8953514] yes=133,no=134,missing=133
							133:[f15<1.17480159] yes=259,no=260,missing=259
								259:leaf=-0.00566037884
								260:leaf=0.184615374
							134:[f12<0.803003073] yes=261,no=262,missing=261
								261:leaf=0.0219512172
								262:leaf=-0.0547920428
						68:[f4<10.2073898] yes=135,no=136,missing=135
							135:[f3<84.7147217] yes=263,no=264,missing=263
								263:leaf=-0.0452054814
								264:leaf=0.0631578937
							136:[f3<25.1875076] yes=265,no=266,missing=265
								265:leaf=0.0157894716
								266:leaf=-0.0583692603
					34:[f12<1.51876307] yes=69,no=70,missing=69
						69:[f18<78.2081604] yes=137,no=138,missing=137
							137:[f23<81.4390411] yes=267,no=268,missing=267
								267:leaf=0.0803149566
								268:leaf=0.218720585
							138:[f23<139.943222] yes=269,no=270,missing=269
								269:leaf=-0.0404011458
								270:leaf=0.0979823396
						70:[f23<293.563293] yes=139,no=140,missing=139
							139:[f18<74.8347473] yes=271,no=272,missing=271
								271:leaf=0.00562640373
								272:leaf=-0.0494550429
							140:[f5<262.4021] yes=273,no=274,missing=273
								273:leaf=0.178378373
								274:leaf=0.0162561536
			8:[f18<64.5171356] yes=17,no=18,missing=17
				17:[f12<2.00066781] yes=35,no=36,missing=35
					35:[f23<40.6246719] yes=71,no=72,missing=71
						71:[f18<43.1262589] yes=141,no=142,missing=141
							141:[f3<35.5118866] yes=275,no=276,missing=275
								275:leaf=0.257219255
								276:leaf=0.078082189
							142:[f12<1.35946488] yes=277,no=278,missing=277
								277:leaf=0.0888888836
								278:leaf=-0.0326086991
						72:[f0<36.1467819] yes=143,no=144,missing=143
							143:[f18<52.536293] yes=279,no=280,missing=279
								279:leaf=0.274845004
								280:leaf=0.239542753
							144:[f12<1.45336211] yes=281,no=282,missing=281
								281:leaf=0.242030889
								282:leaf=0.164965197
					36:[f5<113.152145] yes=73,no=74,missing=73
						73:[f18<31.972496] yes=145,no=146,missing=145
							145:[f12<2.72535753] yes=283,no=284,missing=283
								283:leaf=0.181081071
								284:leaf=-0.0176470596
							146:[f18<40.5617943] yes=285,no=286,missing=285
								285:leaf=0.00967741664
								286:leaf=-0.0564575605
						74:[f21<2.3306942] yes=147,no=148,missing=147
							147:[f5<241.995148] yes=287,no=288,missing=287
								287:leaf=0.0882352889
								288:leaf=-0.0441176482
							148:[f21<4.43596077] yes=289,no=290,missing=289
								289:leaf=0.21588783
								290:leaf=0.00612244662
				18:[f23<97.3335114] yes=37,no=38,missing=37
					37:[f24<41.7533875] yes=75,no=76,missing=75
						75:[f12<0.84392941] yes=149,no=150,missing=149
							149:[f25<32.341404] yes=291,no=292,missing=291
								291:leaf=-0.0284671541
								292:leaf=0.157894731
							150:[f27<0.970216691] yes=293,no=294,missing=293
								293:leaf=-0.0571080819
								294:leaf=0.0352941118
						76:[f18<92.8687744] yes=151,no=152,missing=151
							151:[f12<1.4633503] yes=295,no=296,missing=295
								295:leaf=0.179513171
								296:leaf=-0.0272727292
							152:[f27<0.13383913] yes=297,no=298,missing=297
								297:leaf=-0.0564935021
								298:leaf=0.00867051724
					38:[f17<122.559311] yes=77,no=78,missing=77
						77:[f12<1.72052836] yes=153,no=154,missing=153
							153:[f5<65.7170105] yes=299,no=300,missing=299
								299:leaf=0.0254826229
								300:leaf=0.234589487
							154:[f5<209.780975] yes=301,no=302,missing=301
								301:leaf=-0.0431438126
								302:leaf=0.138709664
						78:[f5<148.65744] yes=155,no=156,missing=155
							155:[f18<87.7387085] yes=303,no=304,missing=303
								303:leaf=0.175862059
								304:leaf=-0.037878789
							156:[f12<1.49889112] yes=305,no=306,missing=305
								305:leaf=0.190460518
								306:leaf=-0.0171215888
		4:[f0<68.3295746] yes=9,no=10,missing=9
			9:[f18<47.8357315] yes=19,no=20,missing=19
				19:[f21<2.10792398] yes=39,no=40,missing=39
					39:[f24<34.6237869] yes=79,no=80,missing=79
						79:[f5<25.3370705] yes=157,no=158,missing=157
							157:[f18<33.8549805] yes=307,no=308,missing=307
								307:leaf=0.205882341
								308:leaf=-2.53038568e-09
							158:[f18<20.6550465] yes=309,no=310,missing=309
								309:leaf=0.0617646985
								310:leaf=-0.0429611653
						80:[f12<1.86669624] yes=159,no=160,missing=159
							159:[f5<128.047653] yes=311,no=312,missing=311
								311:leaf=0.160681114
								312:leaf=-0.0205479469
							160:[f10<52.8008194] yes=313,no=314,missing=313
								313:leaf=0.0534246527
								314:leaf=-0.0442622975
					40:[f12<1.99595523] yes=81,no=82,missing=81
						81:[f23<51.5363083] yes=161,no=162,missing=161
							161:[f4<15.9266396] yes=315,no=316,missing=315
								315:leaf=0.195979878
								316:leaf=0.0624999963
							162:[f20<1.5] yes=317,no=318,missing=317
								317:leaf=0.241368055
								318:leaf=-2.06323758e-09
						82:[f17<-19.5151768] yes=163,no=164,missing=163
							163:leaf=0.183870956
							164:[f23<150.912231] yes=319,no=320,missing=319
								319:leaf=-0.019453926
								320:leaf=0.106451608
				20:[f23<99.2281799] yes=41,no=42,missing=41
					41:[f24<32.4043427] yes=83,no=84,missing=83
						83:[f21<2.97540665] yes=165,no=166,missing=165
							165:[f27<0.974889636] yes=321,no=322,missing=321
								321:leaf=-0.0586985126
								322:leaf=0.0157894716
							166:[f18<54.815773] yes=323,no=324,missing=323
								323:leaf=0.0243243203
								324:leaf=-0.0492688417
						84:[f18<67.9857178] yes=167,no=168,missing=167
							167:[f12<1.46821082] yes=325,no=326,missing=325
								325:leaf=0.12289156
								326:leaf=-0.0331828445
							168:[f12<0.766802669] yes=327,no=328,missing=327
								327:leaf=0.00891088787
								328:leaf=-0.0478873216
					42:[f12<1.32035518] yes=85,no=86,missing=85
						85:[f3<73.837326] yes=169,no=170,missing=169
							169:[f5<64.1652679] yes=329,no=330,missing=329
								329:leaf=-0.00805369299
								330:leaf=0.186839893
							170:[f5<198.448212] yes=331,no=332,missing=331
								331:leaf=-0.0326086991
								332:leaf=0.15882352
						86:[f18<73.3106766] yes=171,no=172,missing=171
							171:[f12<1.89323759] yes=333,no=334,missing=333
								333:leaf=0.0808022842
								334:leaf=-0.0133253327
							172:[f25<39.8800125] yes=335,no=336,missing=335
								335:leaf=-0.0490832143
								336:leaf=0.0115830088
			10:[f24<30.0221958] yes=21,no=22,missing=21
				21:[f18<26.9948692] yes=43,no=44,missing=43
					43:[f5<47.1990089] yes=87,no=88,missing=87
						87:[f15<0.903901339] yes=173,no=174,missing=173
							173:leaf=0.0157894716
							174:[f15<2.15244913] yes=337,no=338,missing=337
								337:leaf=0.233333334
								338:leaf=0.0827586204
						88:[f21<3.56515741] yes=175,no=176,missing=175
							175:[f7<0.0103532029] yes=339,no=340,missing=339
								339:leaf=-0.0578528829
								340:leaf=0.0142857125
							176:[f9<63.8058395] yes=341,no=342,missing=341
								341:leaf=0.113793097
								342:leaf=-0.0348837189
					44:[f21<2.59084225] yes=89,no=90,missing=89
						89:[f27<0.999022245] yes=177,no=178,missing=177
							177:[f18<34.0748672] yes=343,no=344,missing=343
								343:leaf=-0.0463609174
								344:leaf=-0.0593214929
							178:leaf=0.0374999978
						90:[f0<84.479126] yes=179,no=180,missing=179
							179:[f18<42.4692574] yes=345,no=346,missing=345
								345:leaf=0.0705382377
								346:leaf=-0.034253452
							180:[f12<1.30794811] yes=347,no=348,missing=347
								347:leaf=-0.0469571389
								348:leaf=-0.0581534877
				22:[f0<93.5245285] yes=45,no=46,missing=45
					45:[f12<1.51471198] yes=91,no=92,missing=91
						91:[f18<72.9489288] yes=181,no=182,missing=181
							181:[f21<2.41010094] yes=349,no=350,missing=349
								349:leaf=0.0378299057
								350:leaf=0.126727059
							182:[f5<167.622192] yes=351,no=352,missing=351
								351:leaf=-0.0336624794
								352:leaf=0.0683972836
						92:[f18<54.8923836] yes=183,no=184,missing=183
							183:[f12<2.13825226] yes=353,no=354,missing=353
								353:leaf=0.0280219745
								354:leaf=-0.0339699872
							184:[f8<7.08495569] yes=355,no=356,missing=355
								355:leaf=0.054545451
								356:leaf=-0.0506120287
					46:[f12<1.37166452] yes=93,no=94,missing=93
						93:[f30<0.0214975029] yes=185,no=186,missing=185
							185:[f17<58.6448708] yes=357,no=358,missing=357
								357:leaf=-0.0254729446
								358:leaf=-0.0512539223
							186:[f19<4.5] yes=359,no=360,missing=359
								359:leaf=-0.0203883518
								360:leaf=0.052715648
						94:[f15<2.79648924] yes=187,no=188,missing=187
							187:[f9<154.76413] yes=361,no=362,missing=361
								361:leaf=-0.0537607968
								362:leaf=0.0292035379
							188:[f12<1.96047378] yes=363,no=364,missing=363
								363:leaf=0.11249999
								364:leaf=-0.0315789469
	2:[f16<39.0797348] yes=5,no=6,missing=5
		5:[f18<22.809803] yes=11,no=12,missing=11
			11:[f0<51.9443016] yes=23,no=24,missing=23
				23:[f12<2.64103293] yes=47,no=48,missing=47
					47:[f3<30.4843063] yes=95,no=96,missing=95
						95:[f5<98.4737244] yes=189,no=190,missing=189
							189:[f4<14.4595537] yes=365,no=366,missing=365
								365:leaf=0.225551471
								366:leaf=0.127476022
							190:leaf=-0.0413793139
						96:[f21<3.02979469] yes=191,no=192,missing=191
							191:[f5<25.5343895] yes=367,no=368,missing=367
								367:leaf=0.0870967731
								368:leaf=-0.022543354
							192:[f0<18.3014221] yes=369,no=370,missing=369
								369:leaf=0.0749999955
								370:leaf=0.214285716
					48:[f3<25.6291046] yes=97,no=98,missing=97
						97:leaf=0.0157894716
						98:leaf=-0.0529411733
				24:[f5<32.8658447] yes=49,no=50,missing=49
					49:[f18<18.2218819] yes=99,no=100,missing=99
						99:[f16<37.8078117] yes=193,no=194,missing=193
							193:[f8<84.2046814] yes=371,no=372,missing=371
								371:leaf=0.232330829
								372:leaf=0.0374999978
							194:[f1<0] yes=373,no=374,missing=373
								373:leaf=0.110526316
								374:leaf=-0.0396226421
						100:[f4<14.6867523] yes=195,no=196,missing=195
							195:leaf=-0.0441176482
							196:leaf=0.0157894716
					50:[f27<0.170401692] yes=101,no=102,missing=101
						101:[f5<36.759594] yes=197,no=198,missing=197
							197:[f0<92.1573181] yes=375,no=376,missing=375
								375:leaf=-0.0348837189
								376:leaf=0.0631578937
							198:[f28<0.0346109383] yes=377,no=378,missing=377
								377:leaf=-0.0577981658
								378:leaf=-0.0259259287
						102:[f10<90.9727631] yes=199,no=200,missing=199
							199:leaf=-0.0527027026
							200:[f4<12.3337498] yes=379,no=380,missing=379
								379:leaf=0.187499985
								380:leaf=-0.00566037884
			12:[f0<42.0784912] yes=25,no=26,missing=25
				25:[f18<49.4197769] yes=51,no=52,missing=51
					51:[f23<38.1415138] yes=103,no=104,missing=103
						103:[f18<31.7217255] yes=201,no=202,missing=201
							201:[f5<24.4143543] yes=381,no=382,missing=381
								381:leaf=0.132203385
								382:leaf=-0.0243816283
							202:[f20<0.5] yes=383,no=384,missing=383
								383:leaf=-0.0589123853
								384:leaf=0.0142857125
						104:[f12<1.93571568] yes=203,no=204,missing=203
							203:[f27<0.212814838] yes=385,no=386,missing=385
								385:leaf=0.210363373
								386:leaf=0.0749999955
							204:[f21<2.35286522] yes=387,no=388,missing=387
								387:leaf=-0.0309417043
								388:leaf=0.060431648
					52:[f23<168.802124] yes=105,no=106,missing=105
						105:[f25<51.432579] yes=205,no=206,missing=205
							205:[f24<71.0596771] yes=389,no=390,missing=389
								389:leaf=-0.0543813482
								390:leaf=-0.00173410645
							206:[f12<1.1279757] yes=391,no=392,missing=391
								391:leaf=0.167647049
								392:leaf=-0.0398601405
						106:[f21<2.47251797] yes=207,no=208,missing=207
							207:[f0<15.7051773] yes=393,no=394,missing=393
								393:leaf=0.0827586204
								394:leaf=-0.0405405425
							208:[f18<133.378708] yes=395,no=396,missing=395
								395:leaf=0.139534876
								396:leaf=-0.0185840726
				26:[f23<53.5613365] yes=53,no=54,missing=53
					53:[f27<0.98502779] yes=107,no=108,missing=107
						107:[f25<42.5462494] yes=209,no=210,missing=209
							209:[f28<0.0271561611] yes=397,no=398,missing=397
								397:leaf=-0.0590386949
								398:leaf=-0.0465240628
							210:leaf=0.0157894716
						108:[f4<33.6200027] yes=211,no=212,missing=211
							211:leaf=-0.0452054814
							212:leaf=0.0631578937
					54:[f0<56.3512688] yes=109,no=110,missing=109
						109:[f18<51.8971481] yes=213,no=214,missing=213
							213:[f12<1.62724137] yes=399,no=400,missing=399
								399:leaf=0.166995063
								400:leaf=0.00914633926
							214:[f12<0.192772925] yes=401,no=402,missing=401
								401:leaf=0.0749999955
								402:leaf=-0.0440832265
						110:[f28<0.310465813] yes=215,no=216,missing=215
							215:[f18<36.2843933] yes=403,no=404,missing=403
								403:leaf=-0.0307917893
								404:leaf=-0.0540620685
							216:[f5<87.3197174] yes=405,no=406,missing=405
								405:leaf=0.00802675262
								406:leaf=-0.0491308346
		6:[f27<0.450433135] yes=13,no=14,missing=13
			13:[f28<0.499154001] yes=27,no=28,missing=27
				27:[f4<19.917408] yes=55,no=56,missing=55
					55:[f16<42.031517] yes=111,no=112,missing=111
						111:[f0<51.167305] yes=217,no=218,missing=217
							217:[f18<21.8562851] yes=407,no=408,missing=407
								407:leaf=0.0618408397
								408:leaf=-0.0394540951
							218:[f3<25.2446289] yes=409,no=410,missing=409
								409:leaf=0.00612244662
								410:leaf=-0.0558978692
						112:[f29<0.540336907] yes=219,no=220,missing=219
							219:[f20<0.5] yes=411,no=412,missing=411
								411:leaf=-0.0582828112
								412:leaf=-0.0528171733
							220:[f5<69.0069122] yes=413,no=414,missing=413
								413:leaf=0.00668953359
								414:leaf=-0.0434316359
					56:[f29<0.213677093] yes=113,no=114,missing=113
						113:[f20<0.5] yes=221,no=222,missing=221
							221:[f27<0.446920395] yes=415,no=416,missing=415
								415:leaf=-0.0596926473
								416:leaf=0.0157894716
							222:[f3<42.0989304] yes=417,no=418,missing=417
								417:leaf=-0.0547056086
								418:leaf=-0.0587409027
						114:[f16<72.4372101] yes=223,no=224,missing=223
							223:[f14<3.05963326] yes=419,no=420,missing=419
								419:leaf=-0.0441668406
								420:leaf=0.110526316
							224:[f7<-0.0374167264] yes=421,no=422,missing=421
								421:leaf=0.0283018835
								422:leaf=-0.0559220612
				28:[f5<92.0210724] yes=57,no=58,missing=57
					57:[f4<19.3850098] yes=115,no=116,missing=115
						115:[f13<0.58395195] yes=225,no=226,missing=225
							225:[f8<80.0700912] yes=423,no=424,missing=423
								423:leaf=0.12524271
								424:leaf=-0.0162162166
							226:[f27<0.0178350434] yes=425,no=426,missing=425
								425:leaf=0.0074626836
								426:leaf=-0.0295546558
						116:[f16<119.20932] yes=227,no=228,missing=227
							227:[f6<-0.00996715855] yes=427,no=428,missing=427
								427:leaf=0.0126760527
								428:leaf=-0.0392620638
							228:[f5<90.9346008] yes=429,no=430,missing=429
								429:leaf=-0.0505586267
								430:leaf=-0.00173410645
					58:[f16<56.1353912] yes=117,no=118,missing=117
						117:[f7<-0.0174331944] yes=229,no=230,missing=229
							229:leaf=0.0749999955
							230:[f13<6.26197386] yes=431,no=432,missing=431
								431:leaf=-0.0449444167
								432:leaf=0.0631578937
						118:[f26<150.385895] yes=231,no=232,missing=231
							231:[f6<0.0236000288] yes=433,no=434,missing=433
								433:leaf=-0.0554001108
								434:leaf=-0.0093750013
							232:[f0<68.8957977] yes=435,no=436,missing=435
								435:leaf=0.110526316
								436:leaf=-0.0452054814
			14:[f5<93.5521698] yes=29,no=30,missing=29
				29:[f16<77.2310181] yes=59,no=60,missing=59
					59:[f9<112.270996] yes=119,no=120,missing=119
						119:[f4<13.6796446] yes=233,no=234,missing=233
							233:[f8<105.668533] yes=437,no=438,missing=437
								437:leaf=0.0073619606
								438:leaf=-0.0418326706
							234:[f24<253.019226] yes=439,no=440,missing=439
								439:leaf=-0.0360428169
								440:leaf=0.110526316
						120:[f27<0.970283031] yes=235,no=236,missing=235
							235:[f16<42.6030273] yes=441,no=442,missing=441
								441:leaf=0.0517241359
								442:leaf=-0.0414364636
							236:[f15<1.86527789] yes=443,no=444,missing=443
								443:leaf=-0.00530035561
								444:leaf=0.117391303
					60:[f6<0.0288737006] yes=121,no=122,missing=121
						121:[f7<0.0562004633] yes=237,no=238,missing=237
							237:[f4<18.0444031] yes=445,no=446,missing=445
								445:leaf=-0.0321824923
								446:leaf=-0.0487990528
							238:leaf=0.0906976685
						122:[f5<40.9951057] yes=239,no=240,missing=239
							239:leaf=0.157894731
							240:[f1<0] yes=447,no=448,missing=447
								447:leaf=-0.0396226421
								448:leaf=0.0157894716
				30:[f6<-0.0496227145] yes=61,no=62,missing=61
					61:leaf=0.0622641444
					62:[f5<179.86644] yes=123,no=124,missing=123
						123:[f16<81.564621] yes=241,no=242,missing=241
							241:[f22<0.444598436] yes=449,no=450,missing=449
								449:leaf=0.0631578937
								450:leaf=-0.0468412749
							242:[f30<0.779077649] yes=451,no=452,missing=451
								451:leaf=-0.0545568168
								452:leaf=-0.0306122452
						124:[f7<0.0533347875] yes=243,no=244,missing=243
							243:[f13<6.27962685] yes=453,no=454,missing=453
								453:leaf=-0.057358183
								454:leaf=0.0157894716
							244:leaf=0.0157894716
booster[6]:
0:[f20<1.5] yes=1,no=2,missing=1
	1:[f0<35.8298454] yes=3,no=4,missing=3
		3:[f16<103.34761] yes=7,no=8,missing=7
			7:[f16<82.5357513] yes=15,no=16,missing=15
				15:[f16<34.1865387] yes=31,no=32,missing=31
					31:[f18<59.6351891] yes=63,no=64,missing=63
						63:[f21<1.52163386] yes=127,no=128,missing=127
							127:[f4<13.7305584] yes=253,no=254,missing=253
								253:leaf=0.0071859262
								254:leaf=0.100176327
							128:[f12<1.95017111] yes=255,no=256,missing=255
								255:leaf=-0.0336694829
								256:leaf=0.0418747775
						64:[f23<79.6070557] yes=129,no=130,missing=129
							129:[f16<18.6842403] yes=257,no=258,missing=257
								257:leaf=0.0913903341
								258:leaf=0.162042886
							130:[f18<90.6873322] yes=259,no=260,missing=259
								259:leaf=0.00492026377
								260:leaf=0.107143514
					32:[f16<77.4605865] yes=65,no=66,missing=65
						65:[f4<18.2952347] yes=131,no=132,missing=131
							131:[f16<39.0733948] yes=261,no=262,missing=261
								261:leaf=0.0580181181
								262:leaf=0.131826222
							132:[f27<0.585854173] yes=263,no=264,missing=263
								263:leaf=0.17620419
								264:leaf=0.00750183919
						66:[f10<64.0546799] yes=133,no=134,missing=133
							133:[f5<103.998177] yes=265,no=266,missing=265
								265:leaf=0.0645608008
								266:leaf=0.138853654
							134:[f9<27.5053062] yes=267,no=268,missing=267
								267:leaf=0.0803255141
								268:leaf=0.150545999
				16:[f16<96.9317017] yes=33,no=34,missing=33
					33:[f16<86.3831024] yes=67,no=68,missing=67
						67:[f0<25.9625053] yes=135,no=136,missing=135
							135:[f23<129.827103] yes=269,no=270,missing=269
								269:leaf=0.011167733
								270:leaf=0.0991680026
							136:[f5<35.7653465] yes=271,no=272,missing=271
								271:leaf=0.0236573722
								272:leaf=0.0820756555
						68:[f23<96.4915771] yes=137,no=138,missing=137
							137:[f0<26.3395329] yes=273,no=274,missing=273
								273:leaf=-0.0236271378
								274:leaf=0.00604807725
							138:[f27<0.0361581743] yes=275,no=276,missing=275
								275:leaf=0.0633839294
								276:leaf=0.0181419402
					34:[f0<18.0799065] yes=69,no=70,missing=69
						69:[f16<99.0781403] yes=139,no=140,missing=139
							139:[f22<1.25799775] yes=277,no=278,missing=277
								277:leaf=0.00787461642
								278:leaf=0.0560072921
							140:[f27<0.537202001] yes=279,no=280,missing=279
								279:leaf=0.080738239
								280:leaf=-0.0538784452
						70:[f16<99.4547729] yes=141,no=142,missing=141
							141:[f0<28.8968964] yes=281,no=282,missing=281
								281:leaf=0.0720628798
								282:leaf=0.115414359
							142:[f5<72.6307373] yes=283,no=284,missing=283
								283:leaf=0.113760188
								284:leaf=0.151086569
			8:[f27<0.68476975] yes=17,no=18,missing=17
				17:[f16<116.565239] yes=35,no=36,missing=35
					35:[f0<18.2211742] yes=71,no=72,missing=71
						71:[f23<92.3000641] yes=143,no=144,missing=143
							143:[f16<107.346962] yes=285,no=286,missing=285
								285:leaf=0.109057106
								286:leaf=0.148000225
							144:[f28<0.286189437] yes=287,no=288,missing=287
								287:leaf=0.185934991
								288:leaf=0.0113563091
						72:[f5<81.9609528] yes=145,no=146,missing=145
							145:[f27<0.139486969] yes=289,no=290,missing=289
								289:leaf=0.170473233
								290:leaf=0.0986650363
							146:[f28<0.745717168] yes=291,no=292,missing=291
								291:leaf=0.19273448
								292:leaf=-0.00758874044
					36:[f28<0.620868027] yes=73,no=74,missing=73
						73:[f29<0.710106969] yes=147,no=148,missing=147
							147:[f16<147.685486] yes=293,no=294,missing=293
								293:leaf=0.197719321
								294:leaf=0.213578269
							148:[f4<106.081284] yes=295,no=296,missing=295
								295:leaf=-0.0196852889
								296:leaf=0.126981631
						74:[f28<0.852312803] yes=149,no=150,missing=149
							149:[f3<102.155655] yes=297,no=298,missing=297
								297:leaf=0.0201846492
								298:leaf=0.126722082
							150:[f5<251.907959] yes=299,no=300,missing=299
								299:leaf=-0.0181357395
								300:leaf=0.0717982128
				18:[f27<0.886915803] yes=37,no=38,missing=37
					37:[f28<0.0534211472] yes=75,no=76,missing=75
						75:[f4<76.5698395] yes=151,no=152,missing=151
							151:[f5<133.291168] yes=301,no=302,missing=301
								301:leaf=0.056614913
								302:leaf=0.150699094
							152:[f21<1.07576251] yes=303,no=304,missing=303
								303:leaf=0.0349290371
								304:leaf=0.196310684
						76:[f5<212.974457] yes=153,no=154,missing=153
							153:[f6<-0.00485499669] yes=305,no=306,missing=305
								305:leaf=0.0163095724
								306:leaf=-0.0535698421
							154:leaf=0.0867114589
					38:[f3<129.103821] yes=77,no=78,missing=77
						77:[f23<36.570076] yes=155,no=156,missing=155
							155:[f16<129.184845] yes=307,no=308,missing=307
								307:leaf=-0.0352959
								308:leaf=0.179078221
							156:[f23<212.541214] yes=309,no=310,missing=309
								309:leaf=-0.0343414247
								310:leaf=0.0699209794
						78:[f22<1.98666835] yes=157,no=158,missing=157
							157:[f14<2.20906258] yes=311,no=312,missing=311
								311:leaf=-0.0273377635
								312:leaf=0.0841518939
							158:[f21<1.52704549] yes=313,no=314,missing=313
								313:leaf=0.0298604369
								314:leaf=0.158821315
		4:[f27<0.684310138] yes=9,no=10,missing=9
			9:[f28<0.609589756] yes=19,no=20,missing=19
				19:[f0<51.6427879] yes=39,no=40,missing=39
					39:[f16<99.940567] yes=79,no=80,missing=79
						79:[f16<84.3298569] yes=159,no=160,missing=159
							159:[f16<33.3347778] yes=315,no=316,missing=315
								315:leaf=0.129330888
								316:leaf=0.192984357
							160:[f16<95.4596252] yes=317,no=318,missing=317
								317:leaf=0.0655072927
								318:leaf=0.145681694
						80:[f29<0.525960743] yes=161,no=162,missing=161
							161:[f16<111.40564] yes=319,no=320,missing=319
								319:leaf=0.194853038
								320:leaf=0.21743159
							162:[f29<0.976887167] yes=321,no=322,missing=321
								321:leaf=0.0550617762
								322:leaf=-0.0385255814
					40:[f29<0.560404837] yes=81,no=82,missing=81
						81:[f20<0.5] yes=163,no=164,missing=163
							163:[f16<100.193832] yes=323,no=324,missing=323
								323:leaf=0.213717684
								324:leaf=0.222848773
							164:[f30<0.601952732] yes=325,no=326,missing=325
								325:leaf=0.200344548
								326:leaf=0.00639747223
						82:[f29<0.805024743] yes=165,no=166,missing=165
							165:[f23<146.009033] yes=327,no=328,missing=327
								327:leaf=0.0360316895
								328:leaf=0.129741177
							166:[f3<173.103821] yes=329,no=330,missing=329
								329:leaf=-0.0166951399
								330:leaf=0.0769427493
				20:[f28<0.823743463] yes=41,no=42,missing=41
					41:[f3<145.943665] yes=83,no=84,missing=83
						83:[f21<2.27661252] yes=167,no=168,missing=167
							167:[f25<30.0294266] yes=331,no=332,missing=331
								331:leaf=0.0683709905
								332:leaf=0.0136548076
							168:[f23<169.412689] yes=333,no=334,missing=333
								333:leaf=0.0859834999
								334:leaf=0.154901102
						84:[f21<1.68415236] yes=169,no=170,missing=169
							169:[f16<204.179779] yes=335,no=336,missing=335
								335:leaf=0.156760409
								336:leaf=0.0596297942
							170:[f8<15.657074] yes=337,no=338,missing=337
								337:leaf=0.048568029
								338:leaf=0.183554336
					42:[f3<174.261047] yes=85,no=86,missing=85
						85:[f23<244.37326] yes=171,no=172,missing=171
							171:[f24<40.4270401] yes=339,no=340,missing=339
								339:leaf=0.0160507839
								340:leaf=-0.0245323628
							172:[f21<1.72386384] yes=341,no=342,missing=341
								341:leaf=0.000704353384
								342:leaf=0.0857467875
						86:[f21<1.66015339] yes=173,no=174,missing=173
							173:[f29<0.0489860065] yes=343,no=344,missing=343
								343:leaf=0.0430967472
								344:leaf=-0.0543294661
							174:[f23<334.215912] yes=345,no=346,missing=345
								345:leaf=0.0920469686
								346:leaf=0.206506044
			10:[f27<0.903604031] yes=21,no=22,missing=21
				21:[f21<1.55983186] yes=43,no=44,missing=43
					43:[f23<328.199158] yes=87,no=88,missing=87
						87:[f3<137.68512] yes=175,no=176,missing=175
							175:[f27<0.767267227] yes=347,no=348,missing=347
								347:leaf=0.0521727763
								348:leaf=-0.0154149011
							176:[f22<1.84346724] yes=349,no=350,missing=349
								349:leaf=0.0241860207
								350:leaf=0.119740285
						88:[f19<3.5] yes=177,no=178,missing=177
							177:[f21<0.646323502] yes=351,no=352,missing=351
								351:leaf=0.0618185513
								352:leaf=0.220329389
							178:[f22<1.942837] yes=353,no=354,missing=353
								353:leaf=-0.0413826853
								354:leaf=0.115057267
					44:[f23<157.768967] yes=89,no=90,missing=89
						89:[f3<120.3526] yes=179,no=180,missing=179
							179:[f19<1.5] yes=355,no=356,missing=355
								355:leaf=0.085358046
								356:leaf=0.0295510534
							180:[f22<1.21400797] yes=357,no=358,missing=357
								357:leaf=0.0652955994
								358:leaf=0.149996877
						90:[f22<0.918789923] yes=181,no=182,missing=181
							181:[f15<1.20021749] yes=359,no=360,missing=359
								359:leaf=0.12619409
								360:leaf=0.0143534169
							182:[f17<164.187744] yes=361,no=362,missing=361
								361:leaf=0.149502888
								362:leaf=0.211270526
